{"learner":{"attributes":{"scikit_learn":"{\"_estimator_type\": \"classifier\"}"},"feature_names":["num_transactions","n_unique_addresses","cluster_coeff","tx_curve","liq_curve","Mint","Burn","Transfer","event","difference_token_pool","n_syncs","WETH","prices","liquidity","burn","lock","yield"],"feature_types":["int","int","float","float","float","int","int","int","int","int","int","float","float","float","float","float","float"],"gradient_booster":{"model":{"gbtree_model_param":{"num_parallel_tree":"1","num_trees":"100"},"iteration_indptr":[0,1,2,3,4,5,6,7,8,9,10,11,12,13,14,15,16,17,18,19,20,21,22,23,24,25,26,27,28,29,30,31,32,33,34,35,36,37,38,39,40,41,42,43,44,45,46,47,48,49,50,51,52,53,54,55,56,57,58,59,60,61,62,63,64,65,66,67,68,69,70,71,72,73,74,75,76,77,78,79,80,81,82,83,84,85,86,87,88,89,90,91,92,93,94,95,96,97,98,99,100],"tree_info":[0,0,0,0,0,0,0,0,0,0,0,0,0,0,0,0,0,0,0,0,0,0,0,0,0,0,0,0,0,0,0,0,0,0,0,0,0,0,0,0,0,0,0,0,0,0,0,0,0,0,0,0,0,0,0,0,0,0,0,0,0,0,0,0,0,0,0,0,0,0,0,0,0,0,0,0,0,0,0,0,0,0,0,0,0,0,0,0,0,0,0,0,0,0,0,0,0,0,0,0],"trees":[{"base_weights":[-6.4155763E-1,-1.0892515E0,4.9014487E0,-1.1383624E0,3.309895E0,8.434065E-1,5.7060347E0,-1.1699336E0,-2.4343462E-1,-1.1894536E-1,2.463609E0,-4.4184294E-1,1.7371709E0,4.5204288E-1,6.2739215E0,-1.1894536E-1,-1.1746244E0,-4.4188464E-1,1.0822264E0,1.7371709E0,6.4118114E0,-9.0231776E-1,-4.4191685E-1,1.407026E0,-4.4183147E-1,2.4637191E0,1.8178995E0,-4.4186157E-1,-7.857416E-2],"categories":[],"categories_nodes":[],"categories_segments":[],"categories_sizes":[],"default_left":[0,0,0,0,0,0,0,0,0,0,0,0,0,0,0,0,0,0,0,0,0,0,0,0,0,0,0,0,0],"id":0,"left_children":[1,3,5,7,9,11,13,15,17,-1,-1,-1,-1,-1,19,-1,21,-1,23,-1,25,27,-1,-1,-1,-1,-1,-1,-1],"loss_changes":[5.952323E2,4.7947815E1,5.8523895E1,6.2008057E0,2.901961E1,2.2753761E1,3.8222015E1,8.47229E-1,9.279313E0,0E0,0E0,0E0,0E0,0E0,2.9953613E0,0E0,2.715149E-1,0E0,1.870758E1,0E0,3.1159363E0,6.919923E-1,0E0,0E0,0E0,0E0,0E0,0E0,0E0],"parents":[2147483647,0,0,1,1,2,2,3,3,4,4,5,5,6,6,7,7,8,8,14,14,16,16,18,18,20,20,21,21],"right_children":[2,4,6,8,10,12,14,16,18,-1,-1,-1,-1,-1,20,-1,22,-1,24,-1,26,28,-1,-1,-1,-1,-1,-1,-1],"split_conditions":[3.12E2,1.54409E5,4E0,3.0009E4,3.4E1,7.4392664E-1,5.202E3,1.004E-15,2E1,-1.1894536E-1,2.463609E0,-4.4184294E-1,1.7371709E0,4.5204288E-1,2.56E2,-1.1894536E-1,5E-7,-4.4188464E-1,9.728366E-1,1.7371709E0,2.4708E5,1.6E1,-4.4191685E-1,1.407026E0,-4.4183147E-1,2.4637191E0,1.8178995E0,-4.4186157E-1,-7.857416E-2],"split_indices":[0,9,8,9,10,3,9,11,1,0,0,0,0,0,1,0,12,0,11,0,9,0,0,0,0,0,0,0,0],"split_type":[0,0,0,0,0,0,0,0,0,0,0,0,0,0,0,0,0,0,0,0,0,0,0,0,0,0,0,0,0],"sum_hessian":[2.3986174E2,2.219366E2,1.7925152E1,2.1948639E2,2.4502006E0,2.9660323E0,1.495912E1,2.1200684E2,7.47956E0,1.1606214E0,1.2895793E0,1.9343688E0,1.0316634E0,1.6764531E0,1.3282666E1,1.1606214E0,2.108462E2,4.3845696E0,3.0949903E0,1.0316634E0,1.2251003E1,3.610822E0,2.0723538E2,1.4185371E0,1.6764531E0,1.1090382E1,1.1606214E0,2.5791585E0,1.0316634E0],"tree_param":{"num_deleted":"0","num_feature":"17","num_nodes":"29","size_leaf_vector":"1"}},{"base_weights":[-7.3037493E-1,-1.006971E0,1.3726952E0,-1.0880313E0,4.5740762E-1,1.2597486E0,1.2104133E0,-1.1016301E0,3.8240322E-1,-6.3122797E-1,1.7059631E0,1.3824955E0,4.8907638E-1,-7.273336E-2,-1.1074187E0,-1.2370166E0,5.524028E-1,1.020291E0,8.871469E-1,8.589293E-1,1.4905908E0,5.5246896E-1,-6.5701824E-1,-9.154745E-1,-1.1171746E0,-2.1781991E-1,-1.6910049E0,-3.7755638E-3,5.878152E-1,7.057491E-1,-2.2107847E-1,1.5105157E0,4.764185E-1,-4.1856584E-1,1.4059405E-1,-4.179991E-1,-5.068643E-1,-6.9263035E-1,-5.614518E-1,1.4926372E0,6.346113E-1,6.221693E-1,5.525065E-1],"categories":[],"categories_nodes":[],"categories_segments":[],"categories_sizes":[],"default_left":[0,0,0,0,0,0,0,0,0,0,0,0,0,0,0,0,0,0,0,0,0,0,0,0,0,0,0,0,0,0,0,0,0,0,0,0,0,0,0,0,0,0,0],"id":1,"left_children":[1,3,5,7,9,-1,11,13,-1,15,17,19,21,-1,23,25,-1,-1,27,29,31,-1,-1,33,35,-1,37,-1,-1,-1,-1,39,-1,-1,-1,-1,-1,-1,-1,41,-1,-1,-1],"loss_changes":[1.1475292E2,2.0695206E1,7.400337E0,4.736923E0,1.2429471E1,0E0,2.6308403E0,8.617859E-1,0E0,6.2303085E0,3.545412E0,9.6780396E-1,9.023436E0,0E0,3.0464172E-1,1.1284075E0,0E0,0E0,1.4436805E0,4.3496065E0,6.0884476E-2,0E0,0E0,2.0532303E0,5.8929443E-2,0E0,6.669712E-2,0E0,0E0,0E0,0E0,4.134941E-2,0E0,0E0,0E0,0E0,0E0,0E0,0E0,3.484726E-2,0E0,0E0,0E0],"parents":[2147483647,0,0,1,1,2,2,3,3,4,4,6,6,7,7,9,9,10,10,11,11,12,12,14,14,15,15,18,18,19,19,20,20,23,23,24,24,26,26,31,31,39,39],"right_children":[2,4,6,8,10,-1,12,14,-1,16,18,20,22,-1,24,26,-1,-1,28,30,32,-1,-1,34,36,-1,38,-1,-1,-1,-1,40,-1,-1,-1,-1,-1,-1,-1,42,-1,-1,-1],"split_conditions":[5.69E2,6.3543E4,2.0056286E-1,2.56E2,9.040782E3,1.2597486E0,3.222688E1,3.375246E-14,3.8240322E-1,5.6E1,9.728366E-1,2.5E1,9.94018E-1,-7.273336E-2,4.6044484E-1,2.9E1,5.524028E-1,1.020291E0,7.7E1,1.6521214E-2,1.619419E1,5.5246896E-1,-6.5701824E-1,7.9E1,3.12E2,-2.1781991E-1,2.00096E-1,-3.7755638E-3,5.878152E-1,7.057491E-1,-2.2107847E-1,1.566853E-1,4.764185E-1,-4.1856584E-1,1.4059405E-1,-4.179991E-1,-5.068643E-1,-6.9263035E-1,-5.614518E-1,1.9627657E-2,6.346113E-1,6.221693E-1,5.525065E-1],"split_indices":[0,9,3,1,13,0,11,13,0,10,11,10,4,0,11,1,0,0,10,2,11,0,0,0,0,0,11,0,0,0,0,2,0,0,0,0,0,0,0,2,0,0,0],"split_type":[0,0,0,0,0,0,0,0,0,0,0,0,0,0,0,0,0,0,0,0,0,0,0,0,0,0,0,0,0,0,0,0,0,0,0,0,0,0,0,0,0,0,0],"sum_hessian":[1.9727158E2,1.7434224E2,2.2929333E1,1.65198E2,9.144237E0,1.7292756E0,2.1200056E1,1.641396E2,1.0584006E0,4.8848023E0,4.2594337E0,1.711627E1,4.0837865E0,1.0407242E0,1.6309888E2,3.793504E0,1.0912981E0,1.8996528E0,2.3597813E0,2.92969E0,1.4186581E1,2.8372858E0,1.2465005E0,7.8908043E0,1.5520807E2,1.5523069E0,2.241197E0,1.0185053E0,1.3412758E0,1.7163295E0,1.2133604E0,1.3002619E1,1.1839613E0,6.825166E0,1.065638E0,1.5413766E2,1.0704029E0,1.2320766E0,1.0091205E0,1.1847905E1,1.1547137E0,1.1535206E0,1.0694385E1],"tree_param":{"num_deleted":"0","num_feature":"17","num_nodes":"43","size_leaf_vector":"1"}},{"base_weights":[-6.2961775E-1,-9.8049724E-1,1.0062126E0,-1.0532035E0,4.2039347E-1,4.4322453E-2,1.2428715E0,-7.120544E-1,-1.0763967E0,-4.4272923E-1,1.0197798E0,1.3114396E0,-1.6277168E0,1.3840631E0,1.01050235E-1,-1.0846949E0,4.8313022E-1,-4.0321195E-1,-4.148667E-1,1.4730331E0,-1.4827137E-1,3.9634126E-1,5.528627E-1,-8.1045616E-1,-4.385929E-1,7.518053E-1,1.2855173E0,-3.0580133E-1,3.870585E-1,-4.2240575E-1,-4.0310672E-1,7.77419E-1,3.0078208E-1,1.3332607E0,3.206417E-1,6.634136E-1,1.2952415E0,1.2760651E0,5.601629E-1,5.0682706E-1,4.751007E-1],"categories":[],"categories_nodes":[],"categories_segments":[],"categories_sizes":[],"default_left":[0,0,0,0,0,0,0,0,0,0,0,0,0,0,0,0,0,0,0,0,0,0,0,0,0,0,0,0,0,0,0,0,0,0,0,0,0,0,0,0,0],"id":2,"left_children":[1,3,5,7,9,11,13,15,17,-1,19,21,23,25,27,29,-1,-1,-1,31,-1,-1,-1,-1,-1,-1,33,-1,-1,-1,-1,-1,-1,35,-1,-1,37,39,-1,-1,-1],"loss_changes":[8.32336E1,1.2161606E1,5.8295517E0,8.974457E-1,5.6562357E0,1.0714617E1,3.3129826E0,5.3897486E0,2.3651123E-4,0E0,2.7508655E0,1.1875677E-1,5.322113E-1,1.1204948E0,1.9335765E0,1.4739037E-3,0E0,0E0,0E0,1.308722E0,0E0,0E0,0E0,0E0,0E0,0E0,3.2321358E-1,0E0,0E0,0E0,0E0,0E0,0E0,2.3507118E-1,0E0,0E0,4.9016953E-2,6.433487E-3,0E0,0E0,0E0],"parents":[2147483647,0,0,1,1,2,2,3,3,4,4,5,5,6,6,7,7,8,8,10,10,11,11,12,12,13,13,14,14,15,15,19,19,26,26,33,33,36,36,37,37],"right_children":[2,4,6,8,10,12,14,16,18,-1,20,22,24,26,28,30,-1,-1,-1,32,-1,-1,-1,-1,-1,-1,34,-1,-1,-1,-1,-1,-1,36,-1,-1,38,40,-1,-1,-1],"split_conditions":[3.12E2,6.3543E4,5E0,5.032109E-1,9.9998164E-1,2.124242E-1,7.8078127E-3,2E1,2.5E2,-4.4272923E-1,5.1954024E-2,1.287E3,2.4E0,2.0056286E-1,2.018E3,7.5002963E-4,4.8313022E-1,-4.0321195E-1,-4.148667E-1,9.728366E-1,-1.4827137E-1,3.9634126E-1,5.528627E-1,-8.1045616E-1,-4.385929E-1,7.518053E-1,6.196E1,-3.0580133E-1,3.870585E-1,-4.2240575E-1,-4.0310672E-1,7.77419E-1,3.0078208E-1,2.56E2,3.206417E-1,6.634136E-1,1.95277E5,4.27E2,5.601629E-1,5.0682706E-1,4.751007E-1],"split_indices":[0,9,8,11,3,11,12,1,0,0,2,0,11,3,0,13,0,0,0,11,0,0,0,0,0,0,11,0,0,0,0,0,0,1,0,0,9,0,0,0,0],"split_type":[0,0,0,0,0,0,0,0,0,0,0,0,0,0,0,0,0,0,0,0,0,0,0,0,0,0,0,0,0,0,0,0,0,0,0,0,0,0,0,0,0],"sum_hessian":[1.4501149E2,1.1940071E2,2.5610773E1,1.1350983E2,5.8908887E0,5.0572777E0,2.0553495E1,7.226821E0,1.06283005E2,1.6038313E0,4.2870574E0,2.8771334E0,2.1801443E0,1.8291353E1,2.2621424E0,6.0926313E0,1.1341895E0,1.0519066E2,1.0923408E0,3.2474504E0,1.0396072E0,1.1306151E0,1.7465183E0,1.0040363E0,1.176108E0,2.4999733E0,1.579138E1,1.1398941E0,1.1222482E0,1.0456133E0,5.047018E0,1.711005E0,1.5364454E0,1.4211818E1,1.5795627E0,1.1361083E0,1.3075709E1,1.1931851E1,1.1438577E0,1.1423109E0,1.078954E1],"tree_param":{"num_deleted":"0","num_feature":"17","num_nodes":"41","size_leaf_vector":"1"}},{"base_weights":[-6.027138E-1,-9.376491E-1,7.600249E-1,-1.0295434E0,7.344579E-2,-2.5087684E-1,1.0587337E0,-1.0530409E0,-6.2943655E-1,-1.190868E0,6.1712193E-1,8.2903576E-1,-1.2155923E0,1.1666971E0,3.280481E-1,-4.3243268E-1,-3.9396062E-1,-1.0643448E0,2.525691E-1,-3.949085E-1,-4.957597E-1,-4.1697818E-1,1.1327958E0,5.1360244E-1,7.571486E-2,-7.569079E-1,-2.5835368E-1,1.2247981E0,2.416214E-1,-2.2364652E-1,4.4650462E-1,-4.102101E-1,-3.9364773E-1,2.4378984E-1,6.087262E-1,1.2660246E0,2.9623348E-1,1.4947088E0,1.2182698E0,5.81907E-1,5.381625E-1,1.1870464E0,5.171326E-1,4.7735438E-1,1.1739242E0,4.5169362E-1,4.3761808E-1],"categories":[],"categories_nodes":[],"categories_segments":[],"categories_sizes":[],"default_left":[0,0,0,0,0,0,0,0,0,0,0,0,0,0,0,0,0,0,0,0,0,0,0,0,0,0,0,0,0,0,0,0,0,0,0,0,0,0,0,0,0,0,0,0,0,0,0],"id":3,"left_children":[1,3,5,7,9,11,13,15,17,19,21,23,25,27,29,-1,-1,31,-1,-1,-1,-1,33,-1,-1,-1,-1,35,-1,-1,-1,-1,-1,-1,-1,37,-1,39,41,-1,-1,43,-1,-1,45,-1,-1],"loss_changes":[4.8602547E1,7.9422607E0,6.3440247E0,7.3602295E-1,4.8946095E0,4.9919324E0,1.2787266E0,1.1550903E-2,2.464605E0,3.7859917E-2,4.442479E0,7.670845E-1,1.0700636E0,4.2768478E-1,1.6680315E0,0E0,0E0,5.5241585E-4,0E0,0E0,0E0,0E0,9.0880585E-1,0E0,0E0,0E0,0E0,2.2679138E-1,0E0,0E0,0E0,0E0,0E0,0E0,0E0,1.2574959E-1,0E0,5.6881905E-3,4.7556877E-2,0E0,0E0,8.2530975E-3,0E0,0E0,4.2819977E-4,0E0,0E0],"parents":[2147483647,0,0,1,1,2,2,3,3,4,4,5,5,6,6,7,7,8,8,9,9,10,10,11,11,12,12,13,13,14,14,17,17,22,22,27,27,35,35,37,37,38,38,41,41,44,44],"right_children":[2,4,6,8,10,12,14,16,18,20,22,24,26,28,30,-1,-1,32,-1,-1,-1,-1,34,-1,-1,-1,-1,36,-1,-1,-1,-1,-1,-1,-1,38,-1,40,42,-1,-1,44,-1,-1,46,-1,-1],"split_conditions":[3.12E2,3.0009E4,5E0,5.451E3,8E0,1.21230674E-4,9.191E1,3.00001E-7,7.9E1,7.7556E4,9.9998164E-1,4.7793692E2,2.4E1,4.5E7,1.062E3,-4.3243268E-1,-3.9396062E-1,4.5170753E1,2.525691E-1,-3.949085E-1,-4.957597E-1,-4.1697818E-1,7.9E1,5.1360244E-1,7.571486E-2,-7.569079E-1,-2.5835368E-1,6.1006364E-3,2.416214E-1,-2.2364652E-1,4.4650462E-1,-4.102101E-1,-3.9364773E-1,2.4378984E-1,6.087262E-1,2.37E2,2.9623348E-1,1.95E2,3.441E3,5.81907E-1,5.381625E-1,3E1,5.171326E-1,4.7735438E-1,3.23E2,4.5169362E-1,4.3761808E-1],"split_indices":[0,9,8,9,10,12,11,11,0,9,3,13,10,13,10,0,0,13,0,0,0,0,1,0,0,0,0,12,0,0,0,0,0,0,0,1,0,1,1,0,0,10,0,0,1,0,0],"split_type":[0,0,0,0,0,0,0,0,0,0,0,0,0,0,0,0,0,0,0,0,0,0,0,0,0,0,0,0,0,0,0,0,0,0,0,0,0,0,0,0,0,0,0,0,0,0,0],"sum_hessian":[1.0648412E2,8.547602E1,2.10081E1,7.835502E1,7.1210003E0,4.7914476E0,1.6216654E1,7.4007744E1,4.3472757E0,2.1411276E0,4.9798727E0,2.2605624E0,2.5308852E0,1.4128552E1,2.0881016E0,1.1906489E0,7.28171E1,3.2598965E0,1.0873792E0,1.0530528E0,1.0880748E0,1.1433921E0,3.8364806E0,1.2124846E0,1.0480778E0,1.0004646E0,1.5304208E0,1.2712508E1,1.4160439E0,1.008032E0,1.0800695E0,1.008785E0,2.2511115E0,1.9374715E0,1.899009E0,1.1609398E1,1.1031098E0,2.004119E0,9.605279E0,1.0006956E0,1.0034235E0,8.053771E0,1.5515083E0,1.0527949E0,7.000976E0,1.113466E0,5.88751E0],"tree_param":{"num_deleted":"0","num_feature":"17","num_nodes":"47","size_leaf_vector":"1"}},{"base_weights":[-5.512869E-1,-9.9233955E-1,4.3885994E-1,-1.045769E0,4.8384354E-1,-6.7355317E-1,8.5878104E-1,-1.0361179E0,-5.535854E-1,-1.0567733E0,-1.2020896E-1,1.2493956E0,3.4977263E-1,-1.035221E0,-4.0241203E-1,-4.1619304E-1,-3.8852093E-1,-3.3108044E-1,3.668304E-1,7.314982E-1,1.1593018E0,-4.9501607E-1,6.4345926E-1,-4.0296584E-1,-3.875829E-1,1.1924832E0,3.677722E-1,-7.3587075E-2,9.891962E-1,4.9257663E-1,1.150596E0,1.2385108E0,5.5340182E-2,4.6426308E-1,4.1547883E-1,5.5771863E-1,1.1314287E0,4.164066E-1,4.3320012E-1],"categories":[],"categories_nodes":[],"categories_segments":[],"categories_sizes":[],"default_left":[0,0,0,0,0,0,0,0,0,0,0,0,0,0,0,0,0,0,0,0,0,0,0,0,0,0,0,0,0,0,0,0,0,0,0,0,0,0,0],"id":4,"left_children":[1,3,5,7,-1,9,11,13,-1,15,17,19,21,23,-1,-1,-1,-1,-1,-1,25,-1,27,-1,-1,29,-1,-1,31,-1,33,35,-1,-1,-1,-1,37,-1,-1],"loss_changes":[3.364023E1,6.502224E0,1.1088899E1,2.1596146E-1,0E0,1.378968E0,3.4258442E0,9.2697144E-4,0E0,3.3106804E-3,2.233703E0,6.161728E-1,3.6717691E0,9.1171265E-4,0E0,0E0,0E0,0E0,0E0,0E0,5.016613E-2,0E0,1.848371E0,0E0,0E0,3.6299706E-2,0E0,0E0,9.4544935E-1,0E0,1.9145489E-2,9.207487E-2,0E0,0E0,0E0,0E0,3.4928322E-4,0E0,0E0],"parents":[2147483647,0,0,1,1,2,2,3,3,5,5,6,6,7,7,9,9,10,10,11,11,12,12,13,13,20,20,22,22,25,25,28,28,30,30,31,31,36,36],"right_children":[2,4,6,8,-1,10,12,14,-1,16,18,20,22,24,-1,-1,-1,-1,-1,-1,26,-1,28,-1,-1,30,-1,-1,32,-1,34,36,-1,-1,-1,-1,38,-1,-1],"split_conditions":[5.202E3,2.15E2,6.6E1,1.287E3,4.8384354E-1,1E0,2.3864664E-4,2.36E2,-5.535854E-1,2.8031576E-1,3E0,1.93E2,1.3E1,1E-1,-4.0241203E-1,-4.1619304E-1,-3.8852093E-1,-3.3108044E-1,3.668304E-1,7.314982E-1,1.694023E7,-4.9501607E-1,6.73E2,-4.0296584E-1,-3.875829E-1,2.56E2,3.677722E-1,-7.3587075E-2,7.202547E6,4.9257663E-1,2.4E1,1.3E1,5.5340182E-2,4.6426308E-1,4.1547883E-1,5.5771863E-1,6.9895995E-1,4.164066E-1,4.3320012E-1],"split_indices":[9,8,1,0,0,3,12,0,0,11,8,0,10,11,0,0,0,0,0,0,13,0,0,0,0,1,0,0,13,0,10,8,0,0,0,0,4,0,0],"split_type":[0,0,0,0,0,0,0,0,0,0,0,0,0,0,0,0,0,0,0,0,0,0,0,0,0,0,0,0,0,0,0,0,0,0,0,0,0,0,0],"sum_hessian":[7.703109E1,5.3292686E1,2.3738407E1,5.2074467E1,1.2182175E0,6.5050306E0,1.7233377E1,5.093641E1,1.1380582E0,3.8429193E0,2.662111E0,9.750254E0,7.483123E0,4.976631E1,1.1700965E0,1.0306776E0,2.8122418E0,1.5712528E0,1.0908582E0,1.1074065E0,8.642847E0,1.1184883E0,6.3646345E0,1.0303377E0,4.8735973E1,7.2818065E0,1.3610404E0,1.8557255E0,4.508909E0,1.8578359E0,5.4239707E0,3.4780202E0,1.030889E0,1.7378576E0,3.686113E0,1.0421937E0,2.4358265E0,1.3496993E0,1.0861273E0],"tree_param":{"num_deleted":"0","num_feature":"17","num_nodes":"39","size_leaf_vector":"1"}},{"base_weights":[-5.822827E-1,-9.937286E-1,2.892073E-1,5.9588365E-2,-1.0295697E0,-7.2345394E-1,6.6822535E-1,-3.8375127E-1,-4.5475295E-1,-3.8996112E-1,-8.607515E-2,-3.3432773E-1,8.2392126E-1,4.3895727E-1,1.0811036E0,9.1888845E-1,-1.0998313E-1,3.6470103E-1,1.1017777E0,3.3298563E-2,5.9361106E-1,4.0316528E-1,1.1154988E0,4.0931052E-1,4.2954212E-1],"categories":[],"categories_nodes":[],"categories_segments":[],"categories_sizes":[],"default_left":[0,0,0,0,0,0,0,0,0,0,0,0,0,0,0,0,0,0,0,0,0,0,0,0,0],"id":5,"left_children":[1,3,5,-1,7,9,11,-1,-1,-1,-1,-1,13,15,17,19,-1,-1,21,-1,-1,-1,23,-1,-1],"loss_changes":[1.9795685E1,1.5497513E0,6.795372E0,0E0,3.551483E-2,7.5478053E-1,3.1300602E0,0E0,0E0,0E0,0E0,0E0,1.1592436E0,1.6497784E0,1.4864922E-2,1.5650399E0,0E0,0E0,1.2545586E-3,0E0,0E0,0E0,1.888752E-3,0E0,0E0],"parents":[2147483647,0,0,1,1,2,2,4,4,5,5,6,6,12,12,13,13,14,14,15,15,18,18,22,22],"right_children":[2,4,6,-1,8,10,12,-1,-1,-1,-1,-1,14,16,18,20,-1,-1,22,-1,-1,-1,24,-1,-1],"split_conditions":[5.202E3,8.342633E-1,6.6E1,5.9588365E-2,3.12E2,6.3543E4,3.9474016E-1,-3.8375127E-1,-4.5475295E-1,-3.8996112E-1,-8.607515E-2,-3.3432773E-1,5E0,1.9E1,7.1754813E-1,1E1,-1.0998313E-1,3.6470103E-1,2.0260452E-6,3.3298563E-2,5.9361106E-1,4.0316528E-1,9.8878264E-1,4.0931052E-1,4.2954212E-1],"split_indices":[9,4,1,0,0,9,3,0,0,0,0,0,8,10,3,10,0,0,12,0,0,0,4,0,0],"split_type":[0,0,0,0,0,0,0,0,0,0,0,0,0,0,0,0,0,0,0,0,0,0,0,0,0],"sum_hessian":[5.520641E1,3.7501648E1,1.7704762E1,1.1305152E0,3.637113E1,4.821546E0,1.2883216E1,3.5330486E1,1.0406457E0,2.9349225E0,1.8866235E0,1.1685874E0,1.1714628E1,4.692352E0,7.0222764E0,2.8351922E0,1.8571597E0,1.1329567E0,5.8893194E0,1.2617047E0,1.5734876E0,2.0528996E0,3.8364198E0,2.1986644E0,1.6377554E0],"tree_param":{"num_deleted":"0","num_feature":"17","num_nodes":"25","size_leaf_vector":"1"}},{"base_weights":[-5.4551816E-1,-8.320514E-1,6.0347533E-1,-9.7682446E-1,-1.5858479E-2,1.1700596E-1,9.9676317E-1,7.938602E-2,-1.0243366E0,-4.402265E-1,4.24322E-1,4.1573784E-1,-3.4272328E-1,1.0850652E0,2.6116198E-1,-3.8108346E-1,-4.305033E-1,4.5236737E-1,-1.1499686E-1,4.334683E-1,3.9567772E-1],"categories":[],"categories_nodes":[],"categories_segments":[],"categories_sizes":[],"default_left":[0,0,0,0,0,0,0,0,0,0,0,0,0,0,0,0,0,0,0,0,0],"id":6,"left_children":[1,3,5,7,9,11,13,-1,15,-1,17,-1,-1,19,-1,-1,-1,-1,-1,-1,-1],"loss_changes":[1.3674566E1,3.9279594E0,1.5856948E0,1.5950031E0,2.5556664E0,3.7952254E0,1.206646E-1,0E0,2.393341E-2,0E0,2.07848E0,0E0,0E0,6.549835E-3,0E0,0E0,0E0,0E0,0E0,0E0,0E0],"parents":[2147483647,0,0,1,1,2,2,3,3,4,4,5,5,6,6,8,8,10,10,13,13],"right_children":[2,4,6,8,10,12,14,-1,16,-1,18,-1,-1,20,-1,-1,-1,-1,-1,-1,-1],"split_conditions":[5.69E2,3.0009E4,1.4E1,5E-7,3.7410742E2,1.3015166E4,9.6483016E-1,7.938602E-2,1.32E4,-4.402265E-1,9.728366E-1,4.1573784E-1,-3.4272328E-1,5.451E3,2.6116198E-1,-3.8108346E-1,-4.305033E-1,4.5236737E-1,-1.1499686E-1,4.334683E-1,3.9567772E-1],"split_indices":[0,9,8,12,13,13,4,0,9,0,11,0,0,9,0,0,0,0,0,0,0],"split_type":[0,0,0,0,0,0,0,0,0,0,0,0,0,0,0,0,0,0,0,0,0],"sum_hessian":[4.1535366E1,3.324511E1,8.2902565E0,2.823622E1,5.0088906E0,3.706519E0,4.583738E0,1.0849268E0,2.7151293E1,1.3789494E0,3.6299415E0,1.8892931E0,1.8172257E0,3.5398111E0,1.0439267E0,2.5647547E1,1.5037459E0,1.7532274E0,1.876714E0,1.0175142E0,2.522297E0],"tree_param":{"num_deleted":"0","num_feature":"17","num_nodes":"21","size_leaf_vector":"1"}},{"base_weights":[-4.8858595E-1,-8.246366E-1,5.0297123E-1,-3.7937313E-1,-4.4103824E-2,1.0051697E0,4.063299E-2,-4.1492328E-1,4.1232353E-1,2.2001326E-1,1.1653891E0,7.883323E-1,-3.3406964E-1,4.5751294E-1,-2.3056196E-2,4.9803025E-1,3.9894456E-1,1.9522443E-1,4.0291545E-1],"categories":[],"categories_nodes":[],"categories_segments":[],"categories_sizes":[],"default_left":[0,0,0,0,0,0,0,0,0,0,0,0,0,0,0,0,0,0,0],"id":7,"left_children":[1,3,5,-1,7,9,11,-1,13,-1,15,17,-1,-1,-1,-1,-1,-1,-1],"loss_changes":[1.0213781E1,3.3557272E0,1.8010201E0,0E0,2.1552775E0,2.4837947E-1,2.8157907E0,0E0,1.1908963E0,0E0,4.340291E-2,1.713816E-1,0E0,0E0,0E0,0E0,0E0,0E0,0E0],"parents":[2147483647,0,0,1,1,2,2,4,4,5,5,6,6,8,8,10,10,11,11],"right_children":[2,4,6,-1,8,10,12,-1,14,-1,16,18,-1,-1,-1,-1,-1,-1,-1],"split_conditions":[2.67E2,1.32E4,9.94018E-1,-3.7937313E-1,9.9998164E-1,2.89E2,2.9241517E-2,-4.1492328E-1,3.376E4,2.2001326E-1,2.018E3,1.2701504E-2,-3.3406964E-1,4.5751294E-1,-2.3056196E-2,4.9803025E-1,3.9894456E-1,1.9522443E-1,4.0291545E-1],"split_indices":[0,9,4,0,3,10,2,0,9,0,0,2,0,0,0,0,0,0,0],"split_type":[0,0,0,0,0,0,0,0,0,0,0,0,0,0,0,0,0,0,0],"sum_hessian":[3.0651989E1,2.289349E1,7.7584987E0,1.845278E1,4.4407115E0,3.7185426E0,4.039956E0,1.3340112E0,3.1067E0,1.0310189E0,2.6875236E0,2.2420347E0,1.7979215E0,1.1481252E0,1.9585749E0,1.0220258E0,1.6654978E0,1.1613947E0,1.0806401E0],"tree_param":{"num_deleted":"0","num_feature":"17","num_nodes":"19","size_leaf_vector":"1"}},{"base_weights":[-4.0780976E-1,-9.5882523E-1,2.5139505E-1,-6.254418E-2,-1.0238708E0,-6.93965E-1,4.9790898E-1,-3.777039E-1,-4.50643E-1,-4.7031176E-1,-2.3384782E-2,8.1215763E-1,-1.9742228E-1,5.5811204E-2,1.1179373E0,3.20075E-1,-4.024885E-1,6.1325765E-1,9.5309764E-1,2.626678E-1,1.0733674E0,4.1530195E-1,3.895157E-1],"categories":[],"categories_nodes":[],"categories_segments":[],"categories_sizes":[],"default_left":[0,0,0,0,0,0,0,0,0,0,0,0,0,0,0,0,0,0,0,0,0,0,0],"id":8,"left_children":[1,3,5,-1,7,9,11,-1,-1,-1,-1,13,15,-1,17,-1,-1,-1,19,-1,21,-1,-1],"loss_changes":[8.871913E0,6.8485165E-1,2.5914001E0,0E0,3.4046173E-2,8.14538E-1,1.9275591E0,0E0,0E0,0E0,0E0,1.2315736E0,2.5310576E0,0E0,3.5451078E-1,0E0,0E0,0E0,9.5008135E-2,0E0,1.711607E-3,0E0,0E0],"parents":[2147483647,0,0,1,1,2,2,4,4,5,5,6,6,11,11,12,12,14,14,18,18,20,20],"right_children":[2,4,6,-1,8,10,12,-1,-1,-1,-1,14,16,-1,18,-1,-1,-1,20,-1,22,-1,-1],"split_conditions":[5.202E3,2.0056286E-1,7.87527E-1,-6.254418E-2,5E1,5.7763547E-2,4.6305013E0,-3.777039E-1,-4.50643E-1,-4.7031176E-1,-2.3384782E-2,1.3E1,9.94018E-1,5.5811204E-2,1.9177E4,3.20075E-1,-4.024885E-1,6.1325765E-1,1.18E2,2.626678E-1,6E0,4.1530195E-1,3.895157E-1],"split_indices":[9,3,3,0,10,2,11,0,0,0,0,10,4,0,9,0,0,0,1,0,8,0,0],"split_type":[0,0,0,0,0,0,0,0,0,0,0,0,0,0,0,0,0,0,0,0,0,0,0],"sum_hessian":[2.4424175E1,1.3304113E1,1.1120063E1,1.0102644E0,1.2293849E1,2.299632E0,8.820431E0,1.1293397E1,1.0004517E0,1.21734E0,1.082292E0,6.075295E0,2.7451358E0,1.9175423E0,4.1577525E0,1.2478796E0,1.4972562E0,1.0021062E0,3.1556466E0,1.0202465E0,2.1354E0,1.0446602E0,1.0907398E0],"tree_param":{"num_deleted":"0","num_feature":"17","num_nodes":"23","size_leaf_vector":"1"}},{"base_weights":[-4.2637148E-1,-8.8581216E-1,2.0883113E-1,-2.795329E-2,-9.77032E-1,8.03243E-1,-2.0064576E-1,-1.0449356E0,-1.5215999E-1,1.1154488E-1,1.0441906E0,2.388636E-1,-4.564317E-1,-9.890057E-1,-5.1260096E-1,3.579773E-1,4.2316884E-1,7.28932E-1,-3.0186713E-1,-3.178075E-1,-1.0124091E0,4.3653312E-1,1.07076675E-1,-3.7658435E-1,-3.9327362E-1],"categories":[],"categories_nodes":[],"categories_segments":[],"categories_sizes":[],"default_left":[0,0,0,0,0,0,0,0,0,0,0,0,0,0,0,0,0,0,0,0,0,0,0,0,0],"id":9,"left_children":[1,3,5,-1,7,9,11,13,-1,-1,15,17,-1,19,-1,-1,-1,21,-1,-1,23,-1,-1,-1,-1],"loss_changes":[5.2912483E0,7.781286E-1,1.8522656E0,0E0,3.6609554E-1,3.776071E-1,2.0149481E0,1.5181065E-1,0E0,0E0,1.51052475E-2,1.6101961E0,0E0,2.304554E-2,0E0,0E0,0E0,4.1328573E-1,0E0,0E0,9.1695786E-4,0E0,0E0,0E0,0E0],"parents":[2147483647,0,0,1,1,2,2,4,4,5,5,6,6,7,7,10,10,11,11,13,13,17,17,20,20],"right_children":[2,4,6,-1,8,10,12,14,-1,-1,16,18,-1,20,-1,-1,-1,22,-1,-1,24,-1,-1,-1,-1],"split_conditions":[1.3971937E-2,1.0054762E-1,9.8997647E-1,-2.795329E-2,7.5E1,2.0021113E4,1.2373737E-1,2.3E1,-1.5215999E-1,1.1154488E-1,7.08E2,5.5867224E-4,-4.564317E-1,4.364487E-5,-5.1260096E-1,3.579773E-1,4.2316884E-1,4.5479715E-2,-3.0186713E-1,-3.178075E-1,1.26E3,4.3653312E-1,1.07076675E-1,-3.7658435E-1,-3.9327362E-1],"split_indices":[2,11,4,0,10,13,2,10,0,0,10,12,0,12,0,0,0,2,0,0,9,0,0,0,0],"split_type":[0,0,0,0,0,0,0,0,0,0,0,0,0,0,0,0,0,0,0,0,0,0,0,0,0],"sum_hessian":[1.8129892E1,1.0520804E1,7.6090875E0,1.0638843E0,9.456921E0,3.1040468E0,4.5050406E0,8.45116E0,1.0057598E0,1.0023947E0,2.1016521E0,3.1457949E0,1.3592457E0,7.2050223E0,1.2461379E0,1.0307171E0,1.070935E0,2.1414053E0,1.0043894E0,1.0288913E0,6.1761312E0,1.0789193E0,1.062486E0,5.1588554E0,1.0172759E0],"tree_param":{"num_deleted":"0","num_feature":"17","num_nodes":"25","size_leaf_vector":"1"}},{"base_weights":[-3.5513088E-1,-9.6725357E-1,1.1805648E-1,-2.4028523E-1,-1.0270356E0,8.696598E-1,-1.7989889E-1,-3.760537E-1,-4.242398E-1,3.8438806E-1,2.566172E-1,-4.7112367E-1,3.566689E-1,9.8335706E-2,-1.1002976E0,2.0908512E-1,-1.7928371E-1,-2.68102E-1,-5.92062E-1],"categories":[],"categories_nodes":[],"categories_segments":[],"categories_sizes":[],"default_left":[0,0,0,0,0,0,0,0,0,0,0,0,0,0,0,0,0,0,0],"id":10,"left_children":[1,3,5,-1,7,9,11,-1,-1,-1,-1,13,-1,15,17,-1,-1,-1,-1],"loss_changes":[4.3272843E0,1.2630653E-1,1.8870299E0,0E0,1.27539635E-2,6.839752E-2,1.9882902E0,0E0,0E0,0E0,0E0,1.7196608E0,0E0,6.677736E-1,4.2006636E-1,0E0,0E0,0E0,0E0],"parents":[2147483647,0,0,1,1,2,2,4,4,5,5,6,6,11,11,13,13,14,14],"right_children":[2,4,6,-1,8,10,12,-1,-1,-1,-1,14,-1,16,18,-1,-1,-1,-1],"split_conditions":[2.706E3,4.0863824E-1,1.1028198E-5,-2.4028523E-1,2.7E1,3.8905758E-1,1.5E1,-3.760537E-1,-4.242398E-1,3.8438806E-1,2.566172E-1,9.728366E-1,3.566689E-1,8.0552E4,6.3543E4,2.0908512E-1,-1.7928371E-1,-2.68102E-1,-5.92062E-1],"split_indices":[9,3,12,0,1,11,8,0,0,0,0,11,0,9,9,0,0,0,0],"split_type":[0,0,0,0,0,0,0,0,0,0,0,0,0,0,0,0,0,0,0],"sum_hessian":[1.4938656E1,6.5134883E0,8.425167E0,1.010362E0,5.5031266E0,2.392143E0,6.033024E0,4.5029883E0,1.0001379E0,1.2953904E0,1.0967528E0,4.798587E0,1.234437E0,2.518514E0,2.2800732E0,1.4019381E0,1.1165757E0,1.265712E0,1.0143611E0],"tree_param":{"num_deleted":"0","num_feature":"17","num_nodes":"19","size_leaf_vector":"1"}},{"base_weights":[-3.6605856E-1,-5.307641E-1,3.9461815E-1,-7.026689E-1,2.1937676E-1,-1.9819745E-1,-1.0192004E0,-4.633965E-1,4.08208E-1,-9.889855E-1,-4.364943E-1,-1.3023597E-1,4.2916602E-1,-1.0561333E0,-2.7418405E-1,-3.7687662E-1,-4.481669E-1],"categories":[],"categories_nodes":[],"categories_segments":[],"categories_sizes":[],"default_left":[0,0,0,0,0,0,0,0,0,0,0,0,0,0,0,0,0],"id":11,"left_children":[1,3,-1,5,-1,7,9,-1,11,13,-1,-1,-1,15,-1,-1,-1],"loss_changes":[2.88841E0,2.1247623E0,0E0,1.5317559E0,0E0,2.330337E0,2.5134563E-2,0E0,1.3015313E0,8.370781E-2,0E0,0E0,0E0,2.6442528E-2,0E0,0E0,0E0],"parents":[2147483647,0,0,1,1,3,3,5,5,6,6,8,8,9,9,13,13],"right_children":[2,4,-1,6,-1,8,10,-1,12,14,-1,-1,-1,16,-1,-1,-1],"split_conditions":[1.22E3,1.5E1,3.9461815E-1,9.728366E-1,2.1937676E-1,1E0,6.4224316E7,-4.633965E-1,2.124242E-1,3.000089E6,-4.364943E-1,-1.3023597E-1,4.2916602E-1,1.6605E4,-2.7418405E-1,-3.7687662E-1,-4.481669E-1],"split_indices":[1,8,0,11,0,3,13,0,11,13,0,0,0,9,0,0,0],"split_type":[0,0,0,0,0,0,0,0,0,0,0,0,0,0,0,0,0],"sum_hessian":[1.2357663E1,1.1072866E1,1.284797E0,9.595455E0,1.477411E0,3.6999178E0,5.895537E0,1.36423E0,2.3356879E0,4.8850875E0,1.0104495E0,1.153009E0,1.1826788E0,3.8727543E0,1.0123333E0,2.850033E0,1.0227212E0],"tree_param":{"num_deleted":"0","num_feature":"17","num_nodes":"17","size_leaf_vector":"1"}},{"base_weights":[-2.925179E-1,-7.329148E-1,2.562593E-1,-3.8834563E-1,-1.0260289E0,3.681049E-1,-2.655594E-1,-1.7254168E-2,-2.7417845E-1,-3.7528852E-1,-4.0236223E-1,1.5105046E-1,-3.7029743E-1],"categories":[],"categories_nodes":[],"categories_segments":[],"categories_sizes":[],"default_left":[0,0,0,0,0,0,0,0,0,0,0,0,0],"id":12,"left_children":[1,3,5,7,9,-1,11,-1,-1,-1,-1,-1,-1],"loss_changes":[2.4215302E0,5.608797E-1,1.6902511E0,3.0008733E-1,2.7239323E-3,0E0,1.2541617E0,0E0,0E0,0E0,0E0,0E0,0E0],"parents":[2147483647,0,0,1,1,2,2,3,3,4,4,6,6],"right_children":[2,4,6,8,10,-1,12,-1,-1,-1,-1,-1,-1],"split_conditions":[3.4E1,9.728366E-1,6.05E0,8.0552E4,8.3E1,3.681049E-1,9.3855435E-1,-1.7254168E-2,-2.7417845E-1,-3.7528852E-1,-4.0236223E-1,1.5105046E-1,-3.7029743E-1],"split_indices":[10,11,11,9,9,0,4,0,0,0,0,0,0],"split_type":[0,0,0,0,0,0,0,0,0,0,0,0,0],"sum_hessian":[1.00188265E1,5.5586553E0,4.460171E0,2.5556593E0,3.0029957E0,1.865291E0,2.59488E0,1.2803771E0,1.2752823E0,1.9910197E0,1.011976E0,1.3475249E0,1.2473553E0],"tree_param":{"num_deleted":"0","num_feature":"17","num_nodes":"13","size_leaf_vector":"1"}},{"base_weights":[-1.4483036E-1,-9.285041E-1,1.9369574E-1,-2.6434803E-1,-4.0333673E-1,-2.0693871E-1,4.0642133E-1,6.0846466E-1,-9.768867E-2,3.192128E-1,1.1010189E-1],"categories":[],"categories_nodes":[],"categories_segments":[],"categories_sizes":[],"default_left":[0,0,0,0,0,0,0,0,0,0,0],"id":13,"left_children":[1,3,5,-1,-1,-1,7,9,-1,-1,-1],"loss_changes":[2.203625E0,8.197856E-2,9.202566E-1,0E0,0E0,0E0,6.084463E-1,2.649163E-1,0E0,0E0,0E0],"parents":[2147483647,0,0,1,1,2,2,6,6,7,7],"right_children":[2,4,6,-1,-1,-1,8,10,-1,-1,-1],"split_conditions":[2.706E3,6.582414E-1,8.273256E-1,-2.6434803E-1,-4.0333673E-1,-2.0693871E-1,6.6705234E-2,9.728366E-1,-9.768867E-2,3.192128E-1,1.1010189E-1],"split_indices":[9,3,3,0,0,0,2,11,0,0,0],"split_type":[0,0,0,0,0,0,0,0,0,0,0],"sum_hessian":[8.305298E0,2.5057309E0,5.7995667E0,1.0001591E0,1.5055716E0,1.286483E0,4.513084E0,3.4644275E0,1.0486565E0,1.952517E0,1.5119104E0],"tree_param":{"num_deleted":"0","num_feature":"17","num_nodes":"11","size_leaf_vector":"1"}},{"base_weights":[1.3345012E-3,-3.788543E-1,3.1184974E-1,1.4022522E-1,3.8756776E-1,4.327892E-1,-2.0905674E-1,3.2636446E-1,-1.620855E-2],"categories":[],"categories_nodes":[],"categories_segments":[],"categories_sizes":[],"default_left":[0,0,0,0,0,0,0,0,0],"id":14,"left_children":[1,-1,3,5,-1,7,-1,-1,-1],"loss_changes":[2.194678E0,0E0,6.621265E-1,8.8197184E-1,0E0,6.3517773E-1,0E0,0E0,0E0],"parents":[2147483647,0,0,2,2,3,3,5,5],"right_children":[2,-1,4,6,-1,8,-1,-1,-1],"split_conditions":[2E1,-3.788543E-1,2.9E1,5.721107E0,3.8756776E-1,1.21230674E-4,-2.0905674E-1,3.2636446E-1,-1.620855E-2],"split_indices":[1,0,8,11,0,12,0,0,0],"split_type":[0,0,0,0,0,0,0,0,0],"sum_hessian":[6.9820876E0,1.6385463E0,5.343541E0,4.3182616E0,1.0252798E0,3.0434282E0,1.2748332E0,1.5851187E0,1.4583097E0],"tree_param":{"num_deleted":"0","num_feature":"17","num_nodes":"9","size_leaf_vector":"1"}},{"base_weights":[-1.5252271E-1,-3.5209876E-1,2.317603E-1,-8.3101906E-2,6.4124674E-1,3.9446944E-1,8.651975E-2],"categories":[],"categories_nodes":[],"categories_segments":[],"categories_sizes":[],"default_left":[0,0,0,0,0,0,0],"id":15,"left_children":[1,-1,3,-1,5,-1,-1],"loss_changes":[1.7759768E0,0E0,7.326889E-1,0E0,3.4959805E-1,0E0,0E0],"parents":[2147483647,0,0,2,2,4,4],"right_children":[2,-1,4,-1,6,-1,-1],"split_conditions":[3E0,-3.5209876E-1,2.6E1,-8.3101906E-2,8.7932086E-1,3.9446944E-1,8.651975E-2],"split_indices":[8,0,10,0,4,0,0],"split_type":[0,0,0,0,0,0,0],"sum_hessian":[5.87039E0,1.926083E0,3.9443069E0,1.8710532E0,2.0732534E0,1.0347154E0,1.0385381E0],"tree_param":{"num_deleted":"0","num_feature":"17","num_nodes":"7","size_leaf_vector":"1"}},{"base_weights":[-2.2407322E-1,-7.9414684E-1,7.1892224E-2,-3.892611E-1,-2.0574999E-1,-1.2560844E-1,1.7685007E-1],"categories":[],"categories_nodes":[],"categories_segments":[],"categories_sizes":[],"default_left":[0,0,0,0,0,0,0],"id":16,"left_children":[1,3,5,-1,-1,-1,-1],"loss_changes":[1.0044138E0,1.2138271E-1,6.380592E-1,0E0,0E0,0E0,0E0],"parents":[2147483647,0,0,1,1,2,2],"right_children":[2,4,6,-1,-1,-1,-1],"split_conditions":[8.299672E-1,4.6E1,1.3971937E-2,-3.892611E-1,-2.0574999E-1,-1.2560844E-1,1.7685007E-1],"split_indices":[3,10,2,0,0,0,0],"split_type":[0,0,0,0,0,0,0],"sum_hessian":[5.951449E0,2.0343132E0,3.917136E0,1.0171156E0,1.0171977E0,1.9410381E0,1.9760978E0],"tree_param":{"num_deleted":"0","num_feature":"17","num_nodes":"7","size_leaf_vector":"1"}},{"base_weights":[-4.8946175E-3,2.8874546E-1,-2.1031907E-1,1.205433E-1,-4.2110038E-1,-1.6327678E-1,2.2002351E-1],"categories":[],"categories_nodes":[],"categories_segments":[],"categories_sizes":[],"default_left":[0,0,0,0,0,0,0],"id":17,"left_children":[1,-1,3,5,-1,-1,-1],"loss_changes":[7.6421016E-1,0E0,1.1470733E0,7.2299045E-1,0E0,0E0,0E0],"parents":[2147483647,0,0,2,2,3,3],"right_children":[2,-1,4,6,-1,-1,-1],"split_conditions":[9.94018E-1,2.8874546E-1,5E0,1.1E1,-4.2110038E-1,-1.6327678E-1,2.2002351E-1],"split_indices":[4,0,11,10,0,0,0],"split_type":[0,0,0,0,0,0,0],"sum_hessian":[4.798497E0,1.0045254E0,3.7939715E0,2.7848945E0,1.0090771E0,1.270055E0,1.5148395E0],"tree_param":{"num_deleted":"0","num_feature":"17","num_nodes":"7","size_leaf_vector":"1"}},{"base_weights":[-8.0229476E-2,-3.1565535E-1,2.1249561E-1,-1.2490366E-1,2.9340935E-1,-2.3180662E-1,1.12994045E-1],"categories":[],"categories_nodes":[],"categories_segments":[],"categories_sizes":[],"default_left":[0,0,0,0,0,0,0],"id":18,"left_children":[1,-1,3,5,-1,-1,-1],"loss_changes":[1.0701827E0,0E0,6.671729E-1,4.584311E-1,0E0,0E0,0E0],"parents":[2147483647,0,0,2,2,3,3],"right_children":[2,-1,4,6,-1,-1,-1],"split_conditions":[8.299672E-1,-3.1565535E-1,2.37E2,3.0009E4,2.9340935E-1,-2.3180662E-1,1.12994045E-1],"split_indices":[3,0,1,9,0,0,0],"split_type":[0,0,0,0,0,0,0],"sum_hessian":[4.795622E0,1.3310903E0,3.4645314E0,2.1766698E0,1.2878616E0,1.0091741E0,1.1674958E0],"tree_param":{"num_deleted":"0","num_feature":"17","num_nodes":"7","size_leaf_vector":"1"}},{"base_weights":[-2.0205149E-1,-4.4365805E-1,7.352521E-2,-9.719939E-3,-4.2247468E-1],"categories":[],"categories_nodes":[],"categories_segments":[],"categories_sizes":[],"default_left":[0,0,0,0,0],"id":19,"left_children":[1,3,-1,-1,-1],"loss_changes":[4.0830976E-1,7.5397676E-1,0E0,0E0,0E0],"parents":[2147483647,0,0,1,1],"right_children":[2,4,-1,-1,-1],"split_conditions":[4.657671E-2,9.568454E0,7.352521E-2,-9.719939E-3,-4.2247468E-1],"split_indices":[2,11,0,0,0],"split_type":[0,0,0,0,0],"sum_hessian":[4.2422934E0,2.6410668E0,1.6012264E0,1.6398876E0,1.0011793E0],"tree_param":{"num_deleted":"0","num_feature":"17","num_nodes":"5","size_leaf_vector":"1"}},{"base_weights":[-2.4338311E-1,7.764682E-2,-5.6072795E-1,-3.5193408E-1,-9.560097E-2],"categories":[],"categories_nodes":[],"categories_segments":[],"categories_sizes":[],"default_left":[0,0,0,0,0],"id":20,"left_children":[1,-1,3,-1,-1],"loss_changes":[5.772377E-1,0E0,2.7350903E-1,0E0,0E0],"parents":[2147483647,0,0,2,2],"right_children":[2,-1,4,-1,-1],"split_conditions":[1.7775664E-4,7.764682E-2,2.4E1,-3.5193408E-1,-9.560097E-2],"split_indices":[12,0,10,0,0],"split_type":[0,0,0,0,0],"sum_hessian":[4.035779E0,1.6672467E0,2.3685322E0,1.0575002E0,1.311032E0],"tree_param":{"num_deleted":"0","num_feature":"17","num_nodes":"5","size_leaf_vector":"1"}},{"base_weights":[-1.6212049E-1,-2.2875142E-1,1.1457059E-2,1.6258684E-1,-1.6386579E-1],"categories":[],"categories_nodes":[],"categories_segments":[],"categories_sizes":[],"default_left":[0,0,0,0,0],"id":21,"left_children":[1,-1,3,-1,-1],"loss_changes":[2.8088084E-1,0E0,4.9275893E-1,0E0,0E0],"parents":[2147483647,0,0,2,2],"right_children":[2,-1,4,-1,-1],"split_conditions":[4.3037357E2,-2.2875142E-1,3.376E4,1.6258684E-1,-1.6386579E-1],"split_indices":[13,0,9,0,0],"split_type":[0,0,0,0,0],"sum_hessian":[3.6062188E0,1.0070623E0,2.5991564E0,1.3392812E0,1.2598753E0],"tree_param":{"num_deleted":"0","num_feature":"17","num_nodes":"5","size_leaf_vector":"1"}},{"base_weights":[-1.1295975E-1,-1.8347187E-1,5.6505103E-2,1.538966E-1,-1.1060207E-1],"categories":[],"categories_nodes":[],"categories_segments":[],"categories_sizes":[],"default_left":[0,0,0,0,0],"id":22,"left_children":[1,-1,3,-1,-1],"loss_changes":[2.4315682E-1,0E0,3.2700288E-1,0E0,0E0],"parents":[2147483647,0,0,2,2],"right_children":[2,-1,4,-1,-1],"split_conditions":[9.1452044E-1,-1.8347187E-1,9.728366E-1,1.538966E-1,-1.1060207E-1],"split_indices":[3,0,11,0,0],"split_type":[0,0,0,0,0],"sum_hessian":[3.80663E0,1.1818497E0,2.6247802E0,1.3082134E0,1.316567E0],"tree_param":{"num_deleted":"0","num_feature":"17","num_nodes":"5","size_leaf_vector":"1"}},{"base_weights":[-4.9152583E-2,-3.9746177E-1,2.184557E-1,-2.2900186E-3,-2.8382704E-1],"categories":[],"categories_nodes":[],"categories_segments":[],"categories_sizes":[],"default_left":[0,0,0,0,0],"id":23,"left_children":[1,3,-1,-1,-1],"loss_changes":[7.607033E-1,3.13622E-1,0E0,0E0,0E0],"parents":[2147483647,0,0,1,1],"right_children":[2,4,-1,-1,-1],"split_conditions":[6E0,3.6237905E3,2.184557E-1,-2.2900186E-3,-2.8382704E-1],"split_indices":[8,13,0,0,0],"split_type":[0,0,0,0,0],"sum_hessian":[3.4551196E0,2.2280784E0,1.2270412E0,1.0680635E0,1.1600149E0],"tree_param":{"num_deleted":"0","num_feature":"17","num_nodes":"5","size_leaf_vector":"1"}},{"base_weights":[1.1145669E-1,1.9406202E-1,-9.175237E-2,-1.8504941E-1,9.5813796E-2],"categories":[],"categories_nodes":[],"categories_segments":[],"categories_sizes":[],"default_left":[0,0,0,0,0],"id":24,"left_children":[1,-1,3,-1,-1],"loss_changes":[3.2044202E-1,0E0,3.6119598E-1,0E0,0E0],"parents":[2147483647,0,0,2,2],"right_children":[2,-1,4,-1,-1],"split_conditions":[4.7793692E2,1.9406202E-1,2.0500075E5,-1.8504941E-1,9.5813796E-2],"split_indices":[13,0,13,0,0],"split_type":[0,0,0,0,0],"sum_hessian":[3.8777878E0,1.2931464E0,2.5846415E0,1.1986089E0,1.3860326E0],"tree_param":{"num_deleted":"0","num_feature":"17","num_nodes":"5","size_leaf_vector":"1"}},{"base_weights":[-9.1045275E-2,-2.2224092E-1,1.8103267E-1,1.3457957E-1,-4.270111E-3],"categories":[],"categories_nodes":[],"categories_segments":[],"categories_sizes":[],"default_left":[0,0,0,0,0],"id":25,"left_children":[1,-1,3,-1,-1],"loss_changes":[4.6773025E-1,0E0,7.6206036E-2,0E0,0E0],"parents":[2147483647,0,0,2,2],"right_children":[2,-1,4,-1,-1],"split_conditions":[3.7410742E2,-2.2224092E-1,2.250599E4,1.3457957E-1,-4.270111E-3],"split_indices":[13,0,13,0,0],"split_type":[0,0,0,0,0],"sum_hessian":[3.4229467E0,1.2035064E0,2.2194402E0,1.153559E0,1.0658813E0],"tree_param":{"num_deleted":"0","num_feature":"17","num_nodes":"5","size_leaf_vector":"1"}},{"base_weights":[8.4869064E-2,-4.9750775E-2,1.2416144E-1],"categories":[],"categories_nodes":[],"categories_segments":[],"categories_sizes":[],"default_left":[0,0,0],"id":26,"left_children":[1,-1,-1],"loss_changes":[1.942924E-1,0E0,0E0],"parents":[2147483647,0,0],"right_children":[2,-1,-1],"split_conditions":[4.85E2,-4.9750775E-2,1.2416144E-1],"split_indices":[0,0,0],"split_type":[0,0,0],"sum_hessian":[3.6203532E0,1.921872E0,1.6984812E0],"tree_param":{"num_deleted":"0","num_feature":"17","num_nodes":"3","size_leaf_vector":"1"}},{"base_weights":[1.0794322E-2,1.8243739E-1,-1.669507E-1,-1.9125184E-2,2.2317691E-1],"categories":[],"categories_nodes":[],"categories_segments":[],"categories_sizes":[],"default_left":[0,0,0,0,0],"id":27,"left_children":[1,3,-1,-1,-1],"loss_changes":[3.1155252E-1,2.791714E-1,0E0,0E0,0E0],"parents":[2147483647,0,0,1,1],"right_children":[2,4,-1,-1,-1],"split_conditions":[9.568454E0,2.6E1,-1.669507E-1,-1.9125184E-2,2.2317691E-1],"split_indices":[11,10,0,0,0],"split_type":[0,0,0,0,0],"sum_hessian":[3.9787626E0,2.8918793E0,1.0868833E0,1.8471599E0,1.0447195E0],"tree_param":{"num_deleted":"0","num_feature":"17","num_nodes":"5","size_leaf_vector":"1"}},{"base_weights":[3.987133E-2,2.0205097E-1,-2.2543007E-1,-2.6991975E-1,9.829884E-2],"categories":[],"categories_nodes":[],"categories_segments":[],"categories_sizes":[],"default_left":[0,0,0,0,0],"id":28,"left_children":[1,-1,3,-1,-1],"loss_changes":[4.348136E-1,0E0,5.173357E-1,0E0,0E0],"parents":[2147483647,0,0,2,2],"right_children":[2,-1,4,-1,-1],"split_conditions":[4.364487E-5,2.0205097E-1,6E0,-2.6991975E-1,9.829884E-2],"split_indices":[12,0,8,0,0],"split_type":[0,0,0,0,0],"sum_hessian":[3.2812266E0,1.1389295E0,2.1422973E0,1.0637311E0,1.0785662E0],"tree_param":{"num_deleted":"0","num_feature":"17","num_nodes":"5","size_leaf_vector":"1"}},{"base_weights":[8.668446E-2,-1.3421866E-1,2.788966E-1,2.0729056E-1,-6.29961E-2],"categories":[],"categories_nodes":[],"categories_segments":[],"categories_sizes":[],"default_left":[0,0,0,0,0],"id":29,"left_children":[1,-1,3,-1,-1],"loss_changes":[3.2416338E-1,0E0,3.2484666E-1,0E0,0E0],"parents":[2147483647,0,0,2,2],"right_children":[2,-1,4,-1,-1],"split_conditions":[9.1452044E-1,-1.3421866E-1,9.728366E-1,2.0729056E-1,-6.29961E-2],"split_indices":[3,0,11,0,0],"split_type":[0,0,0,0,0],"sum_hessian":[3.791204E0,1.1432215E0,2.6479826E0,1.6415122E0,1.0064703E0],"tree_param":{"num_deleted":"0","num_feature":"17","num_nodes":"5","size_leaf_vector":"1"}},{"base_weights":[-7.02477E-2,1.1296108E-1,-1.3094804E-1],"categories":[],"categories_nodes":[],"categories_segments":[],"categories_sizes":[],"default_left":[0,0,0],"id":30,"left_children":[1,-1,-1],"loss_changes":[3.3198872E-1,0E0,0E0],"parents":[2147483647,0,0],"right_children":[2,-1,-1],"split_conditions":[3.376E4,1.1296108E-1,-1.3094804E-1],"split_indices":[9,0,0],"split_type":[0,0,0],"sum_hessian":[3.1984732E0,1.3714201E0,1.8270531E0],"tree_param":{"num_deleted":"0","num_feature":"17","num_nodes":"3","size_leaf_vector":"1"}},{"base_weights":[-9.707623E-2,8.640071E-2,-1.9714735E-1,-9.971162E-2,1.716129E-1],"categories":[],"categories_nodes":[],"categories_segments":[],"categories_sizes":[],"default_left":[0,0,0,0,0],"id":31,"left_children":[1,3,-1,-1,-1],"loss_changes":[2.7279207E-1,3.177445E-1,0E0,0E0,0E0],"parents":[2147483647,0,0,1,1],"right_children":[2,4,-1,-1,-1],"split_conditions":[5.2934012E0,1.06E2,-1.9714735E-1,-9.971162E-2,1.716129E-1],"split_indices":[11,1,0,0,0],"split_type":[0,0,0,0,0],"sum_hessian":[3.4631097E0,2.4251773E0,1.0379325E0,1.2440321E0,1.1811452E0],"tree_param":{"num_deleted":"0","num_feature":"17","num_nodes":"5","size_leaf_vector":"1"}},{"base_weights":[5.5942893E-2,-1.03721574E-1,1.5795279E-1,1.3295284E-1,-1.9298379E-1],"categories":[],"categories_nodes":[],"categories_segments":[],"categories_sizes":[],"default_left":[0,0,0,0,0],"id":32,"left_children":[1,3,-1,-1,-1],"loss_changes":[2.1923834E-1,4.926917E-1,0E0,0E0,0E0],"parents":[2147483647,0,0,1,1],"right_children":[2,4,-1,-1,-1],"split_conditions":[2.0500075E5,1.8E1,1.5795279E-1,1.3295284E-1,-1.9298379E-1],"split_indices":[13,10,0,0,0],"split_type":[0,0,0,0,0],"sum_hessian":[3.7537978E0,2.6120336E0,1.1417642E0,1.2346649E0,1.3773688E0],"tree_param":{"num_deleted":"0","num_feature":"17","num_nodes":"5","size_leaf_vector":"1"}},{"base_weights":[-5.173864E-2,-1.0368244E-1,1.4484753E-1],"categories":[],"categories_nodes":[],"categories_segments":[],"categories_sizes":[],"default_left":[0,0,0],"id":33,"left_children":[1,-1,-1],"loss_changes":[2.912856E-1,0E0,0E0],"parents":[2147483647,0,0],"right_children":[2,-1,-1],"split_conditions":[8.6938E4,-1.0368244E-1,1.4484753E-1],"split_indices":[9,0,0],"split_type":[0,0,0],"sum_hessian":[2.9545546E0,1.953006E0,1.0015486E0],"tree_param":{"num_deleted":"0","num_feature":"17","num_nodes":"3","size_leaf_vector":"1"}},{"base_weights":[-1.318798E-1,6.826778E-2,-1.4541315E-1],"categories":[],"categories_nodes":[],"categories_segments":[],"categories_sizes":[],"default_left":[0,0,0],"id":34,"left_children":[1,-1,-1],"loss_changes":[2.559565E-1,0E0,0E0],"parents":[2147483647,0,0],"right_children":[2,-1,-1],"split_conditions":[1.4705375E-4,6.826778E-2,-1.4541315E-1],"split_indices":[12,0,0],"split_type":[0,0,0],"sum_hessian":[3.180103E0,1.428015E0,1.7520882E0],"tree_param":{"num_deleted":"0","num_feature":"17","num_nodes":"3","size_leaf_vector":"1"}},{"base_weights":[2.5116047E-2,1.22073695E-1,-6.8282045E-2],"categories":[],"categories_nodes":[],"categories_segments":[],"categories_sizes":[],"default_left":[0,0,0],"id":35,"left_children":[1,-1,-1],"loss_changes":[2.0148876E-1,0E0,0E0],"parents":[2147483647,0,0],"right_children":[2,-1,-1],"split_conditions":[1.5E2,1.22073695E-1,-6.8282045E-2],"split_indices":[0,0,0],"split_type":[0,0,0],"sum_hessian":[3.2311192E0,1.3195101E0,1.9116092E0],"tree_param":{"num_deleted":"0","num_feature":"17","num_nodes":"3","size_leaf_vector":"1"}},{"base_weights":[1.724588E-1,-6.254936E-2,2.762878E-1,-8.881152E-2,6.9227986E-2],"categories":[],"categories_nodes":[],"categories_segments":[],"categories_sizes":[],"default_left":[0,0,0,0,0],"id":36,"left_children":[1,3,-1,-1,-1],"loss_changes":[4.6274203E-1,1.0615139E-1,0E0,0E0,0E0],"parents":[2147483647,0,0,1,1],"right_children":[2,4,-1,-1,-1],"split_conditions":[7.8E1,3.8905758E-1,2.762878E-1,-8.881152E-2,6.9227986E-2],"split_indices":[10,11,0,0,0],"split_type":[0,0,0,0,0],"sum_hessian":[3.4838266E0,2.4598165E0,1.0240103E0,1.4431913E0,1.0166252E0],"tree_param":{"num_deleted":"0","num_feature":"17","num_nodes":"5","size_leaf_vector":"1"}},{"base_weights":[-3.065839E-2,1.103419E-1,-1.16816714E-1],"categories":[],"categories_nodes":[],"categories_segments":[],"categories_sizes":[],"default_left":[0,0,0],"id":37,"left_children":[1,-1,-1],"loss_changes":[2.7605572E-1,0E0,0E0],"parents":[2147483647,0,0],"right_children":[2,-1,-1],"split_conditions":[3.1729642E-2,1.103419E-1,-1.16816714E-1],"split_indices":[2,0,0],"split_type":[0,0,0],"sum_hessian":[3.020414E0,1.3998848E0,1.6205294E0],"tree_param":{"num_deleted":"0","num_feature":"17","num_nodes":"3","size_leaf_vector":"1"}},{"base_weights":[-4.2913217E-2,1.1455395E-1,-1.5306863E-1],"categories":[],"categories_nodes":[],"categories_segments":[],"categories_sizes":[],"default_left":[0,0,0],"id":38,"left_children":[1,-1,-1],"loss_changes":[3.6038858E-1,0E0,0E0],"parents":[2147483647,0,0],"right_children":[2,-1,-1],"split_conditions":[3.8432E4,1.1455395E-1,-1.5306863E-1],"split_indices":[9,0,0],"split_type":[0,0,0],"sum_hessian":[2.8272517E0,1.4466686E0,1.380583E0],"tree_param":{"num_deleted":"0","num_feature":"17","num_nodes":"3","size_leaf_vector":"1"}},{"base_weights":[-1.0339167E-1,-1.084107E-1,5.4347835E-2],"categories":[],"categories_nodes":[],"categories_segments":[],"categories_sizes":[],"default_left":[0,0,0],"id":39,"left_children":[1,-1,-1],"loss_changes":[1.5452895E-1,0E0,0E0],"parents":[2147483647,0,0],"right_children":[2,-1,-1],"split_conditions":[5.487976E-4,-1.084107E-1,5.4347835E-2],"split_indices":[12,0,0],"split_type":[0,0,0],"sum_hessian":[3.3442438E0,1.9135966E0,1.4306471E0],"tree_param":{"num_deleted":"0","num_feature":"17","num_nodes":"3","size_leaf_vector":"1"}},{"base_weights":[1.0309816E-1,-6.985599E-2,2.7635795E-1,1.9757286E-1,1.2388993E-2],"categories":[],"categories_nodes":[],"categories_segments":[],"categories_sizes":[],"default_left":[0,0,0,0,0],"id":40,"left_children":[1,-1,3,-1,-1],"loss_changes":[1.8196131E-1,0E0,1.3834855E-1,0E0,0E0],"parents":[2147483647,0,0,2,2],"right_children":[2,-1,4,-1,-1],"split_conditions":[1.3971937E-2,-6.985599E-2,7.511111E-2,1.9757286E-1,1.2388993E-2],"split_indices":[2,0,2,0,0],"split_type":[0,0,0,0,0],"sum_hessian":[3.6266885E0,1.3569624E0,2.269726E0,1.1165994E0,1.1531266E0],"tree_param":{"num_deleted":"0","num_feature":"17","num_nodes":"5","size_leaf_vector":"1"}},{"base_weights":[-2.8207926E-2,-7.1395345E-2,8.952986E-2],"categories":[],"categories_nodes":[],"categories_segments":[],"categories_sizes":[],"default_left":[0,0,0],"id":41,"left_children":[1,-1,-1],"loss_changes":[1.1741973E-1,0E0,0E0],"parents":[2147483647,0,0],"right_children":[2,-1,-1],"split_conditions":[6E0,-7.1395345E-2,8.952986E-2],"split_indices":[8,0,0],"split_type":[0,0,0],"sum_hessian":[2.7081316E0,1.6854023E0,1.0227294E0],"tree_param":{"num_deleted":"0","num_feature":"17","num_nodes":"3","size_leaf_vector":"1"}},{"base_weights":[3.2819264E-2,1.6137767E-1,-1.3681905E-1],"categories":[],"categories_nodes":[],"categories_segments":[],"categories_sizes":[],"default_left":[0,0,0],"id":42,"left_children":[1,-1,-1],"loss_changes":[5.092519E-1,0E0,0E0],"parents":[2147483647,0,0],"right_children":[2,-1,-1],"split_conditions":[9.728366E-1,1.6137767E-1,-1.3681905E-1],"split_indices":[11,0,0],"split_type":[0,0,0],"sum_hessian":[3.216228E0,1.6087828E0,1.6074452E0],"tree_param":{"num_deleted":"0","num_feature":"17","num_nodes":"3","size_leaf_vector":"1"}},{"base_weights":[1.7886583E-2,-9.247594E-2,1.3962078E-1],"categories":[],"categories_nodes":[],"categories_segments":[],"categories_sizes":[],"default_left":[0,0,0],"id":43,"left_children":[1,-1,-1],"loss_changes":[3.1357956E-1,0E0,0E0],"parents":[2147483647,0,0],"right_children":[2,-1,-1],"split_conditions":[4.710632E-2,-9.247594E-2,1.3962078E-1],"split_indices":[2,0,0],"split_type":[0,0,0],"sum_hessian":[3.339347E0,1.9117928E0,1.4275542E0],"tree_param":{"num_deleted":"0","num_feature":"17","num_nodes":"3","size_leaf_vector":"1"}},{"base_weights":[5.5004522E-2,-2.0418361E-1,1.7585704E-1],"categories":[],"categories_nodes":[],"categories_segments":[],"categories_sizes":[],"default_left":[0,0,0],"id":44,"left_children":[1,-1,-1],"loss_changes":[6.272592E-1,0E0,0E0],"parents":[2147483647,0,0],"right_children":[2,-1,-1],"split_conditions":[2.6E1,-2.0418361E-1,1.7585704E-1],"split_indices":[10,0,0],"split_type":[0,0,0],"sum_hessian":[2.5237143E0,1.0305651E0,1.4931492E0],"tree_param":{"num_deleted":"0","num_feature":"17","num_nodes":"3","size_leaf_vector":"1"}},{"base_weights":[4.7247756E-2,-1.2896459E-1,1.0032123E-1],"categories":[],"categories_nodes":[],"categories_segments":[],"categories_sizes":[],"default_left":[0,0,0],"id":45,"left_children":[1,-1,-1],"loss_changes":[2.4877861E-1,0E0,0E0],"parents":[2147483647,0,0],"right_children":[2,-1,-1],"split_conditions":[1.1228691E-4,-1.2896459E-1,1.0032123E-1],"split_indices":[12,0,0],"split_type":[0,0,0],"sum_hessian":[2.882943E0,1.0381782E0,1.8447648E0],"tree_param":{"num_deleted":"0","num_feature":"17","num_nodes":"3","size_leaf_vector":"1"}},{"base_weights":[-7.775873E-2,6.2775746E-2,-8.801204E-2],"categories":[],"categories_nodes":[],"categories_segments":[],"categories_sizes":[],"default_left":[0,0,0],"id":46,"left_children":[1,-1,-1],"loss_changes":[1.230099E-1,0E0,0E0],"parents":[2147483647,0,0],"right_children":[2,-1,-1],"split_conditions":[2.5127321E-2,6.2775746E-2,-8.801204E-2],"split_indices":[2,0,0],"split_type":[0,0,0],"sum_hessian":[3.1909785E0,1.2449892E0,1.9459894E0],"tree_param":{"num_deleted":"0","num_feature":"17","num_nodes":"3","size_leaf_vector":"1"}},{"base_weights":[-4.351674E-2,8.6922586E-2,-1.7388895E-1],"categories":[],"categories_nodes":[],"categories_segments":[],"categories_sizes":[],"default_left":[0,0,0],"id":47,"left_children":[1,-1,-1],"loss_changes":[3.309904E-1,0E0,0E0],"parents":[2147483647,0,0],"right_children":[2,-1,-1],"split_conditions":[1.6556593E-3,8.6922586E-2,-1.7388895E-1],"split_indices":[12,0,0],"split_type":[0,0,0],"sum_hessian":[2.856094E0,1.7251213E0,1.1309726E0],"tree_param":{"num_deleted":"0","num_feature":"17","num_nodes":"3","size_leaf_vector":"1"}},{"base_weights":[-1.3689852E-2,-9.794893E-2,1.15325764E-1],"categories":[],"categories_nodes":[],"categories_segments":[],"categories_sizes":[],"default_left":[0,0,0],"id":48,"left_children":[1,-1,-1],"loss_changes":[2.4521646E-1,0E0,0E0],"parents":[2147483647,0,0],"right_children":[2,-1,-1],"split_conditions":[5.487976E-4,-9.794893E-2,1.15325764E-1],"split_indices":[12,0,0],"split_type":[0,0,0],"sum_hessian":[3.0796168E0,1.7399976E0,1.339619E0],"tree_param":{"num_deleted":"0","num_feature":"17","num_nodes":"3","size_leaf_vector":"1"}},{"base_weights":[-1.0068263E-1,6.418097E-2,-2.822945E-1,-3.9321385E-2,-1.7362055E-1],"categories":[],"categories_nodes":[],"categories_segments":[],"categories_sizes":[],"default_left":[0,0,0,0,0],"id":49,"left_children":[1,-1,3,-1,-1],"loss_changes":[1.6982725E-1,0E0,6.599812E-2,0E0,0E0],"parents":[2147483647,0,0,2,2],"right_children":[2,-1,4,-1,-1],"split_conditions":[4E0,6.418097E-2,9.94018E-1,-3.9321385E-2,-1.7362055E-1],"split_indices":[8,0,4,0,0],"split_type":[0,0,0,0,0],"sum_hessian":[3.4374795E0,1.3755344E0,2.061945E0,1.0426711E0,1.0192739E0],"tree_param":{"num_deleted":"0","num_feature":"17","num_nodes":"5","size_leaf_vector":"1"}},{"base_weights":[-2.693964E-1,-1.1382435E-2,-2.2976564E-1],"categories":[],"categories_nodes":[],"categories_segments":[],"categories_sizes":[],"default_left":[0,0,0],"id":50,"left_children":[1,-1,-1],"loss_changes":[2.3899627E-1,0E0,0E0],"parents":[2147483647,0,0],"right_children":[2,-1,-1],"split_conditions":[4.6305013E0,-1.1382435E-2,-2.2976564E-1],"split_indices":[11,0,0],"split_type":[0,0,0],"sum_hessian":[2.9113917E0,1.718036E0,1.1933557E0],"tree_param":{"num_deleted":"0","num_feature":"17","num_nodes":"3","size_leaf_vector":"1"}},{"base_weights":[4.963468E-3,1.1774058E-1,-1.05523586E-1],"categories":[],"categories_nodes":[],"categories_segments":[],"categories_sizes":[],"default_left":[0,0,0],"id":51,"left_children":[1,-1,-1],"loss_changes":[2.806279E-1,0E0,0E0],"parents":[2147483647,0,0],"right_children":[2,-1,-1],"split_conditions":[1.7775664E-4,1.1774058E-1,-1.05523586E-1],"split_indices":[12,0,0],"split_type":[0,0,0],"sum_hessian":[3.1662428E0,1.5234984E0,1.6427443E0],"tree_param":{"num_deleted":"0","num_feature":"17","num_nodes":"3","size_leaf_vector":"1"}},{"base_weights":[1.6883167E-2,-8.07431E-2,1.2515655E-1],"categories":[],"categories_nodes":[],"categories_segments":[],"categories_sizes":[],"default_left":[0,0,0],"id":52,"left_children":[1,-1,-1],"loss_changes":[2.0211111E-1,0E0,0E0],"parents":[2147483647,0,0],"right_children":[2,-1,-1],"split_conditions":[4.2316254E-2,-8.07431E-2,1.2515655E-1],"split_indices":[2,0,0],"split_type":[0,0,0],"sum_hessian":[2.7420957E0,1.5818566E0,1.1602391E0],"tree_param":{"num_deleted":"0","num_feature":"17","num_nodes":"3","size_leaf_vector":"1"}},{"base_weights":[2.642766E-1,2.3116201E-1,1.2308068E-2],"categories":[],"categories_nodes":[],"categories_segments":[],"categories_sizes":[],"default_left":[0,0,0],"id":53,"left_children":[1,-1,-1],"loss_changes":[2.50647E-1,0E0,0E0],"parents":[2147483647,0,0],"right_children":[2,-1,-1],"split_conditions":[2.3817848E-2,2.3116201E-1,1.2308068E-2],"split_indices":[2,0,0],"split_type":[0,0,0],"sum_hessian":[3.0742323E0,1.2174783E0,1.8567542E0],"tree_param":{"num_deleted":"0","num_feature":"17","num_nodes":"3","size_leaf_vector":"1"}},{"base_weights":[1.08243255E-2,5.670242E-2,-8.028246E-2],"categories":[],"categories_nodes":[],"categories_segments":[],"categories_sizes":[],"default_left":[0,0,0],"id":54,"left_children":[1,-1,-1],"loss_changes":[9.841778E-2,0E0,0E0],"parents":[2147483647,0,0],"right_children":[2,-1,-1],"split_conditions":[1.032E3,5.670242E-2,-8.028246E-2],"split_indices":[0,0,0],"split_type":[0,0,0],"sum_hessian":[3.1128912E0,1.9175634E0,1.1953278E0],"tree_param":{"num_deleted":"0","num_feature":"17","num_nodes":"3","size_leaf_vector":"1"}},{"base_weights":[6.934511E-2,-5.930305E-2,9.089773E-2],"categories":[],"categories_nodes":[],"categories_segments":[],"categories_sizes":[],"default_left":[0,0,0],"id":55,"left_children":[1,-1,-1],"loss_changes":[1.097976E-1,0E0,0E0],"parents":[2147483647,0,0],"right_children":[2,-1,-1],"split_conditions":[1.18E2,-5.930305E-2,9.089773E-2],"split_indices":[1,0,0],"split_type":[0,0,0],"sum_hessian":[2.7837396E0,1.202138E0,1.5816016E0],"tree_param":{"num_deleted":"0","num_feature":"17","num_nodes":"3","size_leaf_vector":"1"}},{"base_weights":[6.4877644E-2,1.1444985E-1,-3.1018019E-2],"categories":[],"categories_nodes":[],"categories_segments":[],"categories_sizes":[],"default_left":[0,0,0],"id":56,"left_children":[1,-1,-1],"loss_changes":[1.1167027E-1,0E0,0E0],"parents":[2147483647,0,0],"right_children":[2,-1,-1],"split_conditions":[2.5127321E-2,1.1444985E-1,-3.1018019E-2],"split_indices":[2,0,0],"split_type":[0,0,0],"sum_hessian":[3.1414578E0,1.1958046E0,1.9456533E0],"tree_param":{"num_deleted":"0","num_feature":"17","num_nodes":"3","size_leaf_vector":"1"}},{"base_weights":[5.0911076E-2,1.7415816E-1,-6.276871E-2],"categories":[],"categories_nodes":[],"categories_segments":[],"categories_sizes":[],"default_left":[0,0,0],"id":57,"left_children":[1,-1,-1],"loss_changes":[2.7592736E-1,0E0,0E0],"parents":[2147483647,0,0],"right_children":[2,-1,-1],"split_conditions":[9.94018E-1,1.7415816E-1,-6.276871E-2],"split_indices":[4,0,0],"split_type":[0,0,0],"sum_hessian":[3.0510244E0,1.0545548E0,1.9964696E0],"tree_param":{"num_deleted":"0","num_feature":"17","num_nodes":"3","size_leaf_vector":"1"}},{"base_weights":[-7.295207E-2,5.6619085E-2,-9.873447E-2],"categories":[],"categories_nodes":[],"categories_segments":[],"categories_sizes":[],"default_left":[0,0,0],"id":58,"left_children":[1,-1,-1],"loss_changes":[1.3004898E-1,0E0,0E0],"parents":[2147483647,0,0],"right_children":[2,-1,-1],"split_conditions":[3.376E4,5.6619085E-2,-9.873447E-2],"split_indices":[9,0,0],"split_type":[0,0,0],"sum_hessian":[3.0451627E0,1.3986195E0,1.6465433E0],"tree_param":{"num_deleted":"0","num_feature":"17","num_nodes":"3","size_leaf_vector":"1"}},{"base_weights":[-1.7874701E-1,-1.69682E-1,7.871542E-3],"categories":[],"categories_nodes":[],"categories_segments":[],"categories_sizes":[],"default_left":[0,0,0],"id":59,"left_children":[1,-1,-1],"loss_changes":[1.7600158E-1,0E0,0E0],"parents":[2147483647,0,0],"right_children":[2,-1,-1],"split_conditions":[3.0009E4,-1.69682E-1,7.871542E-3],"split_indices":[9,0,0],"split_type":[0,0,0],"sum_hessian":[3.2116036E0,1.3546678E0,1.856936E0],"tree_param":{"num_deleted":"0","num_feature":"17","num_nodes":"3","size_leaf_vector":"1"}},{"base_weights":[1.1825129E-1,-6.6453695E-2,2.1100737E-1],"categories":[],"categories_nodes":[],"categories_segments":[],"categories_sizes":[],"default_left":[0,0,0],"id":60,"left_children":[1,-1,-1],"loss_changes":[3.7259352E-1,0E0,0E0],"parents":[2147483647,0,0],"right_children":[2,-1,-1],"split_conditions":[4.0235512E-2,-6.6453695E-2,2.1100737E-1],"split_indices":[2,0,0],"split_type":[0,0,0],"sum_hessian":[2.8321855E0,1.7010647E0,1.1311208E0],"tree_param":{"num_deleted":"0","num_feature":"17","num_nodes":"3","size_leaf_vector":"1"}},{"base_weights":[1.00433744E-1,1.1132105E-1,-7.9010546E-2],"categories":[],"categories_nodes":[],"categories_segments":[],"categories_sizes":[],"default_left":[0,0,0],"id":61,"left_children":[1,-1,-1],"loss_changes":[1.7131522E-1,0E0,0E0],"parents":[2147483647,0,0],"right_children":[2,-1,-1],"split_conditions":[2.8777682E4,1.1132105E-1,-7.9010546E-2],"split_indices":[13,0,0],"split_type":[0,0,0],"sum_hessian":[2.7979314E0,1.7154374E0,1.082494E0],"tree_param":{"num_deleted":"0","num_feature":"17","num_nodes":"3","size_leaf_vector":"1"}},{"base_weights":[5.3765554E-2,-6.9482766E-2,9.045409E-2],"categories":[],"categories_nodes":[],"categories_segments":[],"categories_sizes":[],"default_left":[0,0,0],"id":62,"left_children":[1,-1,-1],"loss_changes":[1.1601419E-1,0E0,0E0],"parents":[2147483647,0,0],"right_children":[2,-1,-1],"split_conditions":[4E0,-6.9482766E-2,9.045409E-2],"split_indices":[8,0,0],"split_type":[0,0,0],"sum_hessian":[2.5844045E0,1.135217E0,1.4491875E0],"tree_param":{"num_deleted":"0","num_feature":"17","num_nodes":"3","size_leaf_vector":"1"}},{"base_weights":[-1.1797845E-1,5.503962E-2,-1.2715413E-1],"categories":[],"categories_nodes":[],"categories_segments":[],"categories_sizes":[],"default_left":[0,0,0],"id":63,"left_children":[1,-1,-1],"loss_changes":[1.6731156E-1,0E0,0E0],"parents":[2147483647,0,0],"right_children":[2,-1,-1],"split_conditions":[3.201864E-2,5.503962E-2,-1.2715413E-1],"split_indices":[2,0,0],"split_type":[0,0,0],"sum_hessian":[2.8523467E0,1.2978084E0,1.5545382E0],"tree_param":{"num_deleted":"0","num_feature":"17","num_nodes":"3","size_leaf_vector":"1"}},{"base_weights":[-1.9996193E-1,-1.722397E-1,4.843394E-2],"categories":[],"categories_nodes":[],"categories_segments":[],"categories_sizes":[],"default_left":[0,0,0],"id":64,"left_children":[1,-1,-1],"loss_changes":[2.0987985E-1,0E0,0E0],"parents":[2147483647,0,0],"right_children":[2,-1,-1],"split_conditions":[6.3543E4,-1.722397E-1,4.843394E-2],"split_indices":[9,0,0],"split_type":[0,0,0],"sum_hessian":[2.4532819E0,1.37207E0,1.0812119E0],"tree_param":{"num_deleted":"0","num_feature":"17","num_nodes":"3","size_leaf_vector":"1"}},{"base_weights":[1.1072924E-1,1.9561075E-1,-8.5933946E-2],"categories":[],"categories_nodes":[],"categories_segments":[],"categories_sizes":[],"default_left":[0,0,0],"id":65,"left_children":[1,-1,-1],"loss_changes":[3.6769304E-1,0E0,0E0],"parents":[2147483647,0,0],"right_children":[2,-1,-1],"split_conditions":[9.728366E-1,1.9561075E-1,-8.5933946E-2],"split_indices":[11,0,0],"split_type":[0,0,0],"sum_hessian":[2.6279883E0,1.1899048E0,1.4380834E0],"tree_param":{"num_deleted":"0","num_feature":"17","num_nodes":"3","size_leaf_vector":"1"}},{"base_weights":[-6.479603E-2,-9.705011E-2,7.771836E-2],"categories":[],"categories_nodes":[],"categories_segments":[],"categories_sizes":[],"default_left":[0,0,0],"id":66,"left_children":[1,-1,-1],"loss_changes":[1.5618142E-1,0E0,0E0],"parents":[2147483647,0,0],"right_children":[2,-1,-1],"split_conditions":[5.69E2,-9.705011E-2,7.771836E-2],"split_indices":[0,0,0],"split_type":[0,0,0],"sum_hessian":[2.9539902E0,1.7248045E0,1.2291856E0],"tree_param":{"num_deleted":"0","num_feature":"17","num_nodes":"3","size_leaf_vector":"1"}},{"base_weights":[-3.4008265E-2,-1.5783481E-1,9.615031E-2],"categories":[],"categories_nodes":[],"categories_segments":[],"categories_sizes":[],"default_left":[0,0,0],"id":67,"left_children":[1,-1,-1],"loss_changes":[3.3434233E-1,0E0,0E0],"parents":[2147483647,0,0],"right_children":[2,-1,-1],"split_conditions":[3.8905758E-1,-1.5783481E-1,9.615031E-2],"split_indices":[11,0,0],"split_type":[0,0,0],"sum_hessian":[2.970623E0,1.2741755E0,1.6964475E0],"tree_param":{"num_deleted":"0","num_feature":"17","num_nodes":"3","size_leaf_vector":"1"}},{"base_weights":[-3.9476514E-2,9.9334314E-2,-1.5227568E-1],"categories":[],"categories_nodes":[],"categories_segments":[],"categories_sizes":[],"default_left":[0,0,0],"id":68,"left_children":[1,-1,-1],"loss_changes":[2.9067272E-1,0E0,0E0],"parents":[2147483647,0,0],"right_children":[2,-1,-1],"split_conditions":[4.410571E-4,9.9334314E-2,-1.5227568E-1],"split_indices":[12,0,0],"split_type":[0,0,0],"sum_hessian":[2.6005688E0,1.4204328E0,1.180136E0],"tree_param":{"num_deleted":"0","num_feature":"17","num_nodes":"3","size_leaf_vector":"1"}},{"base_weights":[9.7708054E-2,-6.1667763E-2,1.5182486E-1],"categories":[],"categories_nodes":[],"categories_segments":[],"categories_sizes":[],"default_left":[0,0,0],"id":69,"left_children":[1,-1,-1],"loss_changes":[2.116594E-1,0E0,0E0],"parents":[2147483647,0,0],"right_children":[2,-1,-1],"split_conditions":[6.73E2,-6.1667763E-2,1.5182486E-1],"split_indices":[0,0,0],"split_type":[0,0,0],"sum_hessian":[2.6234195E0,1.4150922E0,1.2083273E0],"tree_param":{"num_deleted":"0","num_feature":"17","num_nodes":"3","size_leaf_vector":"1"}},{"base_weights":[-1.3594072E-1,-1.9186574E-1,3.70344E-2],"categories":[],"categories_nodes":[],"categories_segments":[],"categories_sizes":[],"default_left":[0,0,0],"id":70,"left_children":[1,-1,-1],"loss_changes":[2.4837372E-1,0E0,0E0],"parents":[2147483647,0,0],"right_children":[2,-1,-1],"split_conditions":[3.8905758E-1,-1.9186574E-1,3.70344E-2],"split_indices":[11,0,0],"split_type":[0,0,0],"sum_hessian":[2.811076E0,1.0809809E0,1.730095E0],"tree_param":{"num_deleted":"0","num_feature":"17","num_nodes":"3","size_leaf_vector":"1"}},{"base_weights":[1.5170059E-1,1.6215591E-1,-3.9318603E-2],"categories":[],"categories_nodes":[],"categories_segments":[],"categories_sizes":[],"default_left":[0,0,0],"id":71,"left_children":[1,-1,-1],"loss_changes":[2.0032017E-1,0E0,0E0],"parents":[2147483647,0,0],"right_children":[2,-1,-1],"split_conditions":[9.728366E-1,1.6215591E-1,-3.9318603E-2],"split_indices":[11,0,0],"split_type":[0,0,0],"sum_hessian":[2.77559E0,1.3254579E0,1.4501321E0],"tree_param":{"num_deleted":"0","num_feature":"17","num_nodes":"3","size_leaf_vector":"1"}},{"base_weights":[1.557501E-1,-5.4828245E-2,1.6474499E-1],"categories":[],"categories_nodes":[],"categories_segments":[],"categories_sizes":[],"default_left":[0,0,0],"id":72,"left_children":[1,-1,-1],"loss_changes":[1.8844514E-1,0E0,0E0],"parents":[2147483647,0,0],"right_children":[2,-1,-1],"split_conditions":[3.8905758E-1,-5.4828245E-2,1.6474499E-1],"split_indices":[11,0,0],"split_type":[0,0,0],"sum_hessian":[2.1959867E0,1.0633283E0,1.1326586E0],"tree_param":{"num_deleted":"0","num_feature":"17","num_nodes":"3","size_leaf_vector":"1"}},{"base_weights":[-6.8801746E-2,-1.16147436E-1,7.314088E-2],"categories":[],"categories_nodes":[],"categories_segments":[],"categories_sizes":[],"default_left":[0,0,0],"id":73,"left_children":[1,-1,-1],"loss_changes":[1.7250927E-1,0E0,0E0],"parents":[2147483647,0,0],"right_children":[2,-1,-1],"split_conditions":[5.487976E-4,-1.16147436E-1,7.314088E-2],"split_indices":[12,0,0],"split_type":[0,0,0],"sum_hessian":[2.7088485E0,1.4163765E0,1.292472E0],"tree_param":{"num_deleted":"0","num_feature":"17","num_nodes":"3","size_leaf_vector":"1"}},{"base_weights":[-3.2790676E-1,-1.8439876E-2,-1.9237517E-1],"categories":[],"categories_nodes":[],"categories_segments":[],"categories_sizes":[],"default_left":[0,0,0],"id":74,"left_children":[1,-1,-1],"loss_changes":[1.3615549E-1,0E0,0E0],"parents":[2147483647,0,0],"right_children":[2,-1,-1],"split_conditions":[9.5E1,-1.8439876E-2,-1.9237517E-1],"split_indices":[1,0,0],"split_type":[0,0,0],"sum_hessian":[2.637823E0,1.0549135E0,1.5829095E0],"tree_param":{"num_deleted":"0","num_feature":"17","num_nodes":"3","size_leaf_vector":"1"}},{"base_weights":[1.5838698E-1,1.5350811E-1,-5.0744828E-2],"categories":[],"categories_nodes":[],"categories_segments":[],"categories_sizes":[],"default_left":[0,0,0],"id":75,"left_children":[1,-1,-1],"loss_changes":[2.1326876E-1,0E0,0E0],"parents":[2147483647,0,0],"right_children":[2,-1,-1],"split_conditions":[1.032E3,1.5350811E-1,-5.0744828E-2],"split_indices":[0,0,0],"split_type":[0,0,0],"sum_hessian":[2.8871732E0,1.5568899E0,1.3302833E0],"tree_param":{"num_deleted":"0","num_feature":"17","num_nodes":"3","size_leaf_vector":"1"}},{"base_weights":[5.0280493E-2,-1.582599E-1,1.9163825E-1],"categories":[],"categories_nodes":[],"categories_segments":[],"categories_sizes":[],"default_left":[0,0,0],"id":76,"left_children":[1,-1,-1],"loss_changes":[4.749392E-1,0E0,0E0],"parents":[2147483647,0,0],"right_children":[2,-1,-1],"split_conditions":[6.73E2,-1.582599E-1,1.9163825E-1],"split_indices":[0,0,0],"split_type":[0,0,0],"sum_hessian":[2.1788614E0,1.0756327E0,1.1032287E0],"tree_param":{"num_deleted":"0","num_feature":"17","num_nodes":"3","size_leaf_vector":"1"}},{"base_weights":[3.158832E-1,-4.09228E-3,2.1940224E-1],"categories":[],"categories_nodes":[],"categories_segments":[],"categories_sizes":[],"default_left":[0,0,0],"id":77,"left_children":[1,-1,-1],"loss_changes":[2.0523185E-1,0E0,0E0],"parents":[2147483647,0,0],"right_children":[2,-1,-1],"split_conditions":[1.07E2,-4.09228E-3,2.1940224E-1],"split_indices":[1,0,0],"split_type":[0,0,0],"sum_hessian":[2.3264956E0,1.0511494E0,1.2753463E0],"tree_param":{"num_deleted":"0","num_feature":"17","num_nodes":"3","size_leaf_vector":"1"}},{"base_weights":[5.920537E-2,1.883074E-1,-9.0649955E-2],"categories":[],"categories_nodes":[],"categories_segments":[],"categories_sizes":[],"default_left":[0,0,0],"id":78,"left_children":[1,-1,-1],"loss_changes":[3.3023894E-1,0E0,0E0],"parents":[2147483647,0,0],"right_children":[2,-1,-1],"split_conditions":[1.1742419E0,1.883074E-1,-9.0649955E-2],"split_indices":[11,0,0],"split_type":[0,0,0],"sum_hessian":[2.472911E0,1.0007623E0,1.4721487E0],"tree_param":{"num_deleted":"0","num_feature":"17","num_nodes":"3","size_leaf_vector":"1"}},{"base_weights":[-2.1745606E-1,1.2826653E-2,-2.0479281E-1],"categories":[],"categories_nodes":[],"categories_segments":[],"categories_sizes":[],"default_left":[0,0,0],"id":79,"left_children":[1,-1,-1],"loss_changes":[2.5262904E-1,0E0,0E0],"parents":[2147483647,0,0],"right_children":[2,-1,-1],"split_conditions":[1.032E3,1.2826653E-2,-2.0479281E-1],"split_indices":[0,0,0],"split_type":[0,0,0],"sum_hessian":[3.0477624E0,1.726323E0,1.3214394E0],"tree_param":{"num_deleted":"0","num_feature":"17","num_nodes":"3","size_leaf_vector":"1"}},{"base_weights":[-1.920992E-1,-1.8957898E-1,7.038692E-2],"categories":[],"categories_nodes":[],"categories_segments":[],"categories_sizes":[],"default_left":[0,0,0],"id":80,"left_children":[1,-1,-1],"loss_changes":[2.7233645E-1,0E0,0E0],"parents":[2147483647,0,0],"right_children":[2,-1,-1],"split_conditions":[4.85E2,-1.8957898E-1,7.038692E-2],"split_indices":[0,0,0],"split_type":[0,0,0],"sum_hessian":[2.2828817E0,1.2507375E0,1.0321442E0],"tree_param":{"num_deleted":"0","num_feature":"17","num_nodes":"3","size_leaf_vector":"1"}},{"base_weights":[-1.4652866E-1,-2.1094339E-1,6.317433E-2],"categories":[],"categories_nodes":[],"categories_segments":[],"categories_sizes":[],"default_left":[0,0,0],"id":81,"left_children":[1,-1,-1],"loss_changes":[3.1767184E-1,0E0,0E0],"parents":[2147483647,0,0],"right_children":[2,-1,-1],"split_conditions":[3.3E1,-2.1094339E-1,6.317433E-2],"split_indices":[10,0,0],"split_type":[0,0,0],"sum_hessian":[2.4196427E0,1.0428017E0,1.3768411E0],"tree_param":{"num_deleted":"0","num_feature":"17","num_nodes":"3","size_leaf_vector":"1"}},{"base_weights":[9.397221E-2,1.375389E-1,-5.600975E-2],"categories":[],"categories_nodes":[],"categories_segments":[],"categories_sizes":[],"default_left":[0,0,0],"id":82,"left_children":[1,-1,-1],"loss_changes":[1.4142168E-1,0E0,0E0],"parents":[2147483647,0,0],"right_children":[2,-1,-1],"split_conditions":[1E3,1.375389E-1,-5.600975E-2],"split_indices":[13,0,0],"split_type":[0,0,0],"sum_hessian":[2.1259692E0,1.0027195E0,1.1232497E0],"tree_param":{"num_deleted":"0","num_feature":"17","num_nodes":"3","size_leaf_vector":"1"}},{"base_weights":[3.0369772E-2,-7.279402E-2,9.7058766E-2],"categories":[],"categories_nodes":[],"categories_segments":[],"categories_sizes":[],"default_left":[0,0,0],"id":83,"left_children":[1,-1,-1],"loss_changes":[1.1016173E-1,0E0,0E0],"parents":[2147483647,0,0],"right_children":[2,-1,-1],"split_conditions":[4.825E0,-7.279402E-2,9.7058766E-2],"split_indices":[11,0,0],"split_type":[0,0,0],"sum_hessian":[2.1441908E0,1.0807685E0,1.0634223E0],"tree_param":{"num_deleted":"0","num_feature":"17","num_nodes":"3","size_leaf_vector":"1"}},{"base_weights":[-3.5249673E-2,1.19823255E-1,-1.5429704E-1],"categories":[],"categories_nodes":[],"categories_segments":[],"categories_sizes":[],"default_left":[0,0,0],"id":84,"left_children":[1,-1,-1],"loss_changes":[3.3748022E-1,0E0,0E0],"parents":[2147483647,0,0],"right_children":[2,-1,-1],"split_conditions":[5.1E1,1.19823255E-1,-1.5429704E-1],"split_indices":[10,0,0],"split_type":[0,0,0],"sum_hessian":[2.5242777E0,1.2987242E0,1.2255535E0],"tree_param":{"num_deleted":"0","num_feature":"17","num_nodes":"3","size_leaf_vector":"1"}},{"base_weights":[1.0980446E-1,1.4954245E-1,-6.79569E-2],"categories":[],"categories_nodes":[],"categories_segments":[],"categories_sizes":[],"default_left":[0,0,0],"id":85,"left_children":[1,-1,-1],"loss_changes":[1.7179105E-1,0E0,0E0],"parents":[2147483647,0,0],"right_children":[2,-1,-1],"split_conditions":[3.6183864E-2,1.4954245E-1,-6.79569E-2],"split_indices":[2,0,0],"split_type":[0,0,0],"sum_hessian":[2.0385544E0,1.0232189E0,1.0153354E0],"tree_param":{"num_deleted":"0","num_feature":"17","num_nodes":"3","size_leaf_vector":"1"}},{"base_weights":[-5.154073E-2,4.682199E-2,-1.20331265E-1],"categories":[],"categories_nodes":[],"categories_segments":[],"categories_sizes":[],"default_left":[0,0,0],"id":86,"left_children":[1,-1,-1],"loss_changes":[1.2159363E-1,0E0,0E0],"parents":[2147483647,0,0],"right_children":[2,-1,-1],"split_conditions":[5E0,4.682199E-2,-1.20331265E-1],"split_indices":[11,0,0],"split_type":[0,0,0],"sum_hessian":[2.5538638E0,1.5425814E0,1.0112823E0],"tree_param":{"num_deleted":"0","num_feature":"17","num_nodes":"3","size_leaf_vector":"1"}},{"base_weights":[-2.5880335E-2,-7.7893406E-2,8.06796E-2],"categories":[],"categories_nodes":[],"categories_segments":[],"categories_sizes":[],"default_left":[0,0,0],"id":87,"left_children":[1,-1,-1],"loss_changes":[1.0531439E-1,0E0,0E0],"parents":[2147483647,0,0],"right_children":[2,-1,-1],"split_conditions":[4.710632E-2,-7.7893406E-2,8.06796E-2],"split_indices":[2,0,0],"split_type":[0,0,0],"sum_hessian":[2.3991787E0,1.3682764E0,1.0309024E0],"tree_param":{"num_deleted":"0","num_feature":"17","num_nodes":"3","size_leaf_vector":"1"}},{"base_weights":[7.698549E-2,1.7375037E-1,-5.505203E-2],"categories":[],"categories_nodes":[],"categories_segments":[],"categories_sizes":[],"default_left":[0,0,0],"id":88,"left_children":[1,-1,-1],"loss_changes":[2.4097058E-1,0E0,0E0],"parents":[2147483647,0,0],"right_children":[2,-1,-1],"split_conditions":[1E0,1.7375037E-1,-5.505203E-2],"split_indices":[4,0,0],"split_type":[0,0,0],"sum_hessian":[2.781602E0,1.0205908E0,1.7610111E0],"tree_param":{"num_deleted":"0","num_feature":"17","num_nodes":"3","size_leaf_vector":"1"}},{"base_weights":[5.5341393E-2,1.345772E-1,-1.2122639E-1],"categories":[],"categories_nodes":[],"categories_segments":[],"categories_sizes":[],"default_left":[0,0,0],"id":89,"left_children":[1,-1,-1],"loss_changes":[2.6506642E-1,0E0,0E0],"parents":[2147483647,0,0],"right_children":[2,-1,-1],"split_conditions":[5.7471014E-4,1.345772E-1,-1.2122639E-1],"split_indices":[12,0,0],"split_type":[0,0,0],"sum_hessian":[2.3027172E0,1.2784879E0,1.0242292E0],"tree_param":{"num_deleted":"0","num_feature":"17","num_nodes":"3","size_leaf_vector":"1"}},{"base_weights":[-6.027464E-2,8.862326E-2,-1.1053575E-1],"categories":[],"categories_nodes":[],"categories_segments":[],"categories_sizes":[],"default_left":[0,0,0],"id":90,"left_children":[1,-1,-1],"loss_changes":[1.6363785E-1,0E0,0E0],"parents":[2147483647,0,0],"right_children":[2,-1,-1],"split_conditions":[1.4209209E4,8.862326E-2,-1.1053575E-1],"split_indices":[13,0,0],"split_type":[0,0,0],"sum_hessian":[2.348709E0,1.0365049E0,1.3122042E0],"tree_param":{"num_deleted":"0","num_feature":"17","num_nodes":"3","size_leaf_vector":"1"}},{"base_weights":[-6.9371626E-2,7.446365E-2,-1.381017E-1],"categories":[],"categories_nodes":[],"categories_segments":[],"categories_sizes":[],"default_left":[0,0,0],"id":91,"left_children":[1,-1,-1],"loss_changes":[2.1481673E-1,0E0,0E0],"parents":[2147483647,0,0],"right_children":[2,-1,-1],"split_conditions":[1.032E3,7.446365E-2,-1.381017E-1],"split_indices":[0,0,0],"split_type":[0,0,0],"sum_hessian":[2.677326E0,1.4113703E0,1.2659557E0],"tree_param":{"num_deleted":"0","num_feature":"17","num_nodes":"3","size_leaf_vector":"1"}},{"base_weights":[-1.9972159E-1],"categories":[],"categories_nodes":[],"categories_segments":[],"categories_sizes":[],"default_left":[0],"id":92,"left_children":[-1],"loss_changes":[0E0],"parents":[2147483647],"right_children":[-1],"split_conditions":[-7.483703E-2],"split_indices":[0],"split_type":[0],"sum_hessian":[1.9532475E0],"tree_param":{"num_deleted":"0","num_feature":"17","num_nodes":"1","size_leaf_vector":"1"}},{"base_weights":[-1.1728311E-1,6.85158E-2,-1.2269519E-1],"categories":[],"categories_nodes":[],"categories_segments":[],"categories_sizes":[],"default_left":[0,0,0],"id":93,"left_children":[1,-1,-1],"loss_changes":[1.609062E-1,0E0,0E0],"parents":[2147483647,0,0],"right_children":[2,-1,-1],"split_conditions":[1.9177E4,6.85158E-2,-1.2269519E-1],"split_indices":[9,0,0],"split_type":[0,0,0],"sum_hessian":[2.5500972E0,1.0494977E0,1.5005994E0],"tree_param":{"num_deleted":"0","num_feature":"17","num_nodes":"3","size_leaf_vector":"1"}},{"base_weights":[2.4918E-2,-1.4087775E-1,1.2128843E-1],"categories":[],"categories_nodes":[],"categories_segments":[],"categories_sizes":[],"default_left":[0,0,0],"id":94,"left_children":[1,-1,-1],"loss_changes":[3.0515623E-1,0E0,0E0],"parents":[2147483647,0,0],"right_children":[2,-1,-1],"split_conditions":[2.6E1,-1.4087775E-1,1.2128843E-1],"split_indices":[10,0,0],"split_type":[0,0,0],"sum_hessian":[2.5479336E0,1.0874935E0,1.46044E0],"tree_param":{"num_deleted":"0","num_feature":"17","num_nodes":"3","size_leaf_vector":"1"}},{"base_weights":[3.6189936E-2,1.2608404E-1,-8.836659E-2],"categories":[],"categories_nodes":[],"categories_segments":[],"categories_sizes":[],"default_left":[0,0,0],"id":95,"left_children":[1,-1,-1],"loss_changes":[2.055409E-1,0E0,0E0],"parents":[2147483647,0,0],"right_children":[2,-1,-1],"split_conditions":[1.7775664E-4,1.2608404E-1,-8.836659E-2],"split_indices":[12,0,0],"split_type":[0,0,0],"sum_hessian":[2.515739E0,1.1963719E0,1.3193669E0],"tree_param":{"num_deleted":"0","num_feature":"17","num_nodes":"3","size_leaf_vector":"1"}},{"base_weights":[-5.8016844E-2,1.04723915E-1,-1.0105899E-1],"categories":[],"categories_nodes":[],"categories_segments":[],"categories_sizes":[],"default_left":[0,0,0],"id":96,"left_children":[1,-1,-1],"loss_changes":[1.9688648E-1,0E0,0E0],"parents":[2147483647,0,0],"right_children":[2,-1,-1],"split_conditions":[1.9E1,1.04723915E-1,-1.0105899E-1],"split_indices":[10,0,0],"split_type":[0,0,0],"sum_hessian":[2.7558732E0,1.0615754E0,1.6942977E0],"tree_param":{"num_deleted":"0","num_feature":"17","num_nodes":"3","size_leaf_vector":"1"}},{"base_weights":[1.4161421E-1,-5.6125782E-2,1.4958571E-1],"categories":[],"categories_nodes":[],"categories_segments":[],"categories_sizes":[],"default_left":[0,0,0],"id":97,"left_children":[1,-1,-1],"loss_changes":[1.771039E-1,0E0,0E0],"parents":[2147483647,0,0],"right_children":[2,-1,-1],"split_conditions":[2.6E1,-5.6125782E-2,1.4958571E-1],"split_indices":[10,0,0],"split_type":[0,0,0],"sum_hessian":[2.3581514E0,1.1057861E0,1.2523652E0],"tree_param":{"num_deleted":"0","num_feature":"17","num_nodes":"3","size_leaf_vector":"1"}},{"base_weights":[-5.0715253E-2,4.1502368E-2,-8.856918E-2],"categories":[],"categories_nodes":[],"categories_segments":[],"categories_sizes":[],"default_left":[0,0,0],"id":98,"left_children":[1,-1,-1],"loss_changes":[7.049148E-2,0E0,0E0],"parents":[2147483647,0,0],"right_children":[2,-1,-1],"split_conditions":[5E0,4.1502368E-2,-8.856918E-2],"split_indices":[8,0,0],"split_type":[0,0,0],"sum_hessian":[2.3498158E0,1.255666E0,1.0941497E0],"tree_param":{"num_deleted":"0","num_feature":"17","num_nodes":"3","size_leaf_vector":"1"}},{"base_weights":[2.05786E-1,-5.9459135E-2,1.9846116E-1],"categories":[],"categories_nodes":[],"categories_segments":[],"categories_sizes":[],"default_left":[0,0,0],"id":99,"left_children":[1,-1,-1],"loss_changes":[2.5234985E-1,0E0,0E0],"parents":[2147483647,0,0],"right_children":[2,-1,-1],"split_conditions":[1.29E2,-5.9459135E-2,1.9846116E-1],"split_indices":[1,0,0],"split_type":[0,0,0],"sum_hessian":[2.1367157E0,1.0047833E0,1.1319324E0],"tree_param":{"num_deleted":"0","num_feature":"17","num_nodes":"3","size_leaf_vector":"1"}}]},"name":"gbtree"},"learner_model_param":{"base_score":"1.5208898E-1","boost_from_average":"1","num_class":"0","num_feature":"17","num_target":"1"},"objective":{"name":"binary:logistic","reg_loss_param":{"scale_pos_weight":"1"}}},"version":[2,0,3]}