{"learner":{"attributes":{"scikit_learn":"{\"_estimator_type\": \"classifier\"}"},"feature_names":["num_transactions","n_unique_addresses","cluster_coeff","tx_curve","liq_curve","Mint","Burn","Transfer","event","difference_token_pool","n_syncs","WETH","prices","liquidity"],"feature_types":["int","int","float","float","float","int","int","int","int","int","int","float","float","float"],"gradient_booster":{"model":{"gbtree_model_param":{"num_parallel_tree":"1","num_trees":"100"},"iteration_indptr":[0,1,2,3,4,5,6,7,8,9,10,11,12,13,14,15,16,17,18,19,20,21,22,23,24,25,26,27,28,29,30,31,32,33,34,35,36,37,38,39,40,41,42,43,44,45,46,47,48,49,50,51,52,53,54,55,56,57,58,59,60,61,62,63,64,65,66,67,68,69,70,71,72,73,74,75,76,77,78,79,80,81,82,83,84,85,86,87,88,89,90,91,92,93,94,95,96,97,98,99,100],"tree_info":[0,0,0,0,0,0,0,0,0,0,0,0,0,0,0,0,0,0,0,0,0,0,0,0,0,0,0,0,0,0,0,0,0,0,0,0,0,0,0,0,0,0,0,0,0,0,0,0,0,0,0,0,0,0,0,0,0,0,0,0,0,0,0,0,0,0,0,0,0,0,0,0,0,0,0,0,0,0,0,0,0,0,0,0,0,0,0,0,0,0,0,0,0,0,0,0,0,0,0,0],"trees":[{"base_weights":[-6.367391E-1,-1.0785639E0,4.3806853E0,-1.1451411E0,1.1917539E0,2.456584E-1,4.933358E0,-1.1585013E0,-3.6883318E-1,-1.6473241E-1,2.1165674E0,-1.341886E-1,2.5117463E-1,8.0161583E-1,1.515571E0,-3.189049E-2,-3.2525972E-1,1.6090427E-1,-2.0972943E-1,7.0633925E-2,6.838426E-1,-1.18553236E-1,4.317153E-1],"categories":[],"categories_nodes":[],"categories_segments":[],"categories_sizes":[],"default_left":[0,0,0,0,0,0,0,0,0,0,0,0,0,0,0,0,0,0,0,0,0,0,0],"id":0,"left_children":[1,3,5,7,9,11,13,15,17,-1,19,-1,-1,21,-1,-1,-1,-1,-1,-1,-1,-1,-1],"loss_changes":[5.4264056E2,3.6463654E1,4.2883545E1,1.3695984E0,1.468813E1,3.0290227E0,2.6001312E1,7.496338E-1,3.3061604E0,0E0,1.964035E0,0E0,0E0,5.226651E0,0E0,0E0,0E0,0E0,0E0,0E0,0E0,0E0,0E0],"parents":[2147483647,0,0,1,1,2,2,3,3,4,4,5,5,6,6,7,7,8,8,10,10,13,13],"right_children":[2,4,6,8,10,12,14,16,18,-1,20,-1,-1,22,-1,-1,-1,-1,-1,-1,-1,-1,-1],"split_conditions":[3.12E2,6.3543E4,5.202E3,3.0009E4,9.9998164E-1,1.641E3,4E0,1.004E-15,3.5394E4,-1.6473241E-1,1E1,-1.341886E-1,2.5117463E-1,6.439478E-1,1.515571E0,-3.189049E-2,-3.2525972E-1,1.6090427E-1,-2.0972943E-1,7.0633925E-2,6.838426E-1,-1.18553236E-1,4.317153E-1],"split_indices":[0,9,9,9,3,0,8,11,9,0,10,0,0,3,0,0,0,0,0,0,0,0,0],"split_type":[0,0,0,0,0,0,0,0,0,0,0,0,0,0,0,0,0,0,0,0,0,0,0],"sum_hessian":[2.3831425E2,2.2051805E2,1.7796194E1,2.1523077E2,5.287275E0,2.4502006E0,1.5345993E1,2.105883E2,4.6424856E0,2.0633268E0,3.2239482E0,1.4185371E0,1.0316634E0,2.1922848E0,1.3153708E1,1.1606214E0,2.0942767E2,1.0316634E0,3.610822E0,1.0316634E0,2.1922848E0,1.1606214E0,1.0316634E0],"tree_param":{"num_deleted":"0","num_feature":"14","num_nodes":"23","size_leaf_vector":"1"}},{"base_weights":[-6.309544E-1,-9.9387205E-1,1.9050698E0,-1.0814097E0,6.3265014E-1,-1.249727E-1,5.762492E-1,-1.1019757E0,2.1944897E-1,-1.9226252E-1,1.1554186E0,-2.3487512E-2,-3.096215E-1,1.5690283E0,-1.4286822E-1,6.768548E-2,5.0309104E-1],"categories":[],"categories_nodes":[],"categories_segments":[],"categories_sizes":[],"default_left":[0,0,0,0,0,0,0,0,0,0,0,0,0,0,0,0,0],"id":1,"left_children":[1,3,5,7,9,-1,-1,11,-1,-1,13,-1,-1,15,-1,-1,-1],"loss_changes":[2.0190326E2,2.840239E1,1.2017319E1,8.719559E0,9.221901E0,0E0,0E0,7.604523E-1,0E0,0E0,7.611253E0,0E0,0E0,1.3660793E0,0E0,0E0,0E0],"parents":[2147483647,0,0,1,1,2,2,3,3,4,4,7,7,10,10,13,13],"right_children":[2,4,6,8,10,-1,-1,12,-1,-1,14,-1,-1,16,-1,-1,-1],"split_conditions":[7E0,6.3543E4,1.9E1,2.72E2,9.9998164E-1,-1.249727E-1,5.762492E-1,3.00001E-7,2.1944897E-1,-1.9226252E-1,5.376344E-2,-2.3487512E-2,-3.096215E-1,6E0,-1.4286822E-1,6.768548E-2,5.0309104E-1],"split_indices":[8,9,1,1,3,0,0,11,0,0,2,0,0,10,0,0,0],"split_type":[0,0,0,0,0,0,0,0,0,0,0,0,0,0,0,0,0],"sum_hessian":[2.130563E2,1.8748329E2,2.5573013E1,1.7856604E2,8.917257E0,1.3462254E0,2.422679E1,1.774569E2,1.1091459E0,2.3443117E0,6.572946E0,1.0858736E0,1.7637102E2,5.3628917E0,1.2100543E0,1.4191747E0,3.943717E0],"tree_param":{"num_deleted":"0","num_feature":"14","num_nodes":"17","size_leaf_vector":"1"}},{"base_weights":[-5.059914E-1,-9.717297E-1,1.4272485E0,-1.0371429E0,1.1499466E0,1.5938401E0,3.2106012E-1,-1.0591463E0,-1.0811061E-1,4.6405468E-2,3.7139326E-1,1.6770751E0,3.9395565E-1,-1.5555584E-1,2.4883333E-1,-4.0477667E-2,-2.9797572E-1,1.2302077E-1,-1.6063759E-1,6.2253937E-2,4.8195148E-1,-2.9404346E-2,1.8650782E-1],"categories":[],"categories_nodes":[],"categories_segments":[],"categories_sizes":[],"default_left":[0,0,0,0,0,0,0,0,0,0,0,0,0,0,0,0,0,0,0,0,0,0,0],"id":2,"left_children":[1,3,5,7,9,11,13,15,17,-1,-1,19,21,-1,-1,-1,-1,-1,-1,-1,-1,-1,-1],"loss_changes":[1.6279419E2,2.2500519E1,5.450012E0,2.6475677E0,4.7198582E-1,1.6468887E0,4.6211767E0,4.8608398E-1,1.9450206E0,0E0,0E0,1.0656891E0,7.801032E-1,0E0,0E0,0E0,0E0,0E0,0E0,0E0,0E0,0E0,0E0],"parents":[2147483647,0,0,1,1,2,2,3,3,4,4,5,5,6,6,7,7,8,8,11,11,12,12],"right_children":[2,4,6,8,10,12,14,16,18,-1,-1,20,22,-1,-1,-1,-1,-1,-1,-1,-1,-1,-1],"split_conditions":[2.67E2,1.54409E5,5E1,6.3543E4,3.1E1,7.8078127E-3,9.24E2,3.00001E-7,4.364487E-5,4.6405468E-2,3.7139326E-1,1.07E2,7E2,-1.5555584E-1,2.4883333E-1,-4.0477667E-2,-2.9797572E-1,1.2302077E-1,-1.6063759E-1,6.2253937E-2,4.8195148E-1,-2.9404346E-2,1.8650782E-1],"split_indices":[0,9,11,9,10,12,1,11,12,0,0,1,1,0,0,0,0,0,0,0,0,0,0],"split_type":[0,0,0,0,0,0,0,0,0,0,0,0,0,0,0,0,0,0,0,0,0,0,0],"sum_hessian":[1.7555685E2,1.4230267E2,3.325418E1,1.3907153E2,3.2311385E0,2.8109325E1,5.1448555E0,1.355704E2,3.5011325E0,1.1077466E0,2.1233919E0,2.5516838E1,2.5924876E0,2.040814E0,3.1040416E0,1.2826736E0,1.3428772E2,1.6625416E0,1.8385909E0,1.1591136E0,2.4357725E1,1.364723E0,1.2277645E0],"tree_param":{"num_deleted":"0","num_feature":"14","num_nodes":"23","size_leaf_vector":"1"}},{"base_weights":[-4.784613E-1,-9.9777436E-1,7.6803493E-1,-2.951008E-1,3.1399238E-1,-2.328908E-1,1.0812434E0,-3.7938616E-1,1.2052526E0,-1.4032379E-1,4.4954363E-3,1.2587925E0,-4.0500313E-2,4.3472743E-1,3.8001204E-1,2.935259E-1,-2.7756706E-1,5.199805E-2,-1.431386E-1],"categories":[],"categories_nodes":[],"categories_segments":[],"categories_sizes":[],"default_left":[0,0,0,0,0,0,0,0,0,0,0,0,0,0,0,0,0,0,0],"id":3,"left_children":[1,3,5,-1,-1,-1,7,9,11,-1,-1,13,-1,15,-1,-1,17,-1,-1],"loss_changes":[9.609762E1,1.5123901E1,2.3975891E1,0E0,0E0,0E0,7.790226E0,2.362625E-1,2.9311333E0,0E0,0E0,1.5988846E0,0E0,3.5560532E0,0E0,0E0,7.1357775E-1,0E0,0E0],"parents":[2147483647,0,0,1,1,2,2,6,6,7,7,8,8,11,11,13,13,16,16],"right_children":[2,4,6,-1,-1,-1,8,10,12,-1,-1,14,-1,16,-1,-1,18,-1,-1],"split_conditions":[5.202E3,4.6E1,2E1,-2.951008E-1,3.1399238E-1,-2.328908E-1,3.709508E-1,8.1E1,1.904762E-1,-1.4032379E-1,4.4954363E-3,7.9E1,-4.0500313E-2,9.8997647E-1,3.8001204E-1,2.935259E-1,4.9584964E-4,5.199805E-2,-1.431386E-1],"split_indices":[9,8,1,0,0,0,3,10,2,0,0,1,0,4,0,0,12,0,0],"split_type":[0,0,0,0,0,0,0,0,0,0,0,0,0,0,0,0,0,0,0],"sum_hessian":[1.4394164E2,1.01900826E2,4.2040806E1,1.0022199E2,1.6788297E0,6.318077E0,3.572273E1,2.462058E0,3.326067E1,1.4574518E0,1.0046064E0,3.2126934E1,1.1337364E0,4.6768847E0,2.745005E1,1.9854685E0,2.6914163E0,1.0456463E0,1.6457701E0],"tree_param":{"num_deleted":"0","num_feature":"14","num_nodes":"19","size_leaf_vector":"1"}},{"base_weights":[-4.167296E-1,-9.704056E-1,7.1329755E-1,-1.0055206E0,1.1335342E-1,-5.591747E-1,1.0696675E0,-1.881905E-2,-2.842009E-1,-2.3560943E-1,1.634426E-1,1.3210839E0,2.070226E-1,1.3717114E0,1.5268679E-2,-2.1417081E-1,8.230796E-1,3.9565453E-1,7.709634E-2,2.658935E-1,2.0074757E-2],"categories":[],"categories_nodes":[],"categories_segments":[],"categories_sizes":[],"default_left":[0,0,0,0,0,0,0,0,0,0,0,0,0,0,0,0,0,0,0,0,0],"id":4,"left_children":[1,3,5,7,-1,9,11,-1,-1,-1,-1,13,15,17,-1,-1,19,-1,-1,-1,-1],"loss_changes":[7.534944E1,4.715576E0,1.9393858E1,6.537018E-1,0E0,4.2961073E0,6.371891E0,0E0,0E0,0E0,0E0,1.4077148E0,7.0985136E0,2.9712296E-1,0E0,0E0,5.2202606E-1,0E0,0E0,0E0,0E0],"parents":[2147483647,0,0,1,1,2,2,3,3,5,5,6,6,11,11,12,12,13,13,16,16],"right_children":[2,4,6,8,-1,10,12,-1,-1,-1,-1,14,16,18,-1,-1,20,-1,-1,-1,-1],"split_conditions":[6.6E1,1.75314E5,2.023E3,7.2913635E-1,1.1335342E-1,1.372E3,8.021826E-4,-1.881905E-2,-2.842009E-1,-2.3560943E-1,1.634426E-1,1.6290022E8,2.72E2,2.4708E5,1.5268679E-2,-2.1417081E-1,6.25102E5,3.9565453E-1,7.709634E-2,2.658935E-1,2.0074757E-2],"split_indices":[1,9,9,4,0,10,12,0,0,0,0,13,1,9,0,0,13,0,0,0,0],"split_type":[0,0,0,0,0,0,0,0,0,0,0,0,0,0,0,0,0,0,0,0,0],"sum_hessian":[1.1607781E2,7.810267E1,3.7975147E1,7.670155E1,1.4011129E0,8.050717E0,2.9924429E1,1.0412871E0,7.566027E1,6.888666E0,1.1620511E0,2.2320234E1,7.6041956E0,2.129659E1,1.0236444E0,2.7529361E0,4.851259E0,1.9911213E1,1.3853768E0,3.6763275E0,1.1749318E0],"tree_param":{"num_deleted":"0","num_feature":"14","num_nodes":"21","size_leaf_vector":"1"}},{"base_weights":[-4.2965463E-1,-9.8475134E-1,5.068195E-1,3.681395E-2,-2.8198186E-1,-4.6905324E-1,8.662266E-1,1.3089748E-1,-7.400782E-1,9.172252E-2,1.0891644E0,-2.2534995E-1,-2.531993E-2,-2.2750303E-1,2.4252173E-1,2.2535186E-1,3.2421505E-1,-9.845383E-3,9.5224164E-2],"categories":[],"categories_nodes":[],"categories_segments":[],"categories_sizes":[],"default_left":[0,0,0,0,0,0,0,0,0,0,0,0,0,0,0,0,0,0,0],"id":5,"left_children":[1,3,5,-1,-1,7,9,-1,11,13,15,-1,-1,-1,-1,17,-1,-1,-1],"loss_changes":[5.096694E1,1.882782E0,1.3856668E1,0E0,0E0,3.5934658E0,4.601362E0,0E0,2.5810957E-1,7.412488E0,7.590885E-1,0E0,0E0,0E0,0E0,1.5035829E-1,0E0,0E0,0E0],"parents":[2147483647,0,0,1,1,2,2,5,5,6,6,8,8,9,9,10,10,15,15],"right_children":[2,4,6,-1,-1,8,10,-1,12,14,16,-1,-1,-1,-1,18,-1,-1,-1],"split_conditions":[2.706E3,9.618845E-2,6.6E1,3.681395E-2,-2.8198186E-1,9.739675E-1,7.4392664E-1,1.3089748E-1,4E1,2E1,1E1,-2.2534995E-1,-2.531993E-2,-2.2750303E-1,2.4252173E-1,4.5170753E1,3.2421505E-1,-9.845383E-3,9.5224164E-2],"split_indices":[9,3,1,0,0,4,3,0,1,8,10,0,0,0,0,13,0,0,0],"split_type":[0,0,0,0,0,0,0,0,0,0,0,0,0,0,0,0,0,0,0],"sum_hessian":[9.399399E1,5.8947254E1,3.5046738E1,1.0239769E0,5.792328E1,9.262987E0,2.578375E1,1.7402636E0,7.5227237E0,6.4155507E0,1.9368198E1,6.378446E0,1.1442772E0,2.91295E0,3.5026004E0,2.110705E0,1.7257494E1,1.0845066E0,1.0261984E0],"tree_param":{"num_deleted":"0","num_feature":"14","num_nodes":"19","size_leaf_vector":"1"}},{"base_weights":[-4.0752858E-1,-7.9037035E-1,8.697675E-1,-9.636433E-1,2.270241E-1,9.457055E-1,1.4362325E-1,3.450095E-2,-2.8050196E-1,-1.8444993E-1,7.045941E-1,9.953369E-1,1.637905E-2,-7.371618E-2,1.242036E-1,-6.028939E-2,9.135061E-1,2.8240615E-1,3.03009E-1,3.7996072E-1,1.20586425E-1,1.5749337E-1,-5.695146E-2,-1.2691322E-1,1.4799294E-1],"categories":[],"categories_nodes":[],"categories_segments":[],"categories_sizes":[],"default_left":[0,0,0,0,0,0,0,0,0,0,0,0,0,0,0,0,0,0,0,0,0,0,0,0,0],"id":6,"left_children":[1,3,5,7,9,11,13,-1,-1,-1,15,17,-1,-1,-1,-1,19,21,-1,-1,23,-1,-1,-1,-1],"loss_changes":[4.0227676E1,1.1407467E1,7.818432E-1,2.5486221E0,5.497139E0,6.3104534E-1,7.637681E-1,0E0,0E0,0E0,1.9383698E0,3.7611675E-1,0E0,0E0,0E0,0E0,2.0908937E0,8.6003286E-1,0E0,0E0,1.6098435E0,0E0,0E0,0E0,0E0],"parents":[2147483647,0,0,1,1,2,2,3,3,4,4,5,5,6,6,10,10,11,11,16,16,17,17,20,20],"right_children":[2,4,6,8,10,12,14,-1,-1,-1,16,18,-1,-1,-1,-1,20,22,-1,-1,24,-1,-1,-1,-1],"split_conditions":[5.69E2,3.0009E4,4.5E7,5E-7,9.9998164E-1,1.6000595E2,9.24E2,3.450095E-2,-2.8050196E-1,-1.8444993E-1,2.00096E-1,5E0,1.637905E-2,-7.371618E-2,1.242036E-1,-6.028939E-2,9.728366E-1,8.115185E-3,3.03009E-1,3.7996072E-1,1.54409E5,1.5749337E-1,-5.695146E-2,-1.2691322E-1,1.4799294E-1],"split_indices":[0,9,13,12,3,11,1,0,0,0,11,8,0,0,0,0,11,2,0,0,9,0,0,0,0],"split_type":[0,0,0,0,0,0,0,0,0,0,0,0,0,0,0,0,0,0,0,0,0,0,0,0,0],"sum_hessian":[7.729407E1,6.007592E1,1.7218145E1,5.142728E1,8.64864E0,1.502138E1,2.1967642E0,1.6449894E0,4.978229E1,2.7514226E0,5.8972173E0,1.3985992E1,1.0353887E0,1.0394049E0,1.1573592E0,1.0781873E0,4.81903E0,2.496812E0,1.148918E1,2.141299E0,2.6777308E0,1.3758469E0,1.1209654E0,1.017218E0,1.6605127E0],"tree_param":{"num_deleted":"0","num_feature":"14","num_nodes":"25","size_leaf_vector":"1"}},{"base_weights":[-3.4200945E-1,-8.906006E-1,5.2530456E-1,-2.7037892E-1,5.0228983E-2,7.77798E-1,-3.867402E-1,-1.20333254E-1,1.368257E-1,1.08766645E-1,8.9074373E-1,-2.2118655E-1,1.0262235E-1,1.9178519E-1,-1.6272181E-1,-1.2035242E-2,9.928531E-1,3.8238922E-1,3.0645144E-1,2.0164835E-1,-9.463538E-2],"categories":[],"categories_nodes":[],"categories_segments":[],"categories_sizes":[],"default_left":[0,0,0,0,0,0,0,0,0,0,0,0,0,0,0,0,0,0,0,0,0],"id":7,"left_children":[1,3,5,-1,7,9,11,-1,-1,13,15,-1,-1,-1,-1,-1,17,19,-1,-1,-1],"loss_changes":[3.1306677E1,2.9586887E0,6.6104126E0,0E0,1.4793475E0,1.3898964E0,2.7380953E0,0E0,0E0,2.9749742E0,1.7790251E0,0E0,0E0,0E0,0E0,0E0,1.4305592E-1,1.8457551E0,0E0,0E0,0E0],"parents":[2147483647,0,0,1,1,2,2,4,4,5,5,6,6,9,9,10,10,16,16,17,17],"right_children":[2,4,6,-1,8,10,12,-1,-1,14,16,-1,-1,-1,-1,-1,18,20,-1,-1,-1],"split_conditions":[6.6E1,3.0009E4,5E1,-2.7037892E-1,2E1,3E0,4.8630238E-2,-1.20333254E-1,1.368257E-1,6.1122355E-6,1E1,-2.2118655E-1,1.0262235E-1,1.9178519E-1,-1.6272181E-1,-1.2035242E-2,2.0910304E-2,1.1742419E0,3.0645144E-1,2.0164835E-1,-9.463538E-2],"split_indices":[1,9,11,0,1,8,2,0,0,12,10,0,0,0,0,0,2,11,0,0,0],"split_type":[0,0,0,0,0,0,0,0,0,0,0,0,0,0,0,0,0,0,0,0,0],"sum_hessian":[6.169943E1,3.7760635E1,2.3938791E1,3.487721E1,2.8834264E0,1.8987309E1,4.9514823E0,1.3954446E0,1.4879819E0,3.3293245E0,1.5657985E1,3.1572542E0,1.7942283E0,1.822368E0,1.5069565E0,1.6604686E0,1.3997517E1,3.4276824E0,1.0569834E1,2.3321486E0,1.0955338E0],"tree_param":{"num_deleted":"0","num_feature":"14","num_nodes":"21","size_leaf_vector":"1"}},{"base_weights":[-2.7410161E-1,-8.845208E-1,4.727163E-1,-2.6655534E-1,1.023644E-1,-1.7402084E-1,6.755758E-1,-9.343318E-2,8.98696E-1,-2.0336404E-1,1.7589733E-1,1.145598E0,1.3167228E-1,3.5145003E-1,-4.469402E-3,1.801823E-1,-1.84224E-1],"categories":[],"categories_nodes":[],"categories_segments":[],"categories_sizes":[],"default_left":[0,0,0,0,0,0,0,0,0,0,0,0,0,0,0,0,0],"id":8,"left_children":[1,3,5,-1,-1,-1,7,9,11,-1,-1,13,15,-1,-1,-1,-1],"loss_changes":[2.5796333E1,3.3675938E0,6.6315317E0,0E0,0E0,0E0,4.099867E0,4.1577163E0,3.0827885E0,0E0,0E0,1.7593002E0,3.5925946E0,0E0,0E0,0E0,0E0],"parents":[2147483647,0,0,1,1,2,2,6,6,7,7,8,8,11,11,12,12],"right_children":[2,4,6,-1,-1,-1,8,10,12,-1,-1,14,16,-1,-1,-1,-1],"split_conditions":[2.706E3,4.6E1,2E1,-2.6655534E-1,1.023644E-1,-1.7402084E-1,7.4392664E-1,2E1,4.6305013E0,-2.0336404E-1,1.7589733E-1,1.1038961E-1,9.94018E-1,3.5145003E-1,-4.469402E-3,1.801823E-1,-1.84224E-1],"split_indices":[9,8,1,0,0,0,3,8,11,0,0,2,4,0,0,0,0],"split_type":[0,0,0,0,0,0,0,0,0,0,0,0,0,0,0,0,0],"sum_hessian":[5.2624718E1,2.8747648E1,2.387707E1,2.7717642E1,1.030007E0,3.063675E0,2.0813393E1,4.949991E0,1.5863402E1,2.6300786E0,2.319913E0,1.1228215E1,4.6351867E0,1.0093562E1,1.1346532E0,3.0439854E0,1.5912012E0],"tree_param":{"num_deleted":"0","num_feature":"14","num_nodes":"17","size_leaf_vector":"1"}},{"base_weights":[-3.38409E-1,-6.515214E-1,7.6526505E-1,3.120308E-1,-9.1066504E-1,2.4176648E-1,-1.0936529E-3,-3.9270106E-1,2.707602E-1,-9.63791E-1,4.8434846E-2,6.9331415E-2,-1.8680468E-1,-2.7789354E-1,-2.804819E-2],"categories":[],"categories_nodes":[],"categories_segments":[],"categories_sizes":[],"default_left":[0,0,0,0,0,0,0,0,0,0,0,0,0,0,0],"id":9,"left_children":[1,3,5,7,9,-1,-1,11,-1,13,-1,-1,-1,-1,-1],"loss_changes":[1.6173168E1,9.390074E0,8.197489E-1,4.9525986E0,1.9756184E0,0E0,0E0,1.3678749E0,0E0,4.9909782E-1,0E0,0E0,0E0,0E0,0E0],"parents":[2147483647,0,0,1,1,2,2,3,3,4,4,7,7,9,9],"right_children":[2,4,6,8,10,-1,-1,12,-1,14,-1,-1,-1,-1,-1],"split_conditions":[1.3E1,5.032109E-1,9.8997647E-1,4.3037357E2,1.54409E5,2.4176648E-1,-1.0936529E-3,1.21230674E-4,2.707602E-1,5.53E2,4.8434846E-2,6.9331415E-2,-1.8680468E-1,-2.7789354E-1,-2.804819E-2],"split_indices":[8,11,4,13,9,0,0,12,0,10,0,0,0,0,0],"split_type":[0,0,0,0,0,0,0,0,0,0,0,0,0,0,0],"sum_hessian":[4.175388E1,3.318618E1,8.567699E0,6.9435873E0,2.6242594E1,7.362282E0,1.2054182E0,3.7474232E0,3.196164E0,2.5235332E1,1.0072609E0,1.1872444E0,2.5601788E0,2.408742E1,1.1479132E0],"tree_param":{"num_deleted":"0","num_feature":"14","num_nodes":"15","size_leaf_vector":"1"}},{"base_weights":[-2.4498318E-1,-8.191875E-1,3.303401E-1,6.515369E-2,-2.5292325E-1,6.724476E-1,-1.602026E-1,-4.3355398E-2,7.7532053E-1,-5.2659744E-1,1.4317502E-1,8.6962783E-1,1.9325947E-3,2.675708E-2,-2.2054985E-1,2.6363423E-1,3.81618E-2],"categories":[],"categories_nodes":[],"categories_segments":[],"categories_sizes":[],"default_left":[0,0,0,0,0,0,0,0,0,0,0,0,0,0,0,0,0],"id":10,"left_children":[1,3,5,-1,-1,7,9,-1,11,13,-1,15,-1,-1,-1,-1,-1],"loss_changes":[1.3174639E1,2.203682E0,3.671086E0,0E0,0E0,1.3132129E0,3.0469327E0,0E0,8.177576E-1,1.3898177E0,0E0,2.7981567E-1,0E0,0E0,0E0,0E0,0E0],"parents":[2147483647,0,0,1,1,2,2,5,5,6,6,8,8,9,9,11,11],"right_children":[2,4,6,-1,-1,8,10,-1,12,14,-1,16,-1,-1,-1,-1,-1],"split_conditions":[2.706E3,9.618845E-2,1.7775664E-4,6.515369E-2,-2.5292325E-1,4.3E1,1.2E1,-4.3355398E-2,2.915597E1,5.032109E-1,1.4317502E-1,7.371795E-2,1.9325947E-3,2.675708E-2,-2.2054985E-1,2.6363423E-1,3.81618E-2],"split_indices":[9,3,12,0,0,1,8,0,11,11,0,2,0,0,0,0,0],"split_type":[0,0,0,0,0,0,0,0,0,0,0,0,0,0,0,0,0],"sum_hessian":[3.6120525E1,1.7640223E1,1.84803E1,1.0531324E0,1.6587091E1,1.0436966E1,8.043336E0,1.0373242E0,9.399642E0,5.496222E0,2.547114E0,8.128762E0,1.2708794E0,2.0166476E0,3.4795744E0,6.8535137E0,1.2752484E0],"tree_param":{"num_deleted":"0","num_feature":"14","num_nodes":"17","size_leaf_vector":"1"}},{"base_weights":[-2.6481143E-1,-5.927396E-1,5.5147725E-1,1.9964713E-1,-9.233593E-1,6.883013E-1,5.9103597E-2,-1.8754092E-1,6.425848E-1,-3.0737573E-2,-2.6805097E-1,2.1099699E-1,2.1960251E-2,1.02171496E-1,-8.804988E-2,-3.332836E-2,2.6648518E-1,-1.2560816E-1,1.117609E-1],"categories":[],"categories_nodes":[],"categories_segments":[],"categories_sizes":[],"default_left":[0,0,0,0,0,0,0,0,0,0,0,0,0,0,0,0,0,0,0],"id":11,"left_children":[1,3,5,7,9,11,13,-1,15,-1,-1,-1,-1,-1,-1,17,-1,-1,-1],"loss_changes":[9.556416E0,6.8432465E0,6.2796307E-1,4.3442087E0,2.9000092E-1,2.0322943E-1,7.60205E-1,0E0,1.5334198E0,0E0,0E0,0E0,0E0,0E0,0E0,1.1264849E0,0E0,0E0,0E0],"parents":[2147483647,0,0,1,1,2,2,3,3,4,4,5,5,6,6,8,8,15,15],"right_children":[2,4,6,8,10,12,14,-1,16,-1,-1,-1,-1,-1,-1,18,-1,-1,-1],"split_conditions":[6E0,9.728366E-1,9.94018E-1,1E0,2.3174632E-6,5.347999E-2,2.3632374E-1,-1.8754092E-1,4.3037357E2,-3.0737573E-2,-2.6805097E-1,2.1099699E-1,2.1960251E-2,1.02171496E-1,-8.804988E-2,4.85E2,2.6648518E-1,-1.2560816E-1,1.117609E-1],"split_indices":[8,11,4,3,12,12,11,0,13,0,0,0,0,0,0,0,0,0,0],"split_type":[0,0,0,0,0,0,0,0,0,0,0,0,0,0,0,0,0,0,0],"sum_hessian":[3.1110884E1,2.2599018E1,8.511867E0,6.8935304E0,1.5705488E1,6.016195E0,2.4956715E0,1.9662396E0,4.9272904E0,1.0053098E0,1.4700178E1,4.9832616E0,1.0329329E0,1.3993841E0,1.0962873E0,2.1300344E0,2.7972562E0,1.0480778E0,1.0819565E0],"tree_param":{"num_deleted":"0","num_feature":"14","num_nodes":"19","size_leaf_vector":"1"}},{"base_weights":[-2.0896217E-1,-5.0748295E-1,1.9901845E-1,1.282632E-1,-7.727668E-1,-1.3298905E-1,4.2546046E-1,4.149546E-2,-8.596035E-1,1.993235E-1,-5.598193E-2,-3.4682486E-2,-2.4984017E-1],"categories":[],"categories_nodes":[],"categories_segments":[],"categories_sizes":[],"default_left":[0,0,0,0,0,0,0,0,0,0,0,0,0],"id":12,"left_children":[1,3,-1,5,7,-1,9,-1,11,-1,-1,-1,-1],"loss_changes":[8.692531E0,4.091257E0,0E0,1.9532548E0,1.5881405E0,0E0,1.5220121E0,0E0,1.5404797E-1,0E0,0E0,0E0,0E0],"parents":[2147483647,0,0,1,1,3,3,4,4,6,6,8,8],"right_children":[2,4,-1,6,8,-1,10,-1,12,-1,-1,-1,-1],"split_conditions":[1.4E1,9.728366E-1,1.9901845E-1,2.7E1,6.3516486E-1,-1.3298905E-1,8.0552E4,4.149546E-2,4.5692436E-6,1.993235E-1,-5.598193E-2,-3.4682486E-2,-2.4984017E-1],"split_indices":[8,11,0,1,4,0,9,0,12,0,0,0,0],"split_type":[0,0,0,0,0,0,0,0,0,0,0,0,0],"sum_hessian":[2.6847736E1,2.0974768E1,5.8729696E0,6.4887543E0,1.4486012E1,1.7303461E0,4.758408E0,1.1209708E0,1.3365042E1,3.0646408E0,1.6937672E0,1.0123175E0,1.2352724E1],"tree_param":{"num_deleted":"0","num_feature":"14","num_nodes":"13","size_leaf_vector":"1"}},{"base_weights":[-1.5483192E-1,-2.2236755E-1,2.1925457E-1,-2.7848285E-1,4.8482323E-1,-2.0479356E-1,1.4717667E-1,6.421853E-1,-7.475832E-2,2.5779113E-1,1.5323798E-1,-1.3974859E-1,1.736061E-1],"categories":[],"categories_nodes":[],"categories_segments":[],"categories_sizes":[],"default_left":[0,0,0,0,0,0,0,0,0,0,0,0,0],"id":13,"left_children":[1,-1,3,5,7,-1,-1,9,-1,-1,11,-1,-1],"loss_changes":[6.403978E0,0E0,2.5981293E0,3.5049E0,1.7984166E0,0E0,0E0,1.1694398E0,0E0,0E0,2.5859382E0,0E0,0E0],"parents":[2147483647,0,0,2,2,3,3,4,4,7,7,10,10],"right_children":[2,-1,4,6,8,-1,-1,10,-1,-1,12,-1,-1],"split_conditions":[2E1,-2.2236755E-1,8.199566E-1,4.6E1,8.235E3,-2.0479356E-1,1.4717667E-1,9.728366E-1,-7.475832E-2,2.5779113E-1,7.8E1,-1.3974859E-1,1.736061E-1],"split_indices":[1,0,3,8,0,0,0,11,0,0,10,0,0],"split_type":[0,0,0,0,0,0,0,0,0,0,0,0,0],"sum_hessian":[2.316199E1,7.684448E0,1.5477541E1,5.348902E0,1.0128639E1,3.5397193E0,1.809183E0,8.626937E0,1.5017021E0,4.323162E0,4.3037744E0,1.7358007E0,2.5679739E0],"tree_param":{"num_deleted":"0","num_feature":"14","num_nodes":"13","size_leaf_vector":"1"}},{"base_weights":[-6.0204823E-2,-2.1168983E-1,3.1062338E-1,-8.4926724E-2,4.46771E-1,5.2397466E-1,-4.6083204E-2,8.8455774E-2,7.026411E-1,4.0205657E-1,-1.2392165E-1,2.2957663E-1,1.6864885E-1,1.6572799E-1,-2.803853E-2,1.15477875E-1,-5.519642E-2],"categories":[],"categories_nodes":[],"categories_segments":[],"categories_sizes":[],"default_left":[0,0,0,0,0,0,0,0,0,0,0,0,0,0,0,0,0],"id":14,"left_children":[1,-1,3,-1,5,7,-1,9,11,13,-1,-1,15,-1,-1,-1,-1],"loss_changes":[6.233828E0,0E0,1.6171663E0,0E0,8.359263E-1,8.71223E-1,0E0,1.3857927E0,2.7014923E-1,5.945501E-1,0E0,0E0,5.442187E-1,0E0,0E0,0E0,0E0],"parents":[2147483647,0,0,2,2,4,4,5,5,7,7,8,8,9,9,12,12],"right_children":[2,-1,4,-1,6,8,-1,10,12,14,-1,-1,16,-1,-1,-1,-1],"split_conditions":[2E1,-2.1168983E-1,2.706E3,-8.4926724E-2,9.82E3,2.0910304E-2,-4.6083204E-2,4.5E0,7.201124E-4,1.21230674E-4,-1.2392165E-1,2.2957663E-1,9.771129E-1,1.6572799E-1,-2.803853E-2,1.15477875E-1,-5.519642E-2],"split_indices":[1,0,9,0,0,2,0,11,12,12,0,0,4,0,0,0,0],"split_type":[0,0,0,0,0,0,0,0,0,0,0,0,0,0,0,0,0],"sum_hessian":[2.017784E1,6.262013E0,1.3915827E1,2.0621922E0,1.1853635E1,1.07889E1,1.0647339E0,4.0384555E0,6.7504454E0,2.8576696E0,1.1807859E0,4.6158338E0,2.1346114E0,1.8035417E0,1.0541279E0,1.1226994E0,1.0119119E0],"tree_param":{"num_deleted":"0","num_feature":"14","num_nodes":"17","size_leaf_vector":"1"}},{"base_weights":[-1.412873E-1,-7.2299397E-1,3.0159658E-1,-3.5475753E-2,-2.2455356E-1,-1.5115675E-1,5.6112564E-1,-1.5470135E-1,2.126216E-1,2.0582232E-1,-2.4602996E-2,1.2503748E-1,-5.9453946E-2],"categories":[],"categories_nodes":[],"categories_segments":[],"categories_sizes":[],"default_left":[0,0,0,0,0,0,0,0,0,0,0,0,0],"id":15,"left_children":[1,3,5,-1,-1,7,9,-1,11,-1,-1,-1,-1],"loss_changes":[5.46795E0,2.1925402E-1,1.6459545E0,0E0,0E0,1.1480591E0,1.0871696E0,0E0,6.69181E-1,0E0,0E0,0E0,0E0],"parents":[2147483647,0,0,1,1,2,2,5,5,6,6,8,8],"right_children":[2,4,6,-1,-1,8,10,-1,12,-1,-1,-1,-1],"split_conditions":[3E0,4.364487E-5,3.4E1,-3.5475753E-2,-2.2455356E-1,1E0,9.94018E-1,-1.5470135E-1,1.032E3,2.0582232E-1,-2.4602996E-2,1.2503748E-1,-5.9453946E-2],"split_indices":[8,12,10,0,0,3,4,0,0,0,0,0,0],"split_type":[0,0,0,0,0,0,0,0,0,0,0,0,0],"sum_hessian":[1.7407827E1,6.9605355E0,1.0447292E1,1.4569219E0,5.5036135E0,4.1198235E0,6.3274684E0,1.4469651E0,2.6728585E0,4.7675753E0,1.5598931E0,1.6554142E0,1.0174443E0],"tree_param":{"num_deleted":"0","num_feature":"14","num_nodes":"13","size_leaf_vector":"1"}},{"base_weights":[-2.065391E-1,-4.4404253E-1,4.1352046E-1,8.027526E-2,-6.786667E-1,-8.099787E-3,1.4377746E-1,-1.4934565E-1,4.3403912E-1,-2.3624486E-1,-1.7756501E-1,-1.6492728E-2,1.6457164E-1,6.0492594E-2,-1.2679608E-1],"categories":[],"categories_nodes":[],"categories_segments":[],"categories_sizes":[],"default_left":[0,0,0,0,0,0,0,0,0,0,0,0,0,0,0],"id":16,"left_children":[1,3,5,7,9,-1,-1,-1,11,-1,13,-1,-1,-1,-1],"loss_changes":[3.137756E0,1.901752E0,3.0971837E-1,1.8570709E0,5.437646E-1,0E0,0E0,0E0,4.6546757E-1,0E0,7.6492965E-1,0E0,0E0,0E0,0E0],"parents":[2147483647,0,0,1,1,2,2,3,3,4,4,8,8,10,10],"right_children":[2,4,6,8,10,-1,-1,-1,12,-1,14,-1,-1,-1,-1],"split_conditions":[1.3E1,5.032109E-1,4.26E2,1E0,1.3971937E-2,-8.099787E-3,1.4377746E-1,-1.4934565E-1,3E0,-2.3624486E-1,6.4425774E-2,-1.6492728E-2,1.6457164E-1,6.0492594E-2,-1.2679608E-1],"split_indices":[8,11,9,3,2,0,0,0,8,0,2,0,0,0,0],"split_type":[0,0,0,0,0,0,0,0,0,0,0,0,0,0,0],"sum_hessian":[1.6664045E1,1.2473958E1,4.1900883E0,4.275414E0,8.1985445E0,1.0474092E0,3.142679E0,1.1766996E0,3.098714E0,5.0916476E0,3.1068964E0,1.0426724E0,2.0560417E0,1.4621216E0,1.6447748E0],"tree_param":{"num_deleted":"0","num_feature":"14","num_nodes":"15","size_leaf_vector":"1"}},{"base_weights":[-7.497623E-2,5.0821507E-1,-3.298259E-1,1.7220039E-2,1.6552949E-1,1.4585796E-1,-6.869515E-1,-2.3112868E-1,1.3413695E-1,-3.7819285E-2,-2.1667366E-1,4.1104935E-2,-1.1812094E-1],"categories":[],"categories_nodes":[],"categories_segments":[],"categories_sizes":[],"default_left":[0,0,0,0,0,0,0,0,0,0,0,0,0],"id":17,"left_children":[1,3,5,-1,-1,7,9,11,-1,-1,-1,-1,-1],"loss_changes":[2.7809324E0,1.4077902E-1,2.3571045E0,0E0,0E0,1.1264762E0,1.5070319E-1,4.714196E-1,0E0,0E0,0E0,0E0,0E0],"parents":[2147483647,0,0,1,1,2,2,5,5,6,6,7,7],"right_children":[2,4,6,-1,-1,8,10,12,-1,-1,-1,-1,-1],"split_conditions":[9.94018E-1,3.12E2,9.728366E-1,1.7220039E-2,1.6552949E-1,3.7410742E2,5E0,9.081542E-3,1.3413695E-1,-3.7819285E-2,-2.1667366E-1,4.1104935E-2,-1.1812094E-1],"split_indices":[4,0,11,0,0,13,11,2,0,0,0,0,0],"split_type":[0,0,0,0,0,0,0,0,0,0,0,0,0],"sum_hessian":[1.4315414E1,3.7276912E0,1.0587724E1,1.1559664E0,2.571725E0,5.063405E0,5.5243187E0,2.6752505E0,2.3881543E0,1.4809614E0,4.0433574E0,1.0579054E0,1.6173452E0],"tree_param":{"num_deleted":"0","num_feature":"14","num_nodes":"13","size_leaf_vector":"1"}},{"base_weights":[1.3835128E-2,-4.9459252E-1,3.238257E-1,4.1934643E-2,-1.8633832E-1,-8.821791E-2,4.881709E-1,1.8787739E-1,-3.4329195E-2,-8.548068E-2,6.697092E-2],"categories":[],"categories_nodes":[],"categories_segments":[],"categories_sizes":[],"default_left":[0,0,0,0,0,0,0,0,0,0,0],"id":18,"left_children":[1,3,5,-1,-1,-1,7,-1,9,-1,-1],"loss_changes":[2.8887854E0,9.777837E-1,1.5089599E0,0E0,0E0,0E0,9.9124837E-1,0E0,4.8717844E-1,0E0,0E0],"parents":[2147483647,0,0,1,1,2,2,6,6,8,8],"right_children":[2,4,6,-1,-1,-1,8,-1,10,-1,-1],"split_conditions":[5.202E3,2.0056286E-1,8.273256E-1,4.1934643E-2,-1.8633832E-1,-8.821791E-2,8.021826E-4,1.8787739E-1,4.27E2,-8.548068E-2,6.697092E-2],"split_indices":[9,3,3,0,0,0,12,0,0,0,0],"split_type":[0,0,0,0,0,0,0,0,0,0,0],"sum_hessian":[1.4163952E1,4.897801E0,9.266151E0,1.084631E0,3.8131697E0,1.5053979E0,7.760753E0,5.306423E0,2.45433E0,1.1134644E0,1.3408655E0],"tree_param":{"num_deleted":"0","num_feature":"14","num_nodes":"11","size_leaf_vector":"1"}},{"base_weights":[-1.722436E-1,-3.705003E-1,1.0830966E-1,7.914008E-2,-6.1825615E-1,2.8571552E-1,-5.4212265E-2,2.5462661E-2,-2.1199976E-1,-5.7330374E-3,1.13697425E-1],"categories":[],"categories_nodes":[],"categories_segments":[],"categories_sizes":[],"default_left":[0,0,0,0,0,0,0,0,0,0,0],"id":19,"left_children":[1,3,-1,5,7,9,-1,-1,-1,-1,-1],"loss_changes":[1.83832E0,1.3625425E0,0E0,4.4454E-1,8.904793E-1,1.7180064E-1,0E0,0E0,0E0,0E0,0E0],"parents":[2147483647,0,0,1,1,3,3,4,4,5,5],"right_children":[2,4,-1,6,8,10,-1,-1,-1,-1,-1],"split_conditions":[3.43E2,5.032109E-1,1.0830966E-1,9.1489E4,1.1028198E-5,2.7047E4,-5.4212265E-2,2.5462661E-2,-2.1199976E-1,-5.7330374E-3,1.13697425E-1],"split_indices":[10,11,0,9,12,9,0,0,0,0,0],"split_type":[0,0,0,0,0,0,0,0,0,0,0],"sum_hessian":[1.1832305E1,9.253307E0,2.5789974E0,3.7857077E0,5.4676E0,2.1019542E0,1.6837537E0,1.0182122E0,4.4493876E0,1.0784763E0,1.0234778E0],"tree_param":{"num_deleted":"0","num_feature":"14","num_nodes":"11","size_leaf_vector":"1"}},{"base_weights":[-1.9000153E-1,-4.169325E-1,3.5603055E-1,4.334112E-2,-5.277068E-1,1.4429499E-1,-2.8328791E-2,-5.883396E-1,-8.621761E-3,-2.9223548E-2,-1.8860449E-1],"categories":[],"categories_nodes":[],"categories_segments":[],"categories_sizes":[],"default_left":[0,0,0,0,0,0,0,0,0,0,0],"id":20,"left_children":[1,3,5,-1,7,-1,-1,9,-1,-1,-1],"loss_changes":[2.0318832E0,8.527309E-1,4.8881263E-1,0E0,2.484467E-1,0E0,0E0,2.0191479E-1,0E0,0E0,0E0],"parents":[2147483647,0,0,1,1,2,2,4,4,7,7],"right_children":[2,4,6,-1,8,-1,-1,10,-1,-1,-1],"split_conditions":[1.2E1,2.846999E-6,9.8997647E-1,4.334112E-2,2.4098301E-1,1.4429499E-1,-2.8328791E-2,4.364487E-5,-8.621761E-3,-2.9223548E-2,-1.8860449E-1],"split_indices":[8,12,4,0,12,0,0,12,0,0,0],"split_type":[0,0,0,0,0,0,0,0,0,0,0],"sum_hessian":[1.1856022E1,8.721415E0,3.1346076E0,1.2801385E0,7.441276E0,2.1273026E0,1.0073048E0,6.291544E0,1.1497325E0,1.6429083E0,4.6486354E0],"tree_param":{"num_deleted":"0","num_feature":"14","num_nodes":"11","size_leaf_vector":"1"}},{"base_weights":[-1.0098195E-1,-2.8250408E-1,1.0086821E-1,1.2601647E-1,-5.1180166E-1,-6.3701816E-2,1.2211023E-1,-7.0415237E-3,-1.6580473E-1],"categories":[],"categories_nodes":[],"categories_segments":[],"categories_sizes":[],"default_left":[0,0,0,0,0,0,0,0,0],"id":21,"left_children":[1,3,-1,5,7,-1,-1,-1,-1],"loss_changes":[1.2288089E0,1.0592339E0,0E0,7.7823967E-1,2.3462343E-1,0E0,0E0,0E0,0E0],"parents":[2147483647,0,0,1,1,3,3,4,4],"right_children":[2,4,-1,6,8,-1,-1,-1,-1],"split_conditions":[1.4E1,9.728366E-1,1.0086821E-1,3.0077115E2,9.7819763E-1,-6.3701816E-2,1.2211023E-1,-7.0415237E-3,-1.6580473E-1],"split_indices":[8,11,0,13,4,0,0,0,0],"split_type":[0,0,0,0,0,0,0,0,0],"sum_hessian":[1.0084878E1,7.815626E0,2.2692513E0,3.143038E0,4.6725883E0,1.7258245E0,1.4172134E0,1.05582E0,3.6167684E0],"tree_param":{"num_deleted":"0","num_feature":"14","num_nodes":"9","size_leaf_vector":"1"}},{"base_weights":[-1.3347797E-1,-4.3181947E-1,2.171664E-1,4.7458477E-2,-1.6343254E-1,-4.5008034E-2,3.658333E-1,1.3148698E-1,1.6078722E-2],"categories":[],"categories_nodes":[],"categories_segments":[],"categories_sizes":[],"default_left":[0,0,0,0,0,0,0,0,0],"id":22,"left_children":[1,3,5,-1,-1,-1,7,-1,-1],"loss_changes":[1.5031726E0,8.8958776E-1,5.2244437E-1,0E0,0E0,0E0,1.2867767E-1,0E0,0E0],"parents":[2147483647,0,0,1,1,2,2,6,6],"right_children":[2,4,6,-1,-1,-1,8,-1,-1],"split_conditions":[3.5E1,9.2041776E-2,5.202E3,4.7458477E-2,-1.6343254E-1,-4.5008034E-2,9.94018E-1,1.3148698E-1,1.6078722E-2],"split_indices":[10,13,9,0,0,0,4,0,0],"split_type":[0,0,0,0,0,0,0,0,0],"sum_hessian":[1.0448983E1,5.388361E0,5.0606227E0,1.0424597E0,4.345901E0,1.3784826E0,3.6821399E0,1.9387075E0,1.7434324E0],"tree_param":{"num_deleted":"0","num_feature":"14","num_nodes":"9","size_leaf_vector":"1"}},{"base_weights":[-1.8620601E-1,-4.0088427E-1,1.0966201E-1,3.6488857E-2,-5.2842975E-1,-1.823142E-1,2.4724048E-2],"categories":[],"categories_nodes":[],"categories_segments":[],"categories_sizes":[],"default_left":[0,0,0,0,0,0,0],"id":23,"left_children":[1,3,-1,-1,5,-1,-1],"loss_changes":[1.6888973E0,7.551304E-1,0E0,0E0,7.059672E-1,0E0,0E0],"parents":[2147483647,0,0,1,1,4,4],"right_children":[2,4,-1,-1,6,-1,-1],"split_conditions":[1.641E3,6.1122355E-6,1.0966201E-1,3.6488857E-2,9.9657774E-2,-1.823142E-1,2.4724048E-2],"split_indices":[0,12,0,0,2,0,0],"split_type":[0,0,0,0,0,0,0],"sum_hessian":[8.920225E0,6.9688816E0,1.9513433E0,1.3385143E0,5.6303673E0,4.5941534E0,1.036214E0],"tree_param":{"num_deleted":"0","num_feature":"14","num_nodes":"7","size_leaf_vector":"1"}},{"base_weights":[1.8896762E-2,-3.832685E-1,2.1765836E-1,-1.5456596E-1,2.1709464E-2,5.1260763E-1,-1.5787572E-1,-6.4570582E-3,1.79378E-1,-3.3806822E-1,5.408945E-2,8.712573E-3,-1.3801163E-1],"categories":[],"categories_nodes":[],"categories_segments":[],"categories_sizes":[],"default_left":[0,0,0,0,0,0,0,0,0,0,0,0,0],"id":24,"left_children":[1,3,5,-1,-1,7,9,-1,-1,11,-1,-1,-1],"loss_changes":[1.1342924E0,4.5829904E-1,1.2057862E0,0E0,0E0,4.271419E-1,4.9617448E-1,0E0,0E0,2.9172224E-1,0E0,0E0,0E0],"parents":[2147483647,0,0,1,1,2,2,5,5,6,6,9,9],"right_children":[2,4,6,-1,-1,8,10,-1,-1,12,-1,-1,-1],"split_conditions":[8.299672E-1,1.3E1,9.728366E-1,-1.5456596E-1,2.1709464E-2,4.3E1,3.43E2,-6.4570582E-3,1.79378E-1,1.1228691E-4,5.408945E-2,8.712573E-3,-1.3801163E-1],"split_indices":[3,8,11,0,0,1,10,0,0,12,0,0,0],"split_type":[0,0,0,0,0,0,0,0,0,0,0,0,0],"sum_hessian":[9.96935E0,2.6616852E0,7.3076644E0,1.6464876E0,1.0151978E0,3.6717875E0,3.6358767E0,1.0394583E0,2.6323292E0,2.4561613E0,1.1797154E0,1.2156664E0,1.2404948E0],"tree_param":{"num_deleted":"0","num_feature":"14","num_nodes":"13","size_leaf_vector":"1"}},{"base_weights":[-7.960899E-2,-3.983082E-1,1.8379556E-1,-1.6494803E-1,3.4934502E-2,-4.5839794E-2,3.405941E-1,1.3582997E-1,-6.3243406E-3],"categories":[],"categories_nodes":[],"categories_segments":[],"categories_sizes":[],"default_left":[0,0,0,0,0,0,0,0,0],"id":25,"left_children":[1,3,5,-1,-1,-1,7,-1,-1],"loss_changes":[1.0642399E0,7.1126825E-1,5.170878E-1,0E0,0E0,0E0,3.2613873E-1,0E0,0E0],"parents":[2147483647,0,0,1,1,2,2,6,6],"right_children":[2,4,6,-1,-1,-1,8,-1,-1],"split_conditions":[1E0,1.641E3,3.0077115E2,-1.6494803E-1,3.4934502E-2,-4.5839794E-2,2.250599E4,1.3582997E-1,-6.3243406E-3],"split_indices":[3,0,13,0,0,0,13,0,0],"split_type":[0,0,0,0,0,0,0,0,0],"sum_hessian":[8.807393E0,3.5079424E0,5.299451E0,2.3764894E0,1.131453E0,1.6162293E0,3.6832218E0,2.1353183E0,1.5479034E0],"tree_param":{"num_deleted":"0","num_feature":"14","num_nodes":"9","size_leaf_vector":"1"}},{"base_weights":[-2.446253E-2,3.329833E-1,-1.9819157E-1,-1.0642422E-3,1.2355256E-1,-1.2822843E-1,3.5902213E-2,2.689692E-1,-2.1079996E-1,-9.112687E-3,1.1005388E-1,1.2044547E-2,-9.037864E-2],"categories":[],"categories_nodes":[],"categories_segments":[],"categories_sizes":[],"default_left":[0,0,0,0,0,0,0,0,0,0,0,0,0],"id":26,"left_children":[1,3,5,-1,-1,-1,7,9,11,-1,-1,-1,-1],"loss_changes":[8.1125045E-1,1.623466E-1,5.591942E-1,0E0,0E0,0E0,4.8799753E-1,1.8553895E-1,1.5137997E-1,0E0,0E0,0E0,0E0],"parents":[2147483647,0,0,1,1,2,2,6,6,7,7,8,8],"right_children":[2,4,6,-1,-1,-1,8,10,12,-1,-1,-1,-1],"split_conditions":[9.3855435E-1,6.35E2,1E0,-1.0642422E-3,1.2355256E-1,-1.2822843E-1,4.410571E-4,1.11E2,3.5394E4,-9.112687E-3,1.1005388E-1,1.2044547E-2,-9.037864E-2],"split_indices":[4,10,3,0,0,0,12,1,9,0,0,0,0],"split_type":[0,0,0,0,0,0,0,0,0,0,0,0,0],"sum_hessian":[8.803631E0,2.2583487E0,6.5452824E0,1.0367117E0,1.2216369E0,2.162595E0,4.3826876E0,2.1594288E0,2.2232585E0,1.0754269E0,1.084002E0,1.0710491E0,1.1522094E0],"tree_param":{"num_deleted":"0","num_feature":"14","num_nodes":"13","size_leaf_vector":"1"}},{"base_weights":[1.7580217E-3,-1.16464265E-1,1.3489045E-1,4.2190492E-1,-1.4367884E-1,-2.6068602E-2,1.6276245E-1,-3.3165178E-1,8.2387716E-2,2.6956981E-2,-1.6221084E-1],"categories":[],"categories_nodes":[],"categories_segments":[],"categories_sizes":[],"default_left":[0,0,0,0,0,0,0,0,0,0,0],"id":27,"left_children":[1,-1,3,5,7,-1,-1,9,-1,-1,-1],"loss_changes":[7.62725E-1,0E0,9.5497626E-1,5.774145E-1,7.625401E-1,0E0,0E0,7.257975E-1,0E0,0E0,0E0],"parents":[2147483647,0,0,2,2,3,3,4,4,7,7],"right_children":[2,-1,4,6,8,-1,-1,10,-1,-1,-1],"split_conditions":[1.06E2,-1.16464265E-1,3.376E4,1.181035E-2,1.2E1,-2.6068602E-2,1.6276245E-1,4.364487E-5,8.2387716E-2,2.6956981E-2,-1.6221084E-1],"split_indices":[9,0,9,2,8,0,0,12,0,0,0],"split_type":[0,0,0,0,0,0,0,0,0,0,0],"sum_hessian":[9.551638E0,1.2430683E0,8.308569E0,3.5700617E0,4.7385073E0,1.0501084E0,2.5199533E0,3.6693943E0,1.0691131E0,1.8105702E0,1.8588239E0],"tree_param":{"num_deleted":"0","num_feature":"14","num_nodes":"11","size_leaf_vector":"1"}},{"base_weights":[-2.71327E-2,8.7332875E-2,-2.3985964E-1,-4.1573825E-1,7.6352336E-2,-1.431178E-1,-2.1018488E-2],"categories":[],"categories_nodes":[],"categories_segments":[],"categories_sizes":[],"default_left":[0,0,0,0,0,0,0],"id":28,"left_children":[1,-1,3,5,-1,-1,-1],"loss_changes":[8.9018214E-1,0E0,9.050317E-1,1.278907E-1,0E0,0E0,0E0],"parents":[2147483647,0,0,2,2,3,3],"right_children":[2,-1,4,6,-1,-1,-1],"split_conditions":[4.364487E-5,8.7332875E-2,2.1E1,3.423756E-2,7.6352336E-2,-1.431178E-1,-2.1018488E-2],"split_indices":[12,0,8,2,0,0,0],"split_type":[0,0,0,0,0,0,0],"sum_hessian":[8.119441E0,2.7540495E0,5.3653913E0,4.2879643E0,1.0774271E0,2.5326679E0,1.7552963E0],"tree_param":{"num_deleted":"0","num_feature":"14","num_nodes":"7","size_leaf_vector":"1"}},{"base_weights":[3.9225798E-2,-3.3759698E-1,2.5838047E-1,-1.392109E-1,2.4879627E-2,4.489483E-1,-7.0055254E-2,-4.7380594E-3,1.5612099E-1],"categories":[],"categories_nodes":[],"categories_segments":[],"categories_sizes":[],"default_left":[0,0,0,0,0,0,0,0,0],"id":29,"left_children":[1,3,5,-1,-1,7,-1,-1,-1],"loss_changes":[1.0633597E0,4.2173994E-1,1.001955E0,0E0,0E0,3.5176492E-1,0E0,0E0,0E0],"parents":[2147483647,0,0,1,1,2,2,5,5],"right_children":[2,4,6,-1,-1,8,-1,-1,-1],"split_conditions":[9.1452044E-1,2.9E1,7.371795E-2,-1.392109E-1,2.4879627E-2,4.848236E-3,-7.0055254E-2,-4.7380594E-3,1.5612099E-1],"split_indices":[3,8,2,0,0,2,0,0,0],"split_type":[0,0,0,0,0,0,0,0,0],"sum_hessian":[8.628474E0,2.7608893E0,5.867585E0,1.7575675E0,1.0033218E0,4.447219E0,1.4203664E0,1.1757343E0,3.2714849E0],"tree_param":{"num_deleted":"0","num_feature":"14","num_nodes":"9","size_leaf_vector":"1"}},{"base_weights":[-1.7088901E-2,2.3697613E-1,-2.5732788E-1,-8.416899E-3,9.9633664E-2,-1.22655965E-1,4.514814E-2],"categories":[],"categories_nodes":[],"categories_segments":[],"categories_sizes":[],"default_left":[0,0,0,0,0,0,0],"id":30,"left_children":[1,3,5,-1,-1,-1,-1],"loss_changes":[6.9133675E-1,2.0008406E-1,5.832778E-1,0E0,0E0,0E0,0E0],"parents":[2147483647,0,0,1,1,2,2],"right_children":[2,4,6,-1,-1,-1,-1],"split_conditions":[1.4209209E4,1.4E1,1.3E1,-8.416899E-3,9.9633664E-2,-1.22655965E-1,4.514814E-2],"split_indices":[13,10,8,0,0,0,0],"split_type":[0,0,0,0,0,0,0],"sum_hessian":[7.195856E0,3.509277E0,3.686579E0,1.5585569E0,1.9507202E0,2.505881E0,1.1806978E0],"tree_param":{"num_deleted":"0","num_feature":"14","num_nodes":"7","size_leaf_vector":"1"}},{"base_weights":[-8.097184E-2,-3.2910535E-1,1.0532495E-1,-1.2987736E-1,9.827671E-3,2.708803E-1,-7.450672E-2,-6.3780975E-4,9.8861426E-2],"categories":[],"categories_nodes":[],"categories_segments":[],"categories_sizes":[],"default_left":[0,0,0,0,0,0,0,0,0],"id":31,"left_children":[1,3,5,-1,-1,7,-1,-1,-1],"loss_changes":[5.1752025E-1,2.6268107E-1,5.842959E-1,0E0,0E0,1.3555506E-1,0E0,0E0,0E0],"parents":[2147483647,0,0,1,1,2,2,5,5],"right_children":[2,4,6,-1,-1,8,-1,-1,-1],"split_conditions":[1E0,7.484421E-2,5.5862627E0,-1.2987736E-1,9.827671E-3,1.1E1,-7.450672E-2,-6.3780975E-4,9.8861426E-2],"split_indices":[3,2,11,0,0,10,0,0,0],"split_type":[0,0,0,0,0,0,0,0,0],"sum_hessian":[7.5758176E0,2.571405E0,5.0044127E0,1.4621122E0,1.1092929E0,3.8519065E0,1.1525062E0,1.3590772E0,2.4928293E0],"tree_param":{"num_deleted":"0","num_feature":"14","num_nodes":"9","size_leaf_vector":"1"}},{"base_weights":[-3.8999856E-2,2.1009779E-1,-2.333362E-1,1.0530076E-1,-4.4638954E-2,-1.3661441E-1,1.026045E-1,1.0244572E-1,-7.6368764E-2],"categories":[],"categories_nodes":[],"categories_segments":[],"categories_sizes":[],"default_left":[0,0,0,0,0,0,0,0,0],"id":32,"left_children":[1,3,5,-1,-1,-1,7,-1,-1],"loss_changes":[5.8848506E-1,4.625986E-1,6.726185E-1,0E0,0E0,0E0,6.5961844E-1,0E0,0E0],"parents":[2147483647,0,0,1,1,2,2,6,6],"right_children":[2,4,6,-1,-1,-1,8,-1,-1],"split_conditions":[1.7775664E-4,4.5479715E-2,4.4196263E-2,1.0530076E-1,-4.4638954E-2,-1.3661441E-1,1.1038961E-1,1.0244572E-1,-7.6368764E-2],"split_indices":[12,2,2,0,0,0,2,0,0],"split_type":[0,0,0,0,0,0,0,0,0],"sum_hessian":[7.997559E0,3.4296715E0,4.5678873E0,2.3401687E0,1.0895029E0,2.063975E0,2.5039122E0,1.5026668E0,1.0012455E0],"tree_param":{"num_deleted":"0","num_feature":"14","num_nodes":"9","size_leaf_vector":"1"}},{"base_weights":[-1.370707E-1,1.9553956E-1,-3.690166E-1,9.465527E-2,-2.6740743E-2,-1.4414531E-1,3.2387543E-2],"categories":[],"categories_nodes":[],"categories_segments":[],"categories_sizes":[],"default_left":[0,0,0,0,0,0,0],"id":33,"left_children":[1,3,5,-1,-1,-1,-1],"loss_changes":[8.4698826E-1,2.778792E-1,5.52913E-1,0E0,0E0,0E0,0E0],"parents":[2147483647,0,0,1,1,2,2],"right_children":[2,4,6,-1,-1,-1,-1],"split_conditions":[9.728366E-1,1.21230674E-4,2E1,9.465527E-2,-2.6740743E-2,-1.4414531E-1,3.2387543E-2],"split_indices":[11,12,8,0,0,0,0],"split_type":[0,0,0,0,0,0,0],"sum_hessian":[6.9782157E0,2.9987705E0,3.9794452E0,1.7879845E0,1.2107861E0,2.9573646E0,1.0220808E0],"tree_param":{"num_deleted":"0","num_feature":"14","num_nodes":"7","size_leaf_vector":"1"}},{"base_weights":[-9.087344E-2,1.3577934E-1,-2.6622477E-1,7.53793E-2,-4.0712625E-2,-1.2368762E-1,2.556556E-2],"categories":[],"categories_nodes":[],"categories_segments":[],"categories_sizes":[],"default_left":[0,0,0,0,0,0,0],"id":34,"left_children":[1,3,5,-1,-1,-1,-1],"loss_changes":[4.3978608E-1,2.8338888E-1,4.5397115E-1,0E0,0E0,0E0,0E0],"parents":[2147483647,0,0,1,1,2,2],"right_children":[2,4,6,-1,-1,-1,-1],"split_conditions":[1.4705375E-4,4.0887132E-2,4.54E2,7.53793E-2,-4.0712625E-2,-1.2368762E-1,2.556556E-2],"split_indices":[12,2,1,0,0,0,0],"split_type":[0,0,0,0,0,0,0],"sum_hessian":[7.117374E0,3.3059056E0,3.8114684E0,2.3013787E0,1.0045269E0,2.2278566E0,1.5836118E0],"tree_param":{"num_deleted":"0","num_feature":"14","num_nodes":"7","size_leaf_vector":"1"}},{"base_weights":[-6.876867E-2,-9.398552E-2,8.0903694E-2,1.05859324E-1,-2.1568324E-1,-1.2584953E-1,4.071013E-2],"categories":[],"categories_nodes":[],"categories_segments":[],"categories_sizes":[],"default_left":[0,0,0,0,0,0,0],"id":35,"left_children":[1,-1,3,-1,5,-1,-1],"loss_changes":[4.3010372E-1,0E0,8.4426016E-1,0E0,5.713909E-1,0E0,0E0],"parents":[2147483647,0,0,2,2,4,4],"right_children":[2,-1,4,-1,6,-1,-1],"split_conditions":[5.202E3,-9.398552E-2,1.95E2,1.05859324E-1,5E0,-1.2584953E-1,4.071013E-2],"split_indices":[9,0,1,0,8,0,0],"split_type":[0,0,0,0,0,0,0],"sum_hessian":[7.27422E0,1.6892264E0,5.5849934E0,2.5039122E0,3.0810812E0,1.5622146E0,1.5188667E0],"tree_param":{"num_deleted":"0","num_feature":"14","num_nodes":"7","size_leaf_vector":"1"}},{"base_weights":[3.285969E-2,-1.8748906E-1,2.6573864E-1,1.9057535E-1,-1.4184345E-1,-8.320594E-3,1.03146836E-1,-3.989468E-2,1.13605835E-1],"categories":[],"categories_nodes":[],"categories_segments":[],"categories_sizes":[],"default_left":[0,0,0,0,0,0,0,0,0],"id":36,"left_children":[1,3,5,7,-1,-1,-1,-1,-1],"loss_changes":[5.7529056E-1,9.178673E-1,1.8538398E-1,4.2339498E-1,0E0,0E0,0E0,0E0,0E0],"parents":[2147483647,0,0,1,1,2,2,3,3],"right_children":[2,4,6,8,-1,-1,-1,-1,-1],"split_conditions":[2.6E1,8.0552E4,8.754419E-1,3.0009E4,-1.4184345E-1,-8.320594E-3,1.03146836E-1,-3.989468E-2,1.13605835E-1],"split_indices":[10,9,3,9,0,0,0,0,0],"split_type":[0,0,0,0,0,0,0,0,0],"sum_hessian":[7.1374598E0,3.8725164E0,3.2649431E0,2.1556914E0,1.7168252E0,1.2227705E0,2.0421727E0,1.1203429E0,1.0353484E0],"tree_param":{"num_deleted":"0","num_feature":"14","num_nodes":"9","size_leaf_vector":"1"}},{"base_weights":[-6.145488E-2,1.1774598E-1,-2.104025E-1,9.238061E-2,-5.0481938E-2,4.73601E-2,-1.09445326E-1],"categories":[],"categories_nodes":[],"categories_segments":[],"categories_sizes":[],"default_left":[0,0,0,0,0,0,0],"id":37,"left_children":[1,3,5,-1,-1,-1,-1],"loss_changes":[2.8258255E-1,4.5663753E-1,5.1350933E-1,0E0,0E0,0E0,0E0],"parents":[2147483647,0,0,1,1,2,2],"right_children":[2,4,6,-1,-1,-1,-1],"split_conditions":[3.1729642E-2,9.728366E-1,9.3855435E-1,9.238061E-2,-5.0481938E-2,4.73601E-2,-1.09445326E-1],"split_indices":[2,11,4,0,0,0,0],"split_type":[0,0,0,0,0,0,0],"sum_hessian":[6.600164E0,3.189808E0,3.410356E0,1.7341863E0,1.4556215E0,1.1419853E0,2.2683709E0],"tree_param":{"num_deleted":"0","num_feature":"14","num_nodes":"7","size_leaf_vector":"1"}},{"base_weights":[-7.555494E-2,-9.010423E-2,1.3167924E-1,-3.566016E-2,2.4825925E-1,1.1561518E-1,-1.9409418E-2],"categories":[],"categories_nodes":[],"categories_segments":[],"categories_sizes":[],"default_left":[0,0,0,0,0,0,0],"id":38,"left_children":[1,-1,3,-1,5,-1,-1],"loss_changes":[5.050922E-1,0E0,2.4382694E-1,0E0,3.1005275E-1,0E0,0E0],"parents":[2147483647,0,0,2,2,4,4],"right_children":[2,-1,4,-1,6,-1,-1],"split_conditions":[1.3971937E-2,-9.010423E-2,2.8031576E-1,-3.566016E-2,5.721107E0,1.1561518E-1,-1.9409418E-2],"split_indices":[2,0,11,0,11,0,0],"split_type":[0,0,0,0,0,0,0],"sum_hessian":[6.0971584E0,2.2622213E0,3.8349369E0,1.1274123E0,2.7075245E0,1.373181E0,1.3343434E0],"tree_param":{"num_deleted":"0","num_feature":"14","num_nodes":"7","size_leaf_vector":"1"}},{"base_weights":[-1.1531215E-1,-2.41932E-1,5.865588E-2,3.6600254E-2,-3.775518E-1,-3.641764E-2,5.2068908E-2,-1.4259642E-1,4.560192E-3],"categories":[],"categories_nodes":[],"categories_segments":[],"categories_sizes":[],"default_left":[0,0,0,0,0,0,0,0,0],"id":39,"left_children":[1,3,-1,5,7,-1,-1,-1,-1],"loss_changes":[4.7118202E-1,3.0708233E-1,0E0,1.5730584E-1,2.8547788E-1,0E0,0E0,0E0,0E0],"parents":[2147483647,0,0,1,1,3,3,4,4],"right_children":[2,4,-1,6,8,-1,-1,-1,-1],"split_conditions":[1.4E1,9.1E1,5.865588E-2,2.8E1,1.22E3,-3.641764E-2,5.2068908E-2,-1.4259642E-1,4.560192E-3],"split_indices":[8,1,0,1,1,0,0,0,0],"split_type":[0,0,0,0,0,0,0,0,0],"sum_hessian":[6.8334646E0,5.299934E0,1.5335307E0,2.2275712E0,3.072363E0,1.1770178E0,1.0505536E0,1.8453882E0,1.2269746E0],"tree_param":{"num_deleted":"0","num_feature":"14","num_nodes":"9","size_leaf_vector":"1"}},{"base_weights":[7.833113E-2,1.8819676E-1,-6.6490725E-2,-1.3310134E-1,4.1567898E-1,2.6290486E-2,-8.589523E-2,-2.1854155E-2,1.6137263E-1],"categories":[],"categories_nodes":[],"categories_segments":[],"categories_sizes":[],"default_left":[0,0,0,0,0,0,0,0,0],"id":40,"left_children":[1,3,-1,5,7,-1,-1,-1,-1],"loss_changes":[4.100108E-1,6.9499815E-1,0E0,2.5178418E-1,5.0419855E-1,0E0,0E0,0E0,0E0],"parents":[2147483647,0,0,1,1,3,3,4,4],"right_children":[2,4,-1,6,8,-1,-1,-1,-1],"split_conditions":[1.2373737E-1,1.3971937E-2,-6.6490725E-2,9.728366E-1,8.973972E-1,2.6290486E-2,-8.589523E-2,-2.1854155E-2,1.6137263E-1],"split_indices":[2,2,0,11,3,0,0,0,0],"split_type":[0,0,0,0,0,0,0,0,0],"sum_hessian":[7.0788875E0,5.8754144E0,1.2034732E0,2.7893589E0,3.0860553E0,1.6204373E0,1.1689215E0,1.0213432E0,2.0647123E0],"tree_param":{"num_deleted":"0","num_feature":"14","num_nodes":"9","size_leaf_vector":"1"}},{"base_weights":[-7.052367E-2,-2.0419861E-1,7.372734E-2,7.648746E-2,-1.0026356E-1,6.898193E-2,-3.9397113E-2],"categories":[],"categories_nodes":[],"categories_segments":[],"categories_sizes":[],"default_left":[0,0,0,0,0,0,0],"id":41,"left_children":[1,3,-1,5,-1,-1,-1],"loss_changes":[4.7170007E-1,3.5713857E-1,0E0,2.2578442E-1,0E0,0E0,0E0],"parents":[2147483647,0,0,1,1,3,3],"right_children":[2,4,-1,6,-1,-1,-1],"split_conditions":[3.43E2,4.7793692E2,7.372734E-2,3.8432E4,-1.0026356E-1,6.898193E-2,-3.9397113E-2],"split_indices":[10,13,0,9,0,0,0],"split_type":[0,0,0,0,0,0,0],"sum_hessian":[6.0043507E0,4.86451E0,1.1398405E0,2.0937338E0,2.7707763E0,1.020176E0,1.0735577E0],"tree_param":{"num_deleted":"0","num_feature":"14","num_nodes":"7","size_leaf_vector":"1"}},{"base_weights":[2.7768537E-3,-9.349727E-2,1.4739487E-1,9.8604895E-2,-6.171746E-2,-7.643681E-2,5.7457495E-2],"categories":[],"categories_nodes":[],"categories_segments":[],"categories_sizes":[],"default_left":[0,0,0,0,0,0,0],"id":42,"left_children":[1,-1,3,-1,5,-1,-1],"loss_changes":[5.184485E-1,0E0,3.6352932E-1,0E0,4.2314267E-1,0E0,0E0],"parents":[2147483647,0,0,2,2,4,4],"right_children":[2,-1,4,-1,6,-1,-1],"split_conditions":[5.202E3,-9.349727E-2,3.376E4,9.8604895E-2,1.18676E5,-7.643681E-2,5.7457495E-2],"split_indices":[9,0,9,0,9,0,0],"split_type":[0,0,0,0,0,0,0],"sum_hessian":[6.4824796E0,1.1306117E0,5.351868E0,1.9875001E0,3.364368E0,1.852564E0,1.511804E0],"tree_param":{"num_deleted":"0","num_feature":"14","num_nodes":"7","size_leaf_vector":"1"}},{"base_weights":[-2.5762264E-2,-1.5052043E-1,6.93329E-2,3.5827555E-2,-3.107336E-1,-1.12741664E-1,-3.1781374E-3],"categories":[],"categories_nodes":[],"categories_segments":[],"categories_sizes":[],"default_left":[0,0,0,0,0,0,0],"id":43,"left_children":[1,3,-1,-1,5,-1,-1],"loss_changes":[3.6965454E-1,4.0268034E-1,0E0,0E0,1.3297558E-1,0E0,0E0],"parents":[2147483647,0,0,1,1,4,4],"right_children":[2,4,-1,-1,6,-1,-1],"split_conditions":[3.43E2,1.5E2,6.93329E-2,3.5827555E-2,5E0,-1.12741664E-1,-3.1781374E-3],"split_indices":[10,0,0,0,8,0,0],"split_type":[0,0,0,0,0,0,0],"sum_hessian":[6.5037637E0,5.108164E0,1.3956002E0,2.0141065E0,3.094057E0,1.8147119E0,1.2793453E0],"tree_param":{"num_deleted":"0","num_feature":"14","num_nodes":"7","size_leaf_vector":"1"}},{"base_weights":[3.3655476E-2,-2.9923257E-1,9.831224E-2,4.997775E-4,-1.0817128E-1],"categories":[],"categories_nodes":[],"categories_segments":[],"categories_sizes":[],"default_left":[0,0,0,0,0],"id":44,"left_children":[1,3,-1,-1,-1],"loss_changes":[1.0076073E0,1.2730137E-1,0E0,0E0,0E0],"parents":[2147483647,0,0,1,1],"right_children":[2,4,-1,-1,-1],"split_conditions":[2.9E1,8.115185E-3,9.831224E-2,4.997775E-4,-1.0817128E-1],"split_indices":[10,2,0,0,0],"split_type":[0,0,0,0,0],"sum_hessian":[5.400754E0,2.6962337E0,2.70452E0,1.0617528E0,1.6344811E0],"tree_param":{"num_deleted":"0","num_feature":"14","num_nodes":"5","size_leaf_vector":"1"}},{"base_weights":[3.564297E-2,-1.6526933E-1,7.494999E-2,6.571234E-2,-1.0291063E-1],"categories":[],"categories_nodes":[],"categories_segments":[],"categories_sizes":[],"default_left":[0,0,0,0,0],"id":45,"left_children":[1,3,-1,-1,-1],"loss_changes":[4.5574653E-1,6.2177134E-1,0E0,0E0,0E0],"parents":[2147483647,0,0,1,1],"right_children":[2,4,-1,-1,-1],"split_conditions":[4.710632E-2,1.0054762E-1,7.494999E-2,6.571234E-2,-1.0291063E-1],"split_indices":[2,11,0,0,0],"split_type":[0,0,0,0,0],"sum_hessian":[5.7333965E0,3.3929796E0,2.340417E0,1.0289137E0,2.364066E0],"tree_param":{"num_deleted":"0","num_feature":"14","num_nodes":"5","size_leaf_vector":"1"}},{"base_weights":[-8.208985E-2,-1.9635026E-1,6.3632205E-2,5.8811672E-2,-3.3839327E-1,-3.1698134E-2,5.526633E-2,1.6871028E-2,-1.4661713E-1],"categories":[],"categories_nodes":[],"categories_segments":[],"categories_sizes":[],"default_left":[0,0,0,0,0,0,0,0,0],"id":46,"left_children":[1,3,-1,5,7,-1,-1,-1,-1],"loss_changes":[3.7953937E-1,2.9656908E-1,0E0,1.4855793E-1,4.2386872E-1,0E0,0E0,0E0,0E0],"parents":[2147483647,0,0,1,1,3,3,4,4],"right_children":[2,4,-1,6,8,-1,-1,-1,-1],"split_conditions":[1.4E1,3.376E4,6.3632205E-2,4.7773395E-2,3.201864E-2,-3.1698134E-2,5.526633E-2,1.6871028E-2,-1.4661713E-1],"split_indices":[8,9,0,2,2,0,0,0,0],"split_type":[0,0,0,0,0,0,0,0,0],"sum_hessian":[6.0529795E0,4.975528E0,1.0774518E0,2.2101805E0,2.7653472E0,1.1531789E0,1.0570016E0,1.3217497E0,1.4435976E0],"tree_param":{"num_deleted":"0","num_feature":"14","num_nodes":"9","size_leaf_vector":"1"}},{"base_weights":[3.5657883E-2,-8.345114E-2,1.7792419E-1,-2.16804E-2,2.903934E-1,1.0663956E-1,-1.733713E-3],"categories":[],"categories_nodes":[],"categories_segments":[],"categories_sizes":[],"default_left":[0,0,0,0,0,0,0],"id":47,"left_children":[1,-1,3,-1,5,-1,-1],"loss_changes":[4.8094347E-1,0E0,2.4136125E-1,0E0,1.4389178E-1,0E0,0E0],"parents":[2147483647,0,0,2,2,4,4],"right_children":[2,-1,4,-1,6,-1,-1],"split_conditions":[2.706E3,-8.345114E-2,1.3971937E-2,-2.16804E-2,8.021826E-4,1.0663956E-1,-1.733713E-3],"split_indices":[9,0,2,0,12,0,0],"split_type":[0,0,0,0,0,0,0],"sum_hessian":[5.746829E0,1.0373278E0,4.7095013E0,1.6336418E0,3.0758593E0,1.904314E0,1.1715454E0],"tree_param":{"num_deleted":"0","num_feature":"14","num_nodes":"7","size_leaf_vector":"1"}},{"base_weights":[-2.7513463E-2,-1.9835888E-1,1.8020314E-1,1.8617807E-2,-1.12203665E-1,-2.846802E-2,8.8827945E-2],"categories":[],"categories_nodes":[],"categories_segments":[],"categories_sizes":[],"default_left":[0,0,0,0,0,0,0],"id":48,"left_children":[1,3,5,-1,-1,-1,-1],"loss_changes":[3.6450407E-1,3.4998196E-1,2.521239E-1,0E0,0E0,0E0,0E0],"parents":[2147483647,0,0,1,1,2,2],"right_children":[2,4,6,-1,-1,-1,-1],"split_conditions":[5.487976E-4,4.364487E-5,8.754419E-1,1.8617807E-2,-1.12203665E-1,-2.846802E-2,8.8827945E-2],"split_indices":[12,12,3,0,0,0,0],"split_type":[0,0,0,0,0,0,0],"sum_hessian":[6.123546E0,3.4132168E0,2.7103295E0,2.0804696E0,1.3327471E0,1.0617304E0,1.6485991E0],"tree_param":{"num_deleted":"0","num_feature":"14","num_nodes":"7","size_leaf_vector":"1"}},{"base_weights":[-5.3947255E-2,4.808074E-2,-1.5665601E-1,5.008073E-2,-1.2357678E-1,-1.0988925E-1,5.9771564E-2,2.955256E-2,-7.5904995E-2],"categories":[],"categories_nodes":[],"categories_segments":[],"categories_sizes":[],"default_left":[0,0,0,0,0,0,0,0,0],"id":49,"left_children":[1,-1,3,5,-1,7,-1,-1,-1],"loss_changes":[2.567781E-1,0E0,4.614088E-1,2.0407446E-1,0E0,2.1140605E-1,0E0,0E0,0E0],"parents":[2147483647,0,0,2,2,3,3,5,5],"right_children":[2,-1,4,6,-1,8,-1,-1,-1],"split_conditions":[9.352575E-1,4.808074E-2,5E0,3.8905758E-1,-1.2357678E-1,2.3817848E-2,5.9771564E-2,2.955256E-2,-7.5904995E-2],"split_indices":[4,0,11,11,0,2,0,0,0],"split_type":[0,0,0,0,0,0,0,0,0],"sum_hessian":[6.6035295E0,1.6263044E0,4.9772253E0,3.8717334E0,1.1054918E0,2.29871E0,1.5730232E0,1.2886205E0,1.0100898E0],"tree_param":{"num_deleted":"0","num_feature":"14","num_nodes":"9","size_leaf_vector":"1"}},{"base_weights":[-2.4693261E-1,3.1965043E-2,-3.6219382E-1,-1.2763661E-1,8.502856E-3],"categories":[],"categories_nodes":[],"categories_segments":[],"categories_sizes":[],"default_left":[0,0,0,0,0],"id":50,"left_children":[1,-1,3,-1,-1],"loss_changes":[4.0873665E-1,0E0,2.6498395E-1,0E0,0E0],"parents":[2147483647,0,0,2,2],"right_children":[2,-1,4,-1,-1],"split_conditions":[7.770207E-3,3.1965043E-2,1.5E1,-1.2763661E-1,8.502856E-3],"split_indices":[2,0,8,0,0],"split_type":[0,0,0,0,0],"sum_hessian":[5.691169E0,1.3790748E0,4.312094E0,3.2082555E0,1.1038387E0],"tree_param":{"num_deleted":"0","num_feature":"14","num_nodes":"5","size_leaf_vector":"1"}},{"base_weights":[-1.2205845E-1,6.274972E-2,-9.879747E-2,-1.0993184E-1,7.370491E-2,3.7959937E-2,-7.7738225E-2],"categories":[],"categories_nodes":[],"categories_segments":[],"categories_sizes":[],"default_left":[0,0,0,0,0,0,0],"id":51,"left_children":[1,3,-1,5,-1,-1,-1],"loss_changes":[3.87399E-1,2.7472103E-1,0E0,2.756525E-1,0E0,0E0,0E0],"parents":[2147483647,0,0,1,1,3,3],"right_children":[2,4,-1,6,-1,-1,-1],"split_conditions":[5.721107E0,2.6E1,-9.879747E-2,9.081542E-3,7.370491E-2,3.7959937E-2,-7.7738225E-2],"split_indices":[11,10,0,2,0,0,0],"split_type":[0,0,0,0,0,0,0],"sum_hessian":[5.921617E0,4.126016E0,1.7956007E0,2.7189944E0,1.407022E0,1.2638497E0,1.4551445E0],"tree_param":{"num_deleted":"0","num_feature":"14","num_nodes":"7","size_leaf_vector":"1"}},{"base_weights":[-5.210793E-2,-1.662354E-1,5.297782E-2,3.5651594E-2,-2.8122917E-1,5.374448E-3,-1.0344382E-1],"categories":[],"categories_nodes":[],"categories_segments":[],"categories_sizes":[],"default_left":[0,0,0,0,0,0,0],"id":52,"left_children":[1,3,-1,-1,5,-1,-1],"loss_changes":[2.6908618E-1,2.812274E-1,0E0,0E0,1.495609E-1,0E0,0E0],"parents":[2147483647,0,0,1,1,4,4],"right_children":[2,4,-1,-1,6,-1,-1],"split_conditions":[3.43E2,6.7327083E-3,5.297782E-2,3.5651594E-2,2.0896181E-5,5.374448E-3,-1.0344382E-1],"split_indices":[10,11,0,0,12,0,0],"split_type":[0,0,0,0,0,0,0],"sum_hessian":[5.334949E0,4.062961E0,1.2719878E0,1.0779597E0,2.9850016E0,1.0470079E0,1.9379938E0],"tree_param":{"num_deleted":"0","num_feature":"14","num_nodes":"7","size_leaf_vector":"1"}},{"base_weights":[8.708304E-2,-3.8020022E-2,1.7435952E-1,8.9924216E-2,-5.4207377E-2],"categories":[],"categories_nodes":[],"categories_segments":[],"categories_sizes":[],"default_left":[0,0,0,0,0],"id":53,"left_children":[1,-1,3,-1,-1],"loss_changes":[1.9342849E-1,0E0,4.6712476E-1,0E0,0E0],"parents":[2147483647,0,0,2,2],"right_children":[2,-1,4,-1,-1],"split_conditions":[8.299672E-1,-3.8020022E-2,5.567E3,8.9924216E-2,-5.4207377E-2],"split_indices":[3,0,0,0,0],"split_type":[0,0,0,0,0],"sum_hessian":[5.352625E0,1.1786488E0,4.1739764E0,3.1703968E0,1.0035794E0],"tree_param":{"num_deleted":"0","num_feature":"14","num_nodes":"5","size_leaf_vector":"1"}},{"base_weights":[-1.1338466E-2,1.502091E-1,-6.637451E-2,-1.8906536E-2,6.65599E-2],"categories":[],"categories_nodes":[],"categories_segments":[],"categories_sizes":[],"default_left":[0,0,0,0,0],"id":54,"left_children":[1,3,-1,-1,-1],"loss_changes":[3.611671E-1,1.4535326E-1,0E0,0E0,0E0],"parents":[2147483647,0,0,1,1],"right_children":[2,4,-1,-1,-1],"split_conditions":[6.05E0,1.9776542E-5,-6.637451E-2,-1.8906536E-2,6.65599E-2],"split_indices":[11,12,0,0,0],"split_type":[0,0,0,0,0],"sum_hessian":[5.8060193E0,3.7879214E0,2.0180979E0,1.2221473E0,2.5657742E0],"tree_param":{"num_deleted":"0","num_feature":"14","num_nodes":"5","size_leaf_vector":"1"}},{"base_weights":[3.245754E-2,-5.906645E-2,1.490142E-1,1.03357375E-1,-7.218248E-2,3.2702893E-2,-6.2926926E-2],"categories":[],"categories_nodes":[],"categories_segments":[],"categories_sizes":[],"default_left":[0,0,0,0,0,0,0],"id":55,"left_children":[1,-1,3,-1,5,-1,-1],"loss_changes":[2.6804805E-1,0E0,3.505702E-1,0E0,1.9169796E-1,0E0,0E0],"parents":[2147483647,0,0,2,2,4,4],"right_children":[2,-1,4,-1,6,-1,-1],"split_conditions":[5.202E3,-5.906645E-2,3.376E4,1.03357375E-1,4.5479715E-2,3.2702893E-2,-6.2926926E-2],"split_indices":[9,0,9,0,2,0,0],"split_type":[0,0,0,0,0,0,0],"sum_hessian":[5.0834665E0,1.0995739E0,3.983893E0,1.3024608E0,2.681432E0,1.412963E0,1.2684691E0],"tree_param":{"num_deleted":"0","num_feature":"14","num_nodes":"7","size_leaf_vector":"1"}},{"base_weights":[3.669287E-2,5.6575414E-2,-7.5426534E-2,1.0370724E-1,-8.362395E-2,6.920776E-2,-3.0869842E-2],"categories":[],"categories_nodes":[],"categories_segments":[],"categories_sizes":[],"default_left":[0,0,0,0,0,0,0],"id":56,"left_children":[1,-1,3,5,-1,-1,-1],"loss_changes":[1.7832875E-1,0E0,3.1310484E-1,2.0990627E-1,0E0,0E0,0E0],"parents":[2147483647,0,0,2,2,3,3],"right_children":[2,-1,4,6,-1,-1,-1],"split_conditions":[9.352575E-1,5.6575414E-2,2.4008967E5,6.6295E4,-8.362395E-2,6.920776E-2,-3.0869842E-2],"split_indices":[4,0,13,9,0,0,0],"split_type":[0,0,0,0,0,0,0],"sum_hessian":[5.8338075E0,1.6870062E0,4.146801E0,2.915476E0,1.2313251E0,1.5536922E0,1.3617837E0],"tree_param":{"num_deleted":"0","num_feature":"14","num_nodes":"7","size_leaf_vector":"1"}},{"base_weights":[3.907439E-2,7.155711E-2,-1.1994809E-1,1.4210828E-2,-7.851442E-2],"categories":[],"categories_nodes":[],"categories_segments":[],"categories_sizes":[],"default_left":[0,0,0,0,0],"id":57,"left_children":[1,-1,3,-1,-1],"loss_changes":[3.253166E-1,0E0,1.8852931E-1,0E0,0E0],"parents":[2147483647,0,0,2,2],"right_children":[2,-1,4,-1,-1],"split_conditions":[9.94018E-1,7.155711E-2,5.032109E-1,1.4210828E-2,-7.851442E-2],"split_indices":[4,0,11,0,0],"split_type":[0,0,0,0,0],"sum_hessian":[5.526735E0,1.8081264E0,3.7186084E0,2.4864924E0,1.2321159E0],"tree_param":{"num_deleted":"0","num_feature":"14","num_nodes":"5","size_leaf_vector":"1"}},{"base_weights":[-7.805295E-2,1.0873768E-1,-5.795842E-2,-3.2294534E-2,7.248928E-2],"categories":[],"categories_nodes":[],"categories_segments":[],"categories_sizes":[],"default_left":[0,0,0,0,0],"id":58,"left_children":[1,3,-1,-1,-1],"loss_changes":[2.319105E-1,2.13514E-1,0E0,0E0,0E0],"parents":[2147483647,0,0,1,1],"right_children":[2,4,-1,-1,-1],"split_conditions":[3.376E4,5.451E3,-5.795842E-2,-3.2294534E-2,7.248928E-2],"split_indices":[9,9,0,0,0],"split_type":[0,0,0,0,0],"sum_hessian":[5.610278E0,2.4251692E0,3.1851091E0,1.1647522E0,1.260417E0],"tree_param":{"num_deleted":"0","num_feature":"14","num_nodes":"5","size_leaf_vector":"1"}},{"base_weights":[-9.471942E-2,-1.7220283E-1,3.8545966E-2,3.6269993E-2,-9.317236E-2,-3.178731E-2,5.310514E-2],"categories":[],"categories_nodes":[],"categories_segments":[],"categories_sizes":[],"default_left":[0,0,0,0,0,0,0],"id":59,"left_children":[1,3,-1,5,-1,-1,-1],"loss_changes":[1.879897E-1,2.501911E-1,0E0,1.5482391E-1,0E0,0E0,0E0],"parents":[2147483647,0,0,1,1,3,3],"right_children":[2,4,-1,6,-1,-1,-1],"split_conditions":[6.47E2,9.728366E-1,3.8545966E-2,2.00096E-1,-9.317236E-2,-3.178731E-2,5.310514E-2],"split_indices":[10,11,0,11,0,0,0],"split_type":[0,0,0,0,0,0,0],"sum_hessian":[5.6431446E0,4.637709E0,1.0054351E0,2.7159836E0,1.9217256E0,1.6438059E0,1.0721778E0],"tree_param":{"num_deleted":"0","num_feature":"14","num_nodes":"7","size_leaf_vector":"1"}},{"base_weights":[9.387249E-2,-1.221863E-1,8.910145E-2,-8.384554E-2,5.4102823E-2],"categories":[],"categories_nodes":[],"categories_segments":[],"categories_sizes":[],"default_left":[0,0,0,0,0],"id":60,"left_children":[1,3,-1,-1,-1],"loss_changes":[4.2845058E-1,4.0838233E-1,0E0,0E0,0E0],"parents":[2147483647,0,0,1,1],"right_children":[2,4,-1,-1,-1],"split_conditions":[4.0235512E-2,1.15747E5,8.910145E-2,-8.384554E-2,5.4102823E-2],"split_indices":[2,9,0,0,0],"split_type":[0,0,0,0,0],"sum_hessian":[5.0972013E0,3.077748E0,2.0194533E0,2.0373688E0,1.0403794E0],"tree_param":{"num_deleted":"0","num_feature":"14","num_nodes":"5","size_leaf_vector":"1"}},{"base_weights":[1.179002E-1],"categories":[],"categories_nodes":[],"categories_segments":[],"categories_sizes":[],"default_left":[0],"id":61,"left_children":[-1],"loss_changes":[0E0],"parents":[2147483647],"right_children":[-1],"split_conditions":[3.2970242E-2],"split_indices":[0],"split_type":[0],"sum_hessian":[5.0533423E0],"tree_param":{"num_deleted":"0","num_feature":"14","num_nodes":"1","size_leaf_vector":"1"}},{"base_weights":[4.15508E-2],"categories":[],"categories_nodes":[],"categories_segments":[],"categories_sizes":[],"default_left":[0],"id":62,"left_children":[-1],"loss_changes":[0E0],"parents":[2147483647],"right_children":[-1],"split_conditions":[1.1619488E-2],"split_indices":[0],"split_type":[0],"sum_hessian":[4.8684597E0],"tree_param":{"num_deleted":"0","num_feature":"14","num_nodes":"1","size_leaf_vector":"1"}},{"base_weights":[-9.6595496E-2,4.836101E-2,-2.1827655E-1,2.00001E-2,-1.008702E-1],"categories":[],"categories_nodes":[],"categories_segments":[],"categories_sizes":[],"default_left":[0,0,0,0,0],"id":63,"left_children":[1,-1,3,-1,-1],"loss_changes":[3.0827454E-1,0E0,2.9096487E-1,0E0,0E0],"parents":[2147483647,0,0,2,2],"right_children":[2,-1,4,-1,-1],"split_conditions":[1.0054762E-1,4.836101E-2,9.352575E-1,2.00001E-2,-1.008702E-1],"split_indices":[11,0,4,0,0],"split_type":[0,0,0,0,0],"sum_hessian":[4.9540267E0,1.2680779E0,3.6859488E0,1.5517166E0,2.1342323E0],"tree_param":{"num_deleted":"0","num_feature":"14","num_nodes":"5","size_leaf_vector":"1"}},{"base_weights":[-6.6225E-2,4.8517354E-2,-6.488842E-2],"categories":[],"categories_nodes":[],"categories_segments":[],"categories_sizes":[],"default_left":[0,0,0],"id":64,"left_children":[1,-1,-1],"loss_changes":[3.4277657E-1,0E0,0E0],"parents":[2147483647,0,0],"right_children":[2,-1,-1],"split_conditions":[1.724468E-4,4.8517354E-2,-6.488842E-2],"split_indices":[12,0,0],"split_type":[0,0,0],"sum_hessian":[4.46349E0,1.7838557E0,2.6796343E0],"tree_param":{"num_deleted":"0","num_feature":"14","num_nodes":"3","size_leaf_vector":"1"}},{"base_weights":[8.1034444E-2,8.845101E-2,-1.7790633E-1,-8.580591E-2,2.1600423E-2],"categories":[],"categories_nodes":[],"categories_segments":[],"categories_sizes":[],"default_left":[0,0,0,0,0],"id":65,"left_children":[1,-1,3,-1,-1],"loss_changes":[5.31035E-1,0E0,1.9920082E-1,0E0,0E0],"parents":[2147483647,0,0,2,2],"right_children":[2,-1,4,-1,-1],"split_conditions":[9.728366E-1,8.845101E-2,3.43E2,-8.580591E-2,2.1600423E-2],"split_indices":[11,0,10,0,0],"split_type":[0,0,0,0,0],"sum_hessian":[4.7404356E0,2.245633E0,2.494803E0,1.3813795E0,1.1134235E0],"tree_param":{"num_deleted":"0","num_feature":"14","num_nodes":"5","size_leaf_vector":"1"}},{"base_weights":[-1.2473251E-2,-5.4590546E-2,9.706427E-2,6.3357405E-2,-1.6585818E-2],"categories":[],"categories_nodes":[],"categories_segments":[],"categories_sizes":[],"default_left":[0,0,0,0,0],"id":66,"left_children":[1,-1,3,-1,-1],"loss_changes":[1.8296489E-1,0E0,1.4670512E-1,0E0,0E0],"parents":[2147483647,0,0,2,2],"right_children":[2,-1,4,-1,-1],"split_conditions":[8.754419E-1,-5.4590546E-2,1.9E1,6.3357405E-2,-1.6585818E-2],"split_indices":[3,0,10,0,0],"split_type":[0,0,0,0,0],"sum_hessian":[5.1144147E0,1.3138651E0,3.8005497E0,1.5744768E0,2.226073E0],"tree_param":{"num_deleted":"0","num_feature":"14","num_nodes":"5","size_leaf_vector":"1"}},{"base_weights":[-2.4771255E-2,5.4366473E-2,-1.3944535E-1,1.1185808E-2,-6.6329956E-2],"categories":[],"categories_nodes":[],"categories_segments":[],"categories_sizes":[],"default_left":[0,0,0,0,0],"id":67,"left_children":[1,-1,3,-1,-1],"loss_changes":[2.4434052E-1,0E0,1.2721512E-1,0E0,0E0],"parents":[2147483647,0,0,2,2],"right_children":[2,-1,4,-1,-1],"split_conditions":[9.3855435E-1,5.4366473E-2,4.7793692E2,1.1185808E-2,-6.6329956E-2],"split_indices":[4,0,13,0,0],"split_type":[0,0,0,0,0],"sum_hessian":[5.428266E0,1.3685759E0,4.05969E0,1.8590912E0,2.200599E0],"tree_param":{"num_deleted":"0","num_feature":"14","num_nodes":"5","size_leaf_vector":"1"}},{"base_weights":[-2.2916978E-3,4.9444802E-2,-1.7011167E-1,2.5274357E-2,-8.4547155E-2],"categories":[],"categories_nodes":[],"categories_segments":[],"categories_sizes":[],"default_left":[0,0,0,0,0],"id":68,"left_children":[1,-1,3,-1,-1],"loss_changes":[2.642677E-1,0E0,2.1256329E-1,0E0,0E0],"parents":[2147483647,0,0,2,2],"right_children":[2,-1,4,-1,-1],"split_conditions":[3.201864E-2,4.9444802E-2,9.94018E-1,2.5274357E-2,-8.4547155E-2],"split_indices":[2,0,4,0,0],"split_type":[0,0,0,0,0],"sum_hessian":[4.6585035E0,2.1975765E0,2.460927E0,1.0466591E0,1.414268E0],"tree_param":{"num_deleted":"0","num_feature":"14","num_nodes":"5","size_leaf_vector":"1"}},{"base_weights":[5.6960482E-2,-1.3877378E-1,6.750043E-2,1.7433638E-2,-7.025033E-2],"categories":[],"categories_nodes":[],"categories_segments":[],"categories_sizes":[],"default_left":[0,0,0,0,0],"id":69,"left_children":[1,3,-1,-1,-1],"loss_changes":[3.2053202E-1,1.3848348E-1,0E0,0E0,0E0],"parents":[2147483647,0,0,1,1],"right_children":[2,4,-1,-1,-1],"split_conditions":[3.2E1,1.21230674E-4,6.750043E-2,1.7433638E-2,-7.025033E-2],"split_indices":[10,12,0,0,0],"split_type":[0,0,0,0,0],"sum_hessian":[4.8938446E0,2.620021E0,2.2738233E0,1.2670331E0,1.3529881E0],"tree_param":{"num_deleted":"0","num_feature":"14","num_nodes":"5","size_leaf_vector":"1"}},{"base_weights":[-1.0199781E-1,-7.097634E-2,2.1574402E-2,6.1882947E-2,-3.5520338E-2],"categories":[],"categories_nodes":[],"categories_segments":[],"categories_sizes":[],"default_left":[0,0,0,0,0],"id":70,"left_children":[1,-1,3,-1,-1],"loss_changes":[1.4427671E-1,0E0,2.3036872E-1,0E0,0E0],"parents":[2147483647,0,0,2,2],"right_children":[2,-1,4,-1,-1],"split_conditions":[1.2200804E-2,-7.097634E-2,4E0,6.1882947E-2,-3.5520338E-2],"split_indices":[2,0,8,0,0],"split_type":[0,0,0,0,0],"sum_hessian":[5.011407E0,1.2745652E0,3.7368414E0,1.1652861E0,2.5715554E0],"tree_param":{"num_deleted":"0","num_feature":"14","num_nodes":"5","size_leaf_vector":"1"}},{"base_weights":[3.882013E-2,-3.796266E-2,4.530694E-2],"categories":[],"categories_nodes":[],"categories_segments":[],"categories_sizes":[],"default_left":[0,0,0],"id":71,"left_children":[1,-1,-1],"loss_changes":[1.9854945E-1,0E0,0E0],"parents":[2147483647,0,0],"right_children":[2,-1,-1],"split_conditions":[3.0009E4,-3.796266E-2,4.530694E-2],"split_indices":[9,0,0],"split_type":[0,0,0],"sum_hessian":[5.0517797E0,2.000191E0,3.051589E0],"tree_param":{"num_deleted":"0","num_feature":"14","num_nodes":"3","size_leaf_vector":"1"}},{"base_weights":[1.0440505E-1,-2.2215333E-2,6.3740484E-2],"categories":[],"categories_nodes":[],"categories_segments":[],"categories_sizes":[],"default_left":[0,0,0],"id":72,"left_children":[1,-1,-1],"loss_changes":[1.7491785E-1,0E0,0E0],"parents":[2147483647,0,0],"right_children":[2,-1,-1],"split_conditions":[3.8905758E-1,-2.2215333E-2,6.3740484E-2],"split_indices":[11,0,0],"split_type":[0,0,0],"sum_hessian":[3.9832075E0,1.8944795E0,2.088728E0],"tree_param":{"num_deleted":"0","num_feature":"14","num_nodes":"3","size_leaf_vector":"1"}},{"base_weights":[-2.4874902E-3,-5.082401E-2,1.2021594E-1,-4.793375E-2,7.27413E-2,3.8690265E-2,-5.7576377E-2],"categories":[],"categories_nodes":[],"categories_segments":[],"categories_sizes":[],"default_left":[0,0,0,0,0,0,0],"id":73,"left_children":[1,-1,3,5,-1,-1,-1],"loss_changes":[2.0079128E-1,0E0,1.5391976E-1,1.8287751E-1,0E0,0E0,0E0],"parents":[2147483647,0,0,2,2,3,3],"right_children":[2,-1,4,6,-1,-1,-1],"split_conditions":[1.6605E4,-5.082401E-2,5.487976E-4,3.91E2,7.27413E-2,3.8690265E-2,-5.7576377E-2],"split_indices":[9,0,12,1,0,0,0],"split_type":[0,0,0,0,0,0,0],"sum_hessian":[5.00787E0,1.6336877E0,3.3741825E0,2.146617E0,1.2275655E0,1.1002558E0,1.0463612E0],"tree_param":{"num_deleted":"0","num_feature":"14","num_nodes":"7","size_leaf_vector":"1"}},{"base_weights":[-1.9058372E-1],"categories":[],"categories_nodes":[],"categories_segments":[],"categories_sizes":[],"default_left":[0],"id":74,"left_children":[-1],"loss_changes":[0E0],"parents":[2147483647],"right_children":[-1],"split_conditions":[-5.329585E-2],"split_indices":[0],"split_type":[0],"sum_hessian":[4.640208E0],"tree_param":{"num_deleted":"0","num_feature":"14","num_nodes":"1","size_leaf_vector":"1"}},{"base_weights":[5.5052016E-2],"categories":[],"categories_nodes":[],"categories_segments":[],"categories_sizes":[],"default_left":[0],"id":75,"left_children":[-1],"loss_changes":[0E0],"parents":[2147483647],"right_children":[-1],"split_conditions":[1.5395041E-2],"split_indices":[0],"split_type":[0],"sum_hessian":[5.0733E0],"tree_param":{"num_deleted":"0","num_feature":"14","num_nodes":"1","size_leaf_vector":"1"}},{"base_weights":[4.023265E-2,-4.5895167E-2,6.773796E-2],"categories":[],"categories_nodes":[],"categories_segments":[],"categories_sizes":[],"default_left":[0,0,0],"id":76,"left_children":[1,-1,-1],"loss_changes":[3.3177996E-1,0E0,0E0],"parents":[2147483647,0,0],"right_children":[2,-1,-1],"split_conditions":[5.69E2,-4.5895167E-2,6.773796E-2],"split_indices":[0,0,0],"split_type":[0,0,0],"sum_hessian":[3.9799964E0,2.1690414E0,1.8109553E0],"tree_param":{"num_deleted":"0","num_feature":"14","num_nodes":"3","size_leaf_vector":"1"}},{"base_weights":[2.4738242E-1,9.687421E-4,9.7444914E-2],"categories":[],"categories_nodes":[],"categories_segments":[],"categories_sizes":[],"default_left":[0,0,0],"id":77,"left_children":[1,-1,-1],"loss_changes":[1.545552E-1,0E0,0E0],"parents":[2147483647,0,0],"right_children":[2,-1,-1],"split_conditions":[1.06E2,9.687421E-4,9.7444914E-2],"split_indices":[1,0,0],"split_type":[0,0,0],"sum_hessian":[4.315496E0,1.8928243E0,2.4226718E0],"tree_param":{"num_deleted":"0","num_feature":"14","num_nodes":"3","size_leaf_vector":"1"}},{"base_weights":[7.773685E-2,6.460367E-2,-1.0171847E-1,2.992978E-2,-7.315217E-2],"categories":[],"categories_nodes":[],"categories_segments":[],"categories_sizes":[],"default_left":[0,0,0,0,0],"id":78,"left_children":[1,-1,3,-1,-1],"loss_changes":[2.2380745E-1,0E0,2.036559E-1,0E0,0E0],"parents":[2147483647,0,0,2,2],"right_children":[2,-1,4,-1,-1],"split_conditions":[9.728366E-1,6.460367E-2,9.94018E-1,2.992978E-2,-7.315217E-2],"split_indices":[11,0,4,0,0],"split_type":[0,0,0,0,0],"sum_hessian":[4.3010902E0,2.001955E0,2.2991352E0,1.291128E0,1.008007E0],"tree_param":{"num_deleted":"0","num_feature":"14","num_nodes":"5","size_leaf_vector":"1"}},{"base_weights":[-6.85632E-2],"categories":[],"categories_nodes":[],"categories_segments":[],"categories_sizes":[],"default_left":[0],"id":79,"left_children":[-1],"loss_changes":[0E0],"parents":[2147483647],"right_children":[-1],"split_conditions":[-1.917338E-2],"split_indices":[0],"split_type":[0],"sum_hessian":[5.3327336E0],"tree_param":{"num_deleted":"0","num_feature":"14","num_nodes":"1","size_leaf_vector":"1"}},{"base_weights":[-9.670211E-2,-7.832229E-2,2.6702126E-2],"categories":[],"categories_nodes":[],"categories_segments":[],"categories_sizes":[],"default_left":[0,0,0],"id":80,"left_children":[1,-1,-1],"loss_changes":[2.6584968E-1,0E0,0E0],"parents":[2147483647,0,0],"right_children":[2,-1,-1],"split_conditions":[1.29E2,-7.832229E-2,2.6702126E-2],"split_indices":[1,0,0],"split_type":[0,0,0],"sum_hessian":[3.9050527E0,1.5169845E0,2.388068E0],"tree_param":{"num_deleted":"0","num_feature":"14","num_nodes":"3","size_leaf_vector":"1"}},{"base_weights":[-9.7604066E-2,-7.43583E-2,1.242157E-1,6.81434E-2,-2.129514E-2],"categories":[],"categories_nodes":[],"categories_segments":[],"categories_sizes":[],"default_left":[0,0,0,0,0],"id":81,"left_children":[1,-1,3,-1,-1],"loss_changes":[3.0600855E-1,0E0,1.3787162E-1,0E0,0E0],"parents":[2147483647,0,0,2,2],"right_children":[2,-1,4,-1,-1],"split_conditions":[1.7017018E4,-7.43583E-2,1.724468E-4,6.81434E-2,-2.129514E-2],"split_indices":[13,0,12,0,0],"split_type":[0,0,0,0,0],"sum_hessian":[4.299618E0,2.2133677E0,2.08625E0,1.0297409E0,1.0565091E0],"tree_param":{"num_deleted":"0","num_feature":"14","num_nodes":"5","size_leaf_vector":"1"}},{"base_weights":[-2.9767958E-2,-4.7574643E-2,4.4072893E-2],"categories":[],"categories_nodes":[],"categories_segments":[],"categories_sizes":[],"default_left":[0,0,0],"id":82,"left_children":[1,-1,-1],"loss_changes":[2.1361126E-1,0E0,0E0],"parents":[2147483647,0,0],"right_children":[2,-1,-1],"split_conditions":[4.7420134E-4,-4.7574643E-2,4.4072893E-2],"split_indices":[12,0,0],"split_type":[0,0,0],"sum_hessian":[3.9493487E0,2.369171E0,1.5801779E0],"tree_param":{"num_deleted":"0","num_feature":"14","num_nodes":"3","size_leaf_vector":"1"}},{"base_weights":[-3.2467175E-2,-5.100524E-2,4.471237E-2],"categories":[],"categories_nodes":[],"categories_segments":[],"categories_sizes":[],"default_left":[0,0,0],"id":83,"left_children":[1,-1,-1],"loss_changes":[2.3494367E-1,0E0,0E0],"parents":[2147483647,0,0],"right_children":[2,-1,-1],"split_conditions":[5.69E2,-5.100524E-2,4.471237E-2],"split_indices":[0,0,0],"split_type":[0,0,0],"sum_hessian":[3.99047E0,2.305112E0,1.6853579E0],"tree_param":{"num_deleted":"0","num_feature":"14","num_nodes":"3","size_leaf_vector":"1"}},{"base_weights":[-1.1572856E-2,3.63561E-2,-5.4532535E-2],"categories":[],"categories_nodes":[],"categories_segments":[],"categories_sizes":[],"default_left":[0,0,0],"id":84,"left_children":[1,-1,-1],"loss_changes":[2.1850026E-1,0E0,0E0],"parents":[2147483647,0,0],"right_children":[2,-1,-1],"split_conditions":[5.721107E0,3.63561E-2,-5.4532535E-2],"split_indices":[11,0,0],"split_type":[0,0,0],"sum_hessian":[4.32811E0,2.7798483E0,1.5482616E0],"tree_param":{"num_deleted":"0","num_feature":"14","num_nodes":"3","size_leaf_vector":"1"}},{"base_weights":[9.007489E-2,-5.7187963E-2,6.7919925E-2],"categories":[],"categories_nodes":[],"categories_segments":[],"categories_sizes":[],"default_left":[0,0,0],"id":85,"left_children":[1,-1,-1],"loss_changes":[3.7168592E-1,0E0,0E0],"parents":[2147483647,0,0],"right_children":[2,-1,-1],"split_conditions":[1E0,-5.7187963E-2,6.7919925E-2],"split_indices":[3,0,0],"split_type":[0,0,0],"sum_hessian":[3.9105463E0,1.0950665E0,2.8154795E0],"tree_param":{"num_deleted":"0","num_feature":"14","num_nodes":"3","size_leaf_vector":"1"}},{"base_weights":[-2.7626036E-2,4.048324E-2,-1.3043727E-1,2.2642275E-2,-6.2657714E-2],"categories":[],"categories_nodes":[],"categories_segments":[],"categories_sizes":[],"default_left":[0,0,0,0,0],"id":86,"left_children":[1,-1,3,-1,-1],"loss_changes":[1.5637095E-1,0E0,1.4127454E-1,0E0,0E0],"parents":[2147483647,0,0,2,2],"right_children":[2,-1,4,-1,-1],"split_conditions":[1E3,4.048324E-2,9.3855435E-1,2.2642275E-2,-6.2657714E-2],"split_indices":[13,0,4,0,0],"split_type":[0,0,0,0,0],"sum_hessian":[4.5557547E0,1.3839859E0,3.171769E0,1.0565785E0,2.1151905E0],"tree_param":{"num_deleted":"0","num_feature":"14","num_nodes":"5","size_leaf_vector":"1"}},{"base_weights":[-7.000611E-2,-6.4603075E-2,7.245695E-2,6.273494E-2,-4.698058E-2],"categories":[],"categories_nodes":[],"categories_segments":[],"categories_sizes":[],"default_left":[0,0,0,0,0],"id":87,"left_children":[1,-1,3,-1,-1],"loss_changes":[1.7845842E-1,0E0,2.566867E-1,0E0,0E0],"parents":[2147483647,0,0,2,2],"right_children":[2,-1,4,-1,-1],"split_conditions":[1.3971937E-2,-6.4603075E-2,1.10442E-3,6.273494E-2,-4.698058E-2],"split_indices":[2,0,12,0,0],"split_type":[0,0,0,0,0],"sum_hessian":[4.2003245E0,1.3715667E0,2.8287578E0,1.8206756E0,1.0080823E0],"tree_param":{"num_deleted":"0","num_feature":"14","num_nodes":"5","size_leaf_vector":"1"}},{"base_weights":[-1.316091E-2,4.0372804E-2,-1.1134465E-1,2.3946652E-2,-6.520086E-2],"categories":[],"categories_nodes":[],"categories_segments":[],"categories_sizes":[],"default_left":[0,0,0,0,0],"id":88,"left_children":[1,-1,3,-1,-1],"loss_changes":[1.409543E-1,0E0,1.724286E-1,0E0,0E0],"parents":[2147483647,0,0,2,2],"right_children":[2,-1,4,-1,-1],"split_conditions":[9.94018E-1,4.0372804E-2,1.5E2,2.3946652E-2,-6.520086E-2],"split_indices":[4,0,0,0,0],"split_type":[0,0,0,0,0],"sum_hessian":[4.9012966E0,1.5054878E0,3.395809E0,1.5294873E0,1.8663218E0],"tree_param":{"num_deleted":"0","num_feature":"14","num_nodes":"5","size_leaf_vector":"1"}},{"base_weights":[-2.0715347E-2,1.2324306E-1,-5.695338E-2,-2.532775E-2,6.676375E-2],"categories":[],"categories_nodes":[],"categories_segments":[],"categories_sizes":[],"default_left":[0,0,0,0,0],"id":89,"left_children":[1,3,-1,-1,-1],"loss_changes":[2.1120119E-1,1.6010801E-1,0E0,0E0,0E0],"parents":[2147483647,0,0,1,1],"right_children":[2,4,-1,-1,-1],"split_conditions":[1.6556593E-3,2.0910304E-2,-5.695338E-2,-2.532775E-2,6.676375E-2],"split_indices":[12,2,0,0,0],"split_type":[0,0,0,0,0],"sum_hessian":[3.9813638E0,2.6029663E0,1.3783975E0,1.0668803E0,1.536086E0],"tree_param":{"num_deleted":"0","num_feature":"14","num_nodes":"5","size_leaf_vector":"1"}},{"base_weights":[1.3463324E-2,4.703186E-2,-9.93169E-2,-5.5983074E-2,2.6056034E-2],"categories":[],"categories_nodes":[],"categories_segments":[],"categories_sizes":[],"default_left":[0,0,0,0,0],"id":90,"left_children":[1,-1,3,-1,-1],"loss_changes":[1.442288E-1,0E0,1.3437575E-1,0E0,0E0],"parents":[2147483647,0,0,2,2],"right_children":[2,-1,4,-1,-1],"split_conditions":[1.8E1,4.703186E-2,1.3E1,-5.5983074E-2,2.6056034E-2],"split_indices":[10,0,8,0,0],"split_type":[0,0,0,0,0],"sum_hessian":[4.2182283E0,1.3535452E0,2.8646832E0,1.8281945E0,1.0364885E0],"tree_param":{"num_deleted":"0","num_feature":"14","num_nodes":"5","size_leaf_vector":"1"}},{"base_weights":[-6.487541E-2,3.6757115E-2,-5.780086E-2],"categories":[],"categories_nodes":[],"categories_segments":[],"categories_sizes":[],"default_left":[0,0,0],"id":91,"left_children":[1,-1,-1],"loss_changes":[2.3979743E-1,0E0,0E0],"parents":[2147483647,0,0],"right_children":[2,-1,-1],"split_conditions":[3.201864E-2,3.6757115E-2,-5.780086E-2],"split_indices":[2,0,0],"split_type":[0,0,0],"sum_hessian":[4.5283456E0,1.9602305E0,2.5681148E0],"tree_param":{"num_deleted":"0","num_feature":"14","num_nodes":"3","size_leaf_vector":"1"}},{"base_weights":[-1.07330166E-1],"categories":[],"categories_nodes":[],"categories_segments":[],"categories_sizes":[],"default_left":[0],"id":92,"left_children":[-1],"loss_changes":[0E0],"parents":[2147483647],"right_children":[-1],"split_conditions":[-3.0014383E-2],"split_indices":[0],"split_type":[0],"sum_hessian":[3.414342E0],"tree_param":{"num_deleted":"0","num_feature":"14","num_nodes":"1","size_leaf_vector":"1"}},{"base_weights":[-1.241045E-1,3.766969E-2,-2.3430496E-1,1.3000051E-2,-9.443826E-2],"categories":[],"categories_nodes":[],"categories_segments":[],"categories_sizes":[],"default_left":[0,0,0,0,0],"id":93,"left_children":[1,-1,3,-1,-1],"loss_changes":[2.4804918E-1,0E0,1.8512473E-1,0E0,0E0],"parents":[2147483647,0,0,2,2],"right_children":[2,-1,4,-1,-1],"split_conditions":[1.0594091E-2,3.766969E-2,1.9177E4,1.3000051E-2,-9.443826E-2],"split_indices":[2,0,9,0,0],"split_type":[0,0,0,0,0],"sum_hessian":[4.341514E0,1.1571174E0,3.1843967E0,1.1610097E0,2.0233872E0],"tree_param":{"num_deleted":"0","num_feature":"14","num_nodes":"5","size_leaf_vector":"1"}},{"base_weights":[-2.836702E-2,-6.273219E-2,1.6493578E-1,8.334466E-2,-2.3878403E-2],"categories":[],"categories_nodes":[],"categories_segments":[],"categories_sizes":[],"default_left":[0,0,0,0,0],"id":94,"left_children":[1,-1,3,-1,-1],"loss_changes":[3.2413527E-1,0E0,2.0201221E-1,0E0,0E0],"parents":[2147483647,0,0,2,2],"right_children":[2,-1,4,-1,-1],"split_conditions":[2.6E1,-6.273219E-2,2.915597E1,8.334466E-2,-2.3878403E-2],"split_indices":[10,0,11,0,0],"split_type":[0,0,0,0,0],"sum_hessian":[4.4712763E0,2.0577931E0,2.4134834E0,1.3206878E0,1.0927956E0],"tree_param":{"num_deleted":"0","num_feature":"14","num_nodes":"5","size_leaf_vector":"1"}},{"base_weights":[7.832832E-3,1.28852E-1,-5.273102E-2,6.574457E-2,-1.9426754E-2],"categories":[],"categories_nodes":[],"categories_segments":[],"categories_sizes":[],"default_left":[0,0,0,0,0],"id":95,"left_children":[1,3,-1,-1,-1],"loss_changes":[2.0482455E-1,1.4464194E-1,0E0,0E0,0E0],"parents":[2147483647,0,0,1,1],"right_children":[2,4,-1,-1,-1],"split_conditions":[1.7737432E-3,8.0552E4,-5.273102E-2,6.574457E-2,-1.9426754E-2],"split_indices":[12,9,0,0,0],"split_type":[0,0,0,0,0],"sum_hessian":[4.441401E0,3.190309E0,1.2510922E0,1.8305573E0,1.3597517E0],"tree_param":{"num_deleted":"0","num_feature":"14","num_nodes":"5","size_leaf_vector":"1"}},{"base_weights":[-5.9384286E-2],"categories":[],"categories_nodes":[],"categories_segments":[],"categories_sizes":[],"default_left":[0],"id":96,"left_children":[-1],"loss_changes":[0E0],"parents":[2147483647],"right_children":[-1],"split_conditions":[-1.660654E-2],"split_indices":[0],"split_type":[0],"sum_hessian":[4.719258E0],"tree_param":{"num_deleted":"0","num_feature":"14","num_nodes":"1","size_leaf_vector":"1"}},{"base_weights":[7.498453E-2,-2.8036546E-2,5.2386306E-2],"categories":[],"categories_nodes":[],"categories_segments":[],"categories_sizes":[],"default_left":[0,0,0],"id":97,"left_children":[1,-1,-1],"loss_changes":[1.6455992E-1,0E0,0E0],"parents":[2147483647,0,0],"right_children":[2,-1,-1],"split_conditions":[3.8905758E-1,-2.8036546E-2,5.2386306E-2],"split_indices":[11,0,0],"split_type":[0,0,0],"sum_hessian":[4.317562E0,1.7706727E0,2.5468893E0],"tree_param":{"num_deleted":"0","num_feature":"14","num_nodes":"3","size_leaf_vector":"1"}},{"base_weights":[-4.0416334E-2,-1.5569243E-1,4.973188E-2,-8.109815E-2,2.047044E-2],"categories":[],"categories_nodes":[],"categories_segments":[],"categories_sizes":[],"default_left":[0,0,0,0,0],"id":98,"left_children":[1,3,-1,-1,-1],"loss_changes":[2.1770453E-1,2.0633027E-1,0E0,0E0,0E0],"parents":[2147483647,0,0,1,1],"right_children":[2,4,-1,-1,-1],"split_conditions":[1.15747E5,3.9274983E-2,4.973188E-2,-8.109815E-2,2.047044E-2],"split_indices":[9,2,0,0,0],"split_type":[0,0,0,0,0],"sum_hessian":[4.3135896E0,3.2127376E0,1.1008519E0,1.679294E0,1.5334435E0],"tree_param":{"num_deleted":"0","num_feature":"14","num_nodes":"5","size_leaf_vector":"1"}},{"base_weights":[1.9958085E-1],"categories":[],"categories_nodes":[],"categories_segments":[],"categories_sizes":[],"default_left":[0],"id":99,"left_children":[-1],"loss_changes":[0E0],"parents":[2147483647],"right_children":[-1],"split_conditions":[5.5811856E-2],"split_indices":[0],"split_type":[0],"sum_hessian":[3.8098445E0],"tree_param":{"num_deleted":"0","num_feature":"14","num_nodes":"1","size_leaf_vector":"1"}}]},"name":"gbtree"},"learner_model_param":{"base_score":"1.5208898E-1","boost_from_average":"1","num_class":"0","num_feature":"14","num_target":"1"},"objective":{"name":"binary:logistic","reg_loss_param":{"scale_pos_weight":"1"}}},"version":[2,0,3]}